
\data\
ngram 1=68
ngram 2=3077
ngram 3=38027

\1-grams:
-1.485148	</s>
-99	<s>	-4.089178
-2.908682	ACRNM	-2.516681
-1.167247	ADJ	-1.276943
-1.556711	ADV	-2.264216
-3.174604	ALFS	-1.99882
-0.9468614	ART	-2.420913
-7.570873	BACKSLASH	-0.2091192
-2.085569	CARD	-2.996457
-1.61514	CC	-2.132783
-2.621439	CCAD	-3.503325
-3.269409	CCNEG	-3.832275
-1.298886	CM	-2.589289
-3.020168	CODE	-2.308483
-2.848815	COLON	-2.394095
-1.50747	CQUE	-2.580417
-2.752535	CSUBF	-2.969877
-2.16627	CSUBI	-3.280629
-2.103428	CSUBX	-2.728834
-3.273025	DASH	-2.484828
-1.941944	DM	-2.977676
-4.266167	DOTS	-1.633519
-1.453413	FS	-3.093181
-3.059444	LP	-3.450781
-0.7195629	NC	-2.502499
-2.064464	NEG	-3.806977
-3.766121	NMEA	-2.475699
-3.353863	NMON	-3.067558
-1.374182	NP	-2.233966
-2.742458	ORD	-3.591992
-2.370502	PAL	-4.157679
-1.990108	PDEL	-3.625207
-3.334462	PE	-2.145638
-3.323244	PERCT	-3.529471
-2.626233	PPC	-4.047392
-2.064721	PPO	-3.325052
-2.233212	PPX	-2.653571
-0.8946915	PREP	-2.472873
-3.222315	QT	-1.858123
-1.918953	QU	-2.98222
-2.987062	REL	-3.682448
-3.051334	RP	-2.198349
-1.972684	SE	-4.302836
-3.128017	SEMICOLON	-2.799149
-3.234994	SLASH	-3.885256
-4.624421	SYM	-2.983108
-5.22452	UMMX	-3.383365
-2.835873	VCLIinf	-3.419156
-4.272894	VEadj	-3.865282
-3.57832	VEfin	-3.277798
-4.555933	VEger	-2.291217
-3.561933	VEinf	-3.736358
-3.940242	VHadj	-2.521116
-2.133844	VHfin	-3.918533
-4.715354	VHger	-2.270194
-3.508743	VHinf	-3.000916
-1.615565	VLadj	-2.310716
-1.217122	VLfin	-1.288505
-2.985085	VLger	-2.763621
-1.533833	VLinf	-2.439477
-3.867496	VMadj	-4.257023
-2.303852	VMfin	-3.868475
-5.575238	VMger	-2.560895
-3.462714	VMinf	-2.943787
-3.09819	VSadj	-3.062756
-2.006159	VSfin	-4.075601
-3.645819	VSger	-2.84235
-2.912843	VSinf	-3.384396

\2-grams:
-2.926462	<s> ACRNM	-2.346419
-1.361731	<s> ADJ	-1.769437
-1.195548	<s> ADV	-1.564141
-1.875624	<s> ALFS	-2.041539
-1.013074	<s> ART	-0.4238503
-2.690053	<s> CARD	-1.221843
-2.169222	<s> CC	-1.693708
-5.784698	<s> CCAD
-3.559389	<s> CM	-1.507819
-3.924361	<s> CODE	-0.7945202
-5.488912	<s> COLON	-0.3923887
-3.111217	<s> CQUE	-0.8039467
-2.485846	<s> CSUBF	-1.778124
-2.185252	<s> CSUBI	-1.89265
-1.514952	<s> CSUBX	-0.7827959
-2.912542	<s> DASH	-1.437283
-1.62771	<s> DM	-2.114092
-4.098957	<s> DOTS	-0.7094938
-2.096858	<s> FS	-3.124479
-2.448339	<s> LP	-1.818433
-0.8444237	<s> NC	-2.213971
-1.578197	<s> NEG	-1.282646
-5.131486	<s> NMEA	-0.2449512
-0.6222372	<s> NP	-1.646755
-4.188101	<s> ORD	-0.6174396
-2.644191	<s> PAL	-1.067364
-4.784698	<s> PDEL	-0.7994366
-2.683639	<s> PE	-2.448015
-5.092028	<s> PPO	0.01852268
-5.488912	<s> PPX	-0.3352599
-0.9611819	<s> PREP	-1.377671
-3.694793	<s> QT	-1.04115
-2.138687	<s> QU	-1.667795
-4.199238	<s> RP	-0.9678091
-1.814817	<s> SE	-1.064943
-6.085729	<s> SLASH
-5.307577	<s> SYM	-0.2561749
-2.474324	<s> VHfin	-1.947995
-1.859386	<s> VLadj	-1.935165
-1.229223	<s> VLfin	-2.966374
-2.694793	<s> VLger	-1.877722
-1.3536	<s> VLinf	-2.668454
-2.654043	<s> VMfin	-0.6747574
-1.602455	<s> VSfin	-1.673635
-5.784698	<s> VSinf
-3.049445	ACRNM </s>
-3.199831	ACRNM ACRNM	-0.00870055
-1.79124	ACRNM ADJ	-0.1874104
-1.804896	ACRNM ADV	-0.8921827
-4.662229	ACRNM ALFS
-2.081304	ACRNM ART	-0.1918828
-2.649392	ACRNM CARD	-0.6521533
-1.070052	ACRNM CC	-0.5231364
-3.009016	ACRNM CCAD	-0.4169242
-2.849315	ACRNM CCNEG	-0.2980315
-0.89537	ACRNM CM	-0.04459095
-3.383475	ACRNM CODE	-0.364529
-2.684505	ACRNM COLON	-0.2729926
-1.738467	ACRNM CQUE	-0.4208589
-2.972033	ACRNM CSUBF	0.01595795
-1.914817	ACRNM CSUBI	-0.4242642
-1.962391	ACRNM CSUBX	-0.2981544
-2.921866	ACRNM DASH	-0.2588894
-3.361199	ACRNM DM	-0.6082069
-3.662229	ACRNM DOTS	-0.1387275
-0.6796862	ACRNM FS	0.02229023
-1.369751	ACRNM LP	-1.361997
-2.151684	ACRNM NC	-0.2417961
-1.616906	ACRNM NEG	-1.136413
-3.02876	ACRNM NP	-0.01875043
-2.52869	ACRNM PAL	0.4226449
-2.483252	ACRNM PDEL	-0.1201044
-4.060169	ACRNM PE	-0.2514529
-2.572324	ACRNM PPC	0.1838646
-1.541326	ACRNM PPO	-0.6477318
-2.990131	ACRNM PPX	-1.004394
-0.9122607	ACRNM PREP	-0.0991416
-3.03898	ACRNM QT	-0.2237879
-3.13075	ACRNM QU	-0.2260716
-3.458109	ACRNM REL	-0.1137105
-2.224478	ACRNM RP	-0.6651226
-1.653203	ACRNM SE	-1.530939
-2.590347	ACRNM SEMICOLON	-0.265359
-1.605324	ACRNM SLASH	-1.197155
-4.662229	ACRNM SYM
-3.751129	ACRNM VCLIinf	-0.05984876
-3.383475	ACRNM VEfin	-0.4513292
-1.764052	ACRNM VHfin	-0.528996
-1.919504	ACRNM VLadj	-0.4616534
-0.9685898	ACRNM VLfin	-0.7801611
-3.516101	ACRNM VLger	-0.4355811
-2.497876	ACRNM VLinf	0.03568292
-1.52646	ACRNM VMfin	-0.7992123
-4.662229	ACRNM VMinf
-1.671446	ACRNM VSfin	-0.5446105
-3.522243	ADJ </s>
-3.897123	ADJ ACRNM	0.1693432
-1.381183	ADJ ADJ	0.09031534
-1.911888	ADJ ADV	-0.4380338
-3.891744	ADJ ALFS	-0.8414644
-1.85384	ADJ ART	-0.01442409
-3.159846	ADJ CARD	-0.1648721
-1.077446	ADJ CC	-0.6901131
-2.933511	ADJ CCAD	-0.44537
-2.941529	ADJ CCNEG	-0.338949
-0.8399817	ADJ CM	-0.3102345
-3.827286	ADJ CODE	-0.5149364
-2.283581	ADJ COLON	-0.1513045
-1.342394	ADJ CQUE	-0.02076292
-2.885114	ADJ CSUBF	-0.1642053
-1.761054	ADJ CSUBI	-0.8630142
-2.062233	ADJ CSUBX	-0.2525721
-3.048368	ADJ DASH	-1.073679
-2.932189	ADJ DM	-0.01938748
-4.224651	ADJ DOTS	-0.1982375
-0.9153788	ADJ FS	-1.414855
-2.897935	ADJ LP	0.285063
-0.7737422	ADJ NC	-0.5746078
-2.116431	ADJ NEG	-0.5903797
-3.356742	ADJ NMEA	0.01266408
-5.023417	ADJ NMON	-0.1411136
-2.259178	ADJ NP	-0.2642884
-3.723292	ADJ ORD	-0.4530023
-2.189659	ADJ PAL	0.08061147
-1.823478	ADJ PDEL	-1.287278
-3.607748	ADJ PE	-0.7574925
-6.403628	ADJ PERCT
-3.464608	ADJ PPC	-0.5834173
-2.960678	ADJ PPO	0.04337597
-2.918474	ADJ PPX	-0.5973938
-0.7412212	ADJ PREP	-1.037511
-2.991167	ADJ QT	-0.4972601
-2.874326	ADJ QU	-0.3337448
-3.343308	ADJ REL	-0.7099057
-3.324808	ADJ RP	-0.859
-2.136785	ADJ SE	-0.4946597
-2.55692	ADJ SEMICOLON	-0.3381126
-4.500538	ADJ SLASH	-0.483135
-5.403628	ADJ SYM	-0.5609779
-3.506551	ADJ VCLIinf	-0.2269206
-3.580806	ADJ VEfin	-0.2986588
-6.102598	ADJ VEger
-4.435145	ADJ VEinf	-0.5397155
-4.812563	ADJ VHadj	-1.430248
-2.368198	ADJ VHfin	-0.7352669
-5.492527	ADJ VHger	-0.4512368
-4.012692	ADJ VHinf	-0.6854874
-1.721961	ADJ VLadj	-0.7074804
-1.49598	ADJ VLfin	-0.21909
-3.351704	ADJ VLger	-0.6815668
-1.649363	ADJ VLinf	-0.6275673
-4.366201	ADJ VMadj	0.004874825
-2.301297	ADJ VMfin	-0.6750972
-5.449385	ADJ VMger	-0.2588828
-4.395028	ADJ VMinf	-0.1003898
-4.358305	ADJ VSadj	-0.3149156
-1.917098	ADJ VSfin	-0.6813235
-5.2575	ADJ VSger	-0.3311603
-5.124874	ADJ VSinf	-0.2195234
-4.537044	ADV </s>
-4.537044	ADV ACRNM	-0.4650354
-0.9335742	ADV ADJ	-1.158554
-1.457428	ADV ADV	0.08714199
-4.221773	ADV ALFS	-0.6708381
-1.012665	ADV ART	-0.5081303
-2.343362	ADV CARD	-1.06307
-1.931882	ADV CC	-0.1368086
-3.849812	ADV CCAD	-0.7948115
-3.581195	ADV CCNEG	-0.01163769
-0.7564909	ADV CM	-0.6548204
-4.470097	ADV CODE	-0.1214612
-2.738393	ADV COLON	0.1171973
-1.590755	ADV CQUE	-0.134155
-2.796681	ADV CSUBF	-0.6982712
-1.875041	ADV CSUBI	-0.1784866
-1.921304	ADV CSUBX	0.1520226
-3.265977	ADV DASH	-0.6965382
-2.161136	ADV DM	0.03970861
-4.281771	ADV DOTS	-0.5539162
-1.474649	ADV FS	-1.07718
-3.761312	ADV LP	-0.3325028
-1.560113	ADV NC	-0.6802166
-1.879509	ADV NEG	-0.4379756
-5.236013	ADV NMEA	-0.02672955
-5.412105	ADV NMON	-0.09661114
-2.727933	ADV NP	-0.1240613
-4.582801	ADV ORD	-0.2582394
-2.08291	ADV PAL	-0.7646551
-1.992603	ADV PDEL	-0.6605418
-4.470097	ADV PE	-0.1918021
-2.142592	ADV PPC	-0.405582
-2.099769	ADV PPO	-0.1034484
-2.268387	ADV PPX	-1.168107
-0.756983	ADV PREP	-0.8488438
-3.595863	ADV QT	-0.3529191
-1.951959	ADV QU	-0.6331031
-3.861876	ADV REL	-0.2607288
-3.737703	ADV RP	-0.5677986
-1.633971	ADV SE	-0.3920653
-3.216897	ADV SEMICOLON	-0.3116169
-6.014164	ADV SLASH
-3.332923	ADV VCLIinf	-0.2303551
-3.380696	ADV VEfin	-0.09874988
-4.810045	ADV VEger	0.2290091
-4.055123	ADV VEinf	-0.4489543
-4.567007	ADV VHadj	-1.151875
-1.836109	ADV VHfin	-0.568485
-5.014164	ADV VHger	-0.5655273
-4.045681	ADV VHinf	-0.5727879
-1.310358	ADV VLadj	-0.3872235
-1.149043	ADV VLfin	-0.5755658
-2.787565	ADV VLger	-0.927721
-1.955397	ADV VLinf	-0.4319448
-5.111074	ADV VMadj	-0.1560596
-2.147287	ADV VMfin	-0.7867703
-5.020464	ADV VMger	-0.01044047
-3.56856	ADV VMinf	0.06647038
-4.691946	ADV VSadj	0.1765188
-1.806854	ADV VSfin	-0.4290292
-4.022939	ADV VSger	-0.6146559
-3.604232	ADV VSinf	-0.4573295
-3.493319	ALFS </s>
-1.43928	ALFS ADJ	-0.7673489
-1.254019	ALFS ADV	-1.075412
-2.877895	ALFS ALFS	-0.7448084
-1.035626	ALFS ART	-0.4905058
-1.821221	ALFS CARD	-0.6133617
-1.925117	ALFS CC	-0.2661966
-3.485308	ALFS CCAD	-0.08446258
-4.095378	ALFS CCNEG	-0.874692
-1.017284	ALFS CM	-0.5033278
-3.220317	ALFS CODE	-0.3394116
-2.998469	ALFS COLON	-0.5281574
-2.310049	ALFS CQUE	-0.2435704
-3.799592	ALFS CSUBF
-2.106374	ALFS CSUBI	0.3031758
-2.405183	ALFS CSUBX	0.1109867
-2.604017	ALFS DASH	-0.3070257
-0.8176548	ALFS DM	-0.9151864
-3.074189	ALFS DOTS	-0.2512378
-2.122251	ALFS FS	-0.3725863
-3.034681	ALFS LP	-0.2850747
-1.09603	ALFS NC	-0.5962002
-2.515595	ALFS NEG	-0.603272
-3.799592	ALFS NMON	-0.110682
-1.63373	ALFS NP	-0.1922606
-2.840106	ALFS ORD	-0.7664177
-2.432621	ALFS PAL	-0.3504894
-1.831743	ALFS PDEL	-0.8234613
-2.981435	ALFS PE	-0.3726874
-2.515595	ALFS PPC	-0.009211183
-3.799592	ALFS PPO	0.2150443
-1.71789	ALFS PPX	-1.278094
-1.015655	ALFS PREP	-0.1431425
-1.757919	ALFS QT	-0.5053661
-1.700927	ALFS QU	-0.9809403
-2.625556	ALFS REL	-0.4029746
-1.572934	ALFS RP	-1.104156
-2.030921	ALFS SE	0.4603302
-3.355016	ALFS SEMICOLON	-0.2626414
-2.697438	ALFS SLASH	0.4894261
-2.048104	ALFS SYM	-1.238543
-4.095378	ALFS VCLIinf
-3.794349	ALFS VEfin
-4.095378	ALFS VHadj	-0.6726122
-3.396409	ALFS VHfin	0.1070946
-4.396409	ALFS VHger
-4.396409	ALFS VHinf
-2.220317	ALFS VLadj	-0.5467143
-0.9561294	ALFS VLfin	-0.4790392
-2.816625	ALFS VLger	-0.2495968
-1.621162	ALFS VLinf	-1.410431
-2.313623	ALFS VMfin	-0.1713969
-3.799592	ALFS VSadj	-0.1826396
-1.572283	ALFS VSfin	-0.2795216
-5.477886	ART </s>
-2.108538	ART ACRNM	0.1207137
-1.113241	ART ADJ	-0.999979
-2.726442	ART ADV	-0.3761125
-4.845863	ART ALFS	-0.7397
-4.135463	ART ART	0.1226077
-1.937449	ART CARD	-0.7430689
-3.39229	ART CC	-1.249669
-5.544833	ART CCAD	-0.3903552
-5.19265	ART CCNEG	-0.5796942
-4.008064	ART CM	-0.2314172
-3.769101	ART CODE	-0.9186422
-5.118864	ART COLON	-0.3897237
-1.545891	ART CQUE	-1.121769
-5.712914	ART CSUBF	-0.1453724
-3.482878	ART CSUBI	-1.577856
-5.368742	ART CSUBX	-0.6297966
-5.582621	ART DASH	-0.06188474
-4.0018	ART DM	-0.3735284
-5.544833	ART DOTS	-0.6352164
-4.327349	ART FS	-0.1215993
-5.243803	ART LP	0.008737952
-0.1393097	ART NC	-0.1885409
-3.53908	ART NEG	-1.454295
-3.279033	ART NMEA	-0.3360424
-5.712914	ART NMON	-0.5772691
-1.003333	ART NP	-1.502914
-2.196885	ART ORD	-0.3930442
-5.146893	ART PAL	-0.3708519
-3.12227	ART PDEL	-0.446142
-3.38048	ART PE	-1.247571
-5.419894	ART PPC	-0.07874525
-3.883651	ART PPO	-0.0975647
-3.903855	ART PPX	-0.4391153
-2.228373	ART PREP	-0.3791277
-3.357077	ART QT	-1.91355
-2.40422	ART QU	-0.4528797
-2.469438	ART REL	-0.3378148
-4.544833	ART RP	-1.062805
-4.64629	ART SE	0.2669638
-5.624014	ART SEMICOLON	-0.1128179
-6.322984	ART SLASH	-0.9677349
-6.624014	ART SYM
-6.624014	ART UMMX
-5.118864	ART VCLIinf	-0.09212857
-4.048826	ART VEfin	-0.7485424
-5.630313	ART VEinf	-0.009145319
-6.624014	ART VHadj
-4.234848	ART VHfin	-0.3009392
-4.684495	ART VHinf	-0.9341624
-2.062042	ART VLadj	-0.1738849
-1.820851	ART VLfin	-1.33564
-3.940967	ART VLger	-0.8054059
-3.461748	ART VLinf	-0.02101409
-4.720924	ART VMadj	-0.1752668
-4.766682	ART VMfin	-0.3567197
-3.625319	ART VMinf	-0.4828403
-4.056988	ART VSadj	-1.018957
-4.215774	ART VSfin	0.03707838
-6.624014	ART VSinf
-0.30103	BACKSLASH NC
-3.152867	CARD </s>
-3.550807	CARD ACRNM	-0.1422527
-1.874326	CARD ADJ	-1.161352
-2.699975	CARD ADV	-0.6501437
-2.765146	CARD ALFS	-1.13123
-2.185798	CARD ART	-0.7328484
-1.233886	CARD CARD	-1.081289
-1.33624	CARD CC	-0.441448
-4.070332	CARD CCAD	-0.1745775
-3.634047	CARD CCNEG	-0.7280183
-0.9745995	CARD CM	-0.1320488
-2.737117	CARD CODE	-1.010778
-2.584938	CARD COLON	-0.2963526
-2.402161	CARD CQUE	-0.4197611
-3.777735	CARD CSUBF	0.004313827
-2.767635	CARD CSUBI	-0.4856848
-2.652158	CARD CSUBX	-0.2506512
-1.871252	CARD DASH	-0.8998828
-4.281186	CARD DM	-0.4992459
-4.485305	CARD DOTS	-0.3862891
-1.230878	CARD FS	-0.8410096
-1.971688	CARD LP	-1.344777
-0.5780553	CARD NC	-0.01181269
-2.459181	CARD NEG	-1.310827
-2.342603	CARD NMEA	-0.09202421
-4.707154	CARD NMON	-0.2780967
-2.540329	CARD NP	-0.3888592
-2.788076	CARD ORD	0.2247928
-2.534454	CARD PAL	-0.2057568
-1.735801	CARD PDEL	-0.623138
-3.455922	CARD PE	-1.296643
-1.237774	CARD PERCT	0.3859613
-3.627973	CARD PPC	0.3749794
-3.604492	CARD PPO	-0.3132455
-3.679125	CARD PPX	-0.6574966
-0.728791	CARD PREP	-0.7570846
-3.161023	CARD QT	-0.2842678
-3.309214	CARD QU	-0.3310494
-4.406124	CARD REL	-0.2217358
-1.544341	CARD RP	-1.195897
-2.111107	CARD SE	-0.4794703
-2.911274	CARD SEMICOLON	-0.1434325
-1.538117	CARD SLASH	-1.422587
-3.354972	CARD SYM	-0.8447838
-3.175675	CARD UMMX	0.00997889
-5.184275	CARD VCLIinf
-3.593211	CARD VEfin	-0.4477274
-5.485305	CARD VEinf
-2.708604	CARD VHfin	0.04790258
-1.995066	CARD VLadj	-0.6550603
-1.432112	CARD VLfin	0.04720402
-3.953826	CARD VLger	-0.2107229
-3.571491	CARD VLinf	0.05340976
-2.736342	CARD VMfin	-0.5419064
-2.288577	CARD VSfin	-0.5463054
-3.960107	CC </s>
-3.822204	CC ACRNM	-0.159441
-1.065288	CC ADJ	-0.367018
-1.367146	CC ADV	0.1087193
-3.594015	CC ALFS	-0.651921
-0.7318081	CC ART	-0.3009899
-1.941348	CC CARD	-0.141721
-5.044642	CC CC
-5.955742	CC CCAD
-3.629407	CC CCNEG	-0.7017296
-1.428912	CC CM	-1.847012
-2.547333	CC CODE	-0.8505176
-5.358926	CC COLON	-0.3031398
-1.401581	CC CQUE	-0.9603879
-2.640192	CC CSUBF	0.03669572
-2.259561	CC CSUBI	-0.03850746
-1.964871	CC CSUBX	-0.4781947
-4.575531	CC DASH	-0.1923116
-2.093313	CC DM	-0.3907704
-5.358926	CC DOTS	-0.3358955
-5.044642	CC FS	0.8994405
-4.450593	CC LP	-0.3369012
-0.9325519	CC NC	-0.9020257
-1.618503	CC NEG	0.2825353
-4.876561	CC NMEA	-0.1615075
-3.883861	CC NMON	-0.1842668
-1.440041	CC NP	-0.8472571
-3.318253	CC ORD	-0.06927669
-2.040184	CC PAL	-0.9283066
-1.945061	CC PDEL	-0.8186474
-3.316256	CC PE	-0.5656611
-2.111701	CC PPC	-0.835145
-1.824734	CC PPO	-0.8363411
-1.929373	CC PPX	-0.9375658
-0.8418961	CC PREP	-0.8279192
-4.955742	CC QT	-0.8603917
-1.723458	CC QU	-0.04855704
-2.930847	CC REL	-0.9042807
-5.044642	CC RP	-0.1873755
-1.962306	CC SE	0.1618352
-5.955742	CC SEMICOLON
-3.815863	CC SLASH	-2.140221
-5.358926	CC SYM
-2.794374	CC VCLIinf	-0.5360551
-4.052652	CC VEfin	-0.2134024
-4.70047	CC VEger	0.2541237
-3.667941	CC VEinf	-1.668977
-4.041929	CC VHadj	-1.623795
-2.318854	CC VHfin	-0.1327143
-4.508584	CC VHger	-0.7855438
-3.918316	CC VHinf	-1.097127
-1.746737	CC VLadj	-0.6974862
-1.123157	CC VLfin	-0.8940399
-2.817124	CC VLger	-1.147335
-1.347249	CC VLinf	-0.4449959
-5.177591	CC VMadj	-0.04691511
-2.328274	CC VMfin	-0.4743404
-5.044642	CC VMger	0.1569789
-3.663486	CC VMinf	-0.7621136
-5.177591	CC VSadj	-0.4130432
-2.187623	CC VSfin	-0.4777408
-4.39944	CC VSger	-0.1452658
-3.384034	CC VSinf	-1.065113
-1.583035	CCAD ADJ	-0.3039131
-0.6598025	CCAD ADV	-0.6203108
-1.045338	CCAD ART	-0.5467863
-2.822354	CCAD CARD	-0.3937833
-3.955758	CCAD CC	-0.3073868
-3.157067	CCAD CCNEG	-0.6389254
-1.408379	CCAD CM	-1.666699
-3.949458	CCAD CODE	-0.3702196
-4.949458	CCAD COLON
-0.872454	CCAD CQUE	-0.8457608
-2.856037	CCAD CSUBF	0.2727576
-2.020039	CCAD CSUBI	0.3965516
-1.655213	CCAD CSUBX	-0.4962878
-3.870277	CCAD DASH	-0.3702644
-1.707663	CCAD DM	-0.7233878
-4.046368	CCAD DOTS	-0.01908559
-4.171307	CCAD FS	0.2460849
-4.347398	CCAD LP
-1.936621	CCAD NC	-0.09895945
-1.12631	CCAD NEG	-0.5770154
-4.046368	CCAD NMON	0.06016615
-2.591523	CCAD NP	-0.3796264
-2.466585	CCAD PAL	-0.7126368
-2.623122	CCAD PDEL	-0.02766407
-4.171307	CCAD PE	-0.1450335
-2.301098	CCAD PPC	-1.302372
-2.143278	CCAD PPO	-0.3472567
-1.658756	CCAD PPX	-1.045049
-1.008245	CCAD PREP	-0.3987911
-3.745338	CCAD QT	-0.4297168
-1.866314	CCAD QU	-0.4476964
-2.845654	CCAD REL	-0.6620265
-2.010939	CCAD SE	-0.09888625
-3.086135	CCAD VCLIinf	-0.2575265
-3.569247	CCAD VEfin	-0.4665716
-4.648428	CCAD VEger
-3.40539	CCAD VEinf	-0.6616013
-3.773367	CCAD VHadj	-0.908837
-2.182302	CCAD VHfin	-0.2338943
-4.949458	CCAD VHinf
-1.948157	CCAD VLadj	-0.4473487
-0.9365368	CCAD VLfin	-1.320894
-2.679945	CCAD VLger	-0.404143
-1.727783	CCAD VLinf	-0.7728046
-2.072663	CCAD VMfin	-0.5439495
-4.347398	CCAD VMinf
-1.715194	CCAD VSfin	-0.7290878
-4.352642	CCAD VSger
-3.472337	CCAD VSinf	-0.5628788
-3.699773	CCNEG ACRNM	-0.2560038
-1.294512	CCNEG ADJ	-0.5940825
-0.7094339	CCNEG ADV	-0.7290181
-4.000803	CCNEG ALFS
-0.7141218	CCNEG ART	-0.5682688
-2.577557	CCNEG CARD	-0.5542798
-2.165112	CCNEG CM	-0.7993069
-3.699773	CCNEG CODE
-2.000803	CCNEG CQUE	-0.2173346
-3.523681	CCNEG CSUBF	-0.889212
-2.084349	CCNEG CSUBI	-0.4867174
-2.569439	CCNEG CSUBX	-0.2399216
-4.000803	CCNEG DASH
-2.516503	CCNEG DM	-0.1268255
-4.301833	CCNEG LP
-1.048737	CCNEG NC	-0.4555656
-3.699773	CCNEG NEG
-2.125741	CCNEG NP	-0.5755368
-1.998637	CCNEG PAL	-0.4671179
-2.084349	CCNEG PDEL	-0.2606225
-3.390733	CCNEG PE
-2.297511	CCNEG PPC	-0.4587339
-1.971419	CCNEG PPO	-0.3844947
-2.111501	CCNEG PPX	-0.6797436
-0.6949142	CCNEG PREP	-0.6006401
-3.705016	CCNEG QT
-1.850046	CCNEG QU	-0.5004311
-4.000803	CCNEG REL
-1.74553	CCNEG SE	0.1544646
-2.678583	CCNEG VCLIinf	-0.3130126
-3.390733	CCNEG VEfin	-0.4616647
-3.390733	CCNEG VEinf	-0.07866029
-2.222651	CCNEG VHfin	0.3133821
-3.390733	CCNEG VHinf	0.1481531
-1.881877	CCNEG VLadj	-0.3298184
-1.198713	CCNEG VLfin	-0.5935934
-3.097713	CCNEG VLger	-0.2153933
-1.360819	CCNEG VLinf	-0.4959325
-1.817533	CCNEG VMfin	-0.876641
-3.390733	CCNEG VMinf	-0.05394983
-2.215473	CCNEG VSfin	-0.9498025
-2.921622	CCNEG VSinf	-0.3933463
-3.776445	CM </s>
-4.200107	CM ACRNM	-0.7143688
-1.8041	CM ADJ	-1.021578
-1.03641	CM ADV	-0.8227134
-4.189204	CM ALFS	-1.00926
-0.8581698	CM ART	-0.604881
-2.107606	CM CARD	-0.2555695
-1.318017	CM CC	-1.156152
-1.390416	CM CCAD	-0.2135549
-2.600724	CM CCNEG	-0.1489508
-4.609231	CM CM	-0.1502282
-2.649153	CM CODE	-1.784157
-5.669929	CM COLON	-0.3670382
-1.303562	CM CQUE	-0.01820159
-1.681839	CM CSUBF	-0.08070207
-1.836065	CM CSUBI	-0.5164165
-1.272724	CM CSUBX	-0.2529182
-4.242605	CM DASH	-0.2943369
-1.9824	CM DM	-1.319777
-4.628536	CM DOTS	-0.1085477
-4.016716	CM FS	0.8172338
-4.590748	CM LP	0.06791651
-1.277958	CM NC	-0.6231689
-1.636505	CM NEG	0.2987652
-4.929566	CM NMEA	-0.647723
-4.993236	CM NMON	-0.2843398
-1.649164	CM NP	-0.9167173
-3.692205	CM ORD	-0.4781235
-2.211442	CM PAL	-1.026995
-2.450803	CM PDEL	-0.6992121
-3.570421	CM PE	-0.8139371
-2.323821	CM PPC	-0.4261456
-2.185273	CM PPO	-1.001871
-1.811031	CM PPX	-1.680745
-0.8373834	CM PREP	-0.2629037
-3.531626	CM QT	-0.2966089
-1.875755	CM QU	-0.2023478
-2.511793	CM REL	-0.6817088
-5.368899	CM RP	-0.5162766
-1.748607	CM SE	-0.106091
-5.970959	CM SEMICOLON
-4.94977	CM SYM	-1.630682
-3.592561	CM VCLIinf	-0.05653858
-3.461085	CM VEfin	-0.2696433
-4.420731	CM VEger	0.1051208
-4.226666	CM VEinf	-0.4141831
-3.292896	CM VHadj	-2.997113
-2.101757	CM VHfin	-0.3013248
-4.104672	CM VHger	-1.008097
-4.396928	CM VHinf	-0.5992955
-1.629624	CM VLadj	-0.4869394
-0.9461492	CM VLfin	-1.199148
-2.35982	CM VLger	-1.681328
-1.95789	CM VLinf	-0.3194745
-2.112723	CM VMfin	-1.054295
-4.581793	CM VMger	0.3953226
-4.479598	CM VMinf	-0.5432857
-5.192808	CM VSadj	-0.7041832
-1.733843	CM VSfin	-1.0523
-3.499667	CM VSger	-0.5107582
-4.680924	CM VSinf	-0.2556919
-2.94867	CODE </s>
-2.267428	CODE ADJ	-0.5462342
-2.073608	CODE ADV	-0.5129268
-1.974388	CODE ALFS	-1.106534
-1.833059	CODE ART	0.1627852
-1.965269	CODE CARD	-1.175514
-1.041258	CODE CC	-1.840677
-2.970946	CODE CCAD	-0.3429824
-2.94867	CODE CCNEG	-0.6038522
-0.6150712	CODE CM	-1.496224
-2.216276	CODE CODE	-0.8275578
-2.546408	CODE COLON	-0.08638793
-1.808004	CODE CQUE	-0.7055068
-2.826454	CODE CSUBF	-0.3410209
-2.187118	CODE CSUBI	0.1056317
-2.189002	CODE CSUBX	-0.463004
-3.772578	CODE DASH	-0.1752168
-2.64764	CODE DM	-0.2962378
-3.64764	CODE DOTS	-0.2964773
-0.9109444	CODE FS	-1.034367
-2.122595	CODE LP	-0.775939
-1.278192	CODE NC	-1.131239
-2.194704	CODE NEG	-0.6293279
-4.2497	CODE NMEA	-0.9668734
-4.55073	CODE NMON
-2.380468	CODE NP	-0.5424578
-4.55073	CODE ORD
-3.208307	CODE PAL	0.005304098
-0.9847638	CODE PDEL	-1.977842
-2.349333	CODE PE	-1.583988
-2.693397	CODE PPC	-0.6187656
-3.55073	CODE PPO	0.1646507
-2.293051	CODE PPX	-1.035362
-0.8393443	CODE PREP	-1.616349
-3.64764	CODE QT	-0.1682791
-2.959665	CODE QU	-0.0665701
-4.2497	CODE REL	-0.8354694
-1.833059	CODE RP	-1.18064
-1.677991	CODE SE	-0.8958941
-2.563958	CODE SEMICOLON	-0.2022945
-2.843159	CODE SLASH	0.5239969
-3.953913	CODE SYM
-3.471548	CODE VEfin	-0.1338554
-4.55073	CODE VHadj
-2.271976	CODE VHfin	-0.3037882
-4.55073	CODE VHger
-2.568458	CODE VLadj	-0.4571093
-1.296423	CODE VLfin	-0.3918602
-3.404602	CODE VLger	-0.4266055
-2.802542	CODE VLinf	-0.364139
-2.517306	CODE VMfin	-0.4358484
-4.55073	CODE VMinf
-1.932682	CODE VSfin	-0.6537688
-4.55073	CODE VSger
-1.252596	COLON </s>
-3.943972	COLON ACRNM	-0.09421205
-2.001964	COLON ADJ	0.05304134
-1.424801	COLON ADV	-0.708923
-2.531792	COLON ALFS	-0.7585866
-0.5896078	COLON ART	0.1491187
-4.722124	COLON BACKSLASH
-1.825047	COLON CARD	-0.4130558
-2.782604	COLON CC	-0.8062183
-4.125307	COLON CCAD	-0.382787
-2.997848	COLON CCNEG	-0.2670788
-3.60818	COLON CM	-0.235655
-2.672906	COLON CODE	-0.7728123
-4.722124	COLON COLON
-1.943972	COLON CQUE	-0.2831943
-2.582245	COLON CSUBF	-0.1910146
-2.377731	COLON CSUBI	0.723202
-1.631513	COLON CSUBX	-0.5325105
-4.120064	COLON DASH	-0.2398756
-1.899956	COLON DM	-0.2081581
-3.767881	COLON DOTS	-0.06647814
-3.341913	COLON FS	0.507322
-3.767881	COLON LP	-0.3599657
-0.7308976	COLON NC	-0.3326316
-1.589864	COLON NEG	-0.465831
-1.557771	COLON NP	-0.2389323
-2.50464	COLON ORD	-0.4764305
-2.90921	COLON PAL	-0.6299747
-3.050026	COLON PDEL	-0.04521453
-3.050026	COLON PE	-0.4526343
-2.922783	COLON PPC	-0.5616219
-2.148092	COLON PPO	0.07520258
-1.897998	COLON PPX	-1.076701
-1.145898	COLON PREP	0.04220152
-1.525671	COLON QT	-1.411229
-1.849385	COLON QU	-0.3119566
-2.981761	COLON REL	-0.5593147
-4.421093	COLON RP	-0.9259193
-1.79424	COLON SE	-0.496937
-4.421093	COLON SEMICOLON
-4.722124	COLON SLASH
-3.767881	COLON SYM	-0.9127841
-3.60818	COLON VCLIinf	-0.314907
-3.399904	COLON VEfin	-0.2524013
-4.421093	COLON VEger
-4.120064	COLON VEinf	-0.1471764
-3.811023	COLON VHadj	-0.5886675
-2.221064	COLON VHfin	-0.1143117
-4.722124	COLON VHger
-4.120064	COLON VHinf	-0.7034456
-2.47415	COLON VLadj	-0.319279
-1.036292	COLON VLfin	-0.7043396
-3.14234	COLON VLger	-0.2903549
-1.499667	COLON VLinf	-0.2527853
-2.121151	COLON VMfin	-0.4619175
-3.811023	COLON VMinf	-0.3532208
-1.708865	COLON VSfin	-0.4811184
-5.762376	CQUE </s>
-4.391308	CQUE ACRNM	-0.7193294
-2.726746	CQUE ADJ	-0.1643825
-1.34009	CQUE ADV	-0.7617447
-5.160316	CQUE ALFS	-0.4381408
-0.7404719	CQUE ART	-0.7771997
-2.748276	CQUE CARD	-1.349055
-4.285255	CQUE CC	-0.7499534
-6.063406	CQUE CCAD
-3.23863	CQUE CCNEG	-0.7490926
-1.446249	CQUE CM	-2.349797
-3.764553	CQUE CODE	-0.9866151
-4.144328	CQUE COLON	-0.4672507
-4.887315	CQUE CQUE	-0.08254015
-3.314443	CQUE CSUBF	-0.5543257
-2.990789	CQUE CSUBI	0.44519
-2.343661	CQUE CSUBX	-0.7295902
-4.085682	CQUE DASH	-0.5285981
-1.5696	CQUE DM	-0.6019728
-4.683195	CQUE DOTS	-0.692991
-5.109164	CQUE FS	0.961315
-5.022014	CQUE LP	-0.1571474
-2.18904	CQUE NC	-0.8452597
-1.398745	CQUE NEG	-1.242329
-5.466589	CQUE NMON
-1.992224	CQUE NP	-1.490505
-5.285255	CQUE ORD	0.05291605
-3.06602	CQUE PAL	-0.8317167
-3.683195	CQUE PDEL	-0.092116
-3.636895	CQUE PE	-0.9312859
-1.829852	CQUE PPC	0.6599395
-2.03313	CQUE PPO	-1.020627
-1.524067	CQUE PPX	-1.257713
-1.44518	CQUE PREP	-0.3562515
-3.460262	CQUE QT	-1.014817
-1.666458	CQUE QU	-0.1940296
-3.396888	CQUE REL	-0.7518598
-5.152306	CQUE RP	-0.7294647
-1.014382	CQUE SE	-0.3816364
-5.762376	CQUE SEMICOLON
-6.063406	CQUE SYM
-3.027177	CQUE VCLIinf	-0.04384255
-2.930826	CQUE VEfin	-0.1691909
-5.160316	CQUE VEger	-0.212424
-3.476819	CQUE VEinf	-0.3162386
-5.285255	CQUE VHadj	-0.2645534
-1.446857	CQUE VHfin	-0.4262798
-5.063406	CQUE VHger	-0.6219043
-3.49874	CQUE VHinf	-0.2808399
-3.359256	CQUE VLadj	-0.03963518
-0.5161128	CQUE VLfin	-0.542573
-4.099618	CQUE VLger	-0.4899926
-1.54621	CQUE VLinf	-0.8313963
-5.762376	CQUE VMadj
-1.630709	CQUE VMfin	-0.9434428
-3.911118	CQUE VMinf	-1.426789
-5.762376	CQUE VSadj
-1.448319	CQUE VSfin	-0.3508654
-4.887315	CQUE VSger	-0.04022643
-3.044706	CQUE VSinf	-0.1735145
-4.818391	CSUBF </s>
-4.517361	CSUBF ACRNM
-2.299877	CSUBF ADJ	-0.1346124
-1.45309	CSUBF ADV	-0.4969194
-0.9186798	CSUBF ART	-0.3839755
-2.869001	CSUBF CARD	-0.8329747
-3.672263	CSUBF CC	-0.3830616
-4.221574	CSUBF CCAD
-3.262088	CSUBF CCNEG	-0.4728863
-0.6069766	CSUBF CM	-0.3221991
-4.517361	CSUBF CODE
-3.456663	CSUBF COLON	-0.5742978
-2.390256	CSUBF CQUE	-0.284209
-3.299877	CSUBF CSUBF	-0.4682218
-2.711181	CSUBF CSUBI	-0.1402127
-2.171987	CSUBF CSUBX	0.1472347
-3.776998	CSUBF DASH	-0.1248684
-1.669788	CSUBF DM	-0.5007949
-4.517361	CSUBF DOTS	-0.6552143
-3.563118	CSUBF FS	-0.01144457
-4.221574	CSUBF LP	-0.3875532
-2.129082	CSUBF NC	-0.01481485
-1.438361	CSUBF NEG	-0.7382079
-2.345634	CSUBF NP	-0.9922296
-4.818391	CSUBF ORD
-2.50242	CSUBF PAL	-0.8541794
-3.299877	CSUBF PDEL	-0.5340806
-4.216331	CSUBF PE	-0.2234123
-2.425694	CSUBF PPC	-0.5923111
-2.044605	CSUBF PPO	-0.183234
-1.698805	CSUBF PPX	-1.559705
-1.273455	CSUBF PREP	-0.09123421
-3.82469	CSUBF QT	-0.186839
-1.757316	CSUBF QU	-0.7978817
-3.456663	CSUBF REL	-0.3204285
-0.9945256	CSUBF SE	-0.4326553
-4.818391	CSUBF SYM
-3.587942	CSUBF VCLIinf	-0.003737718
-3.227326	CSUBF VEfin	-0.5788718
-3.82469	CSUBF VEinf	-0.1002705
-1.834765	CSUBF VHfin	-0.2777436
-2.949159	CSUBF VLadj	-0.3381454
-0.634751	CSUBF VLfin	-0.5616965
-3.73921	CSUBF VLger	-0.1960483
-2.295947	CSUBF VLinf	-0.1012355
-1.916933	CSUBF VMfin	-0.3150347
-4.517361	CSUBF VMinf	-0.4371656
-1.517795	CSUBF VSfin	-0.5617924
-4.517361	CSUBF VSger
-3.420451	CSUBF VSinf	-0.03178751
-5.404616	CSUBI </s>
-4.802557	CSUBI ACRNM	-0.2764831
-4.103587	CSUBI ADJ	-0.3672542
-4.325435	CSUBI ADV	-0.1688389
-2.132543	CSUBI ART	-1.453028
-4.626465	CSUBI CARD	-0.7118536
-5.404616	CSUBI CC
-4.410916	CSUBI CCNEG	-0.6426359
-4.410916	CSUBI CM	-0.1920273
-5.404616	CSUBI COLON
-1.396997	CSUBI CQUE	-0.3946743
-4.802557	CSUBI CSUBF	-0.322541
-3.41339	CSUBI CSUBI	-1.603799
-3.408981	CSUBI CSUBX	-0.426758
-5.103587	CSUBI DASH
-3.297406	CSUBI DM	-0.9215741
-5.103587	CSUBI FS
-2.815785	CSUBI NC	-0.3073058
-2.233475	CSUBI NEG	-1.836966
-5.103587	CSUBI NMON	-0.6861555
-2.702186	CSUBI NP	-0.5481031
-5.103587	CSUBI ORD	-0.06988114
-4.082397	CSUBI PAL	-0.26772
-5.404616	CSUBI PDEL
-4.325435	CSUBI PE	-0.2525314
-3.802557	CSUBI PPC	-0.4766853
-2.797162	CSUBI PPO	-0.3021388
-3.050508	CSUBI PPX	-0.3513676
-4.404616	CSUBI PREP	-1.37452
-2.455226	CSUBI QU	-0.6379734
-4.802557	CSUBI SE	0.3566375
-1.671741	CSUBI VCLIinf	-0.5526383
-5.404616	CSUBI VEfin
-2.674642	CSUBI VEinf	-0.2436651
-4.404616	CSUBI VHfin	0.3274754
-2.754309	CSUBI VHinf	-0.4213718
-3.598437	CSUBI VLadj	-0.3722647
-3.672223	CSUBI VLfin	-0.7722881
-4.8078	CSUBI VLger
-0.05135635	CSUBI VLinf	-1.181102
-4.501526	CSUBI VMfin	-0.08825803
-1.869322	CSUBI VMinf	-0.2396536
-3.578542	CSUBI VSadj	-0.8900762
-4.802557	CSUBI VSfin
-2.13815	CSUBI VSinf	-0.9547842
-4.689309	CSUBX </s>
-4.005062	CSUBX ACRNM	-0.2805346
-1.706812	CSUBX ADJ	-0.1761451
-1.259718	CSUBX ADV	-0.7897632
-4.689309	CSUBX ALFS	-0.1415496
-0.6644813	CSUBX ART	-0.3041928
-2.572037	CSUBX CARD	-1.149728
-3.66812	CSUBX CC	-0.7204217
-4.55636	CSUBX CCAD	-0.2184203
-3.480688	CSUBX CCNEG	-0.6715609
-1.643269	CSUBX CM	-1.086531
-4.005062	CSUBX CODE	-0.4874967
-3.719272	CSUBX COLON	-0.7112285
-3.418242	CSUBX CQUE	-0.1431013
-3.647916	CSUBX CSUBF	-0.5755006
-3.377555	CSUBX CSUBI	0.1521164
-2.303703	CSUBX CSUBX	-0.507519
-3.854676	CSUBX DASH	-0.3418496
-1.649366	CSUBX DM	-0.005036831
-4.55636	CSUBX DOTS	-0.2719986
-3.814248	CSUBX FS	-0.08490837
-4.8654	CSUBX LP	-0.3747249
-1.056565	CSUBX NC	-0.8223796
-1.319691	CSUBX NEG	-0.8847507
-5.16643	CSUBX NMON
-1.671302	CSUBX NP	-0.6587996
-2.93726	CSUBX ORD	-0.6830937
-2.775495	CSUBX PAL	-0.6172478
-3.8654	CSUBX PDEL	0.09431499
-4.426067	CSUBX PE	-0.368899
-1.736113	CSUBX PPC	-0.8228407
-1.943714	CSUBX PPO	-0.6665403
-1.524163	CSUBX PPX	-0.5951362
-1.390601	CSUBX PREP	-0.2421739
-3.239573	CSUBX QT	-0.8875421
-1.570769	CSUBX QU	-0.0653069
-3.833992	CSUBX REL	-0.547829
-4.8654	CSUBX RP
-1.118513	CSUBX SE	-0.1635919
-5.46746	CSUBX SEMICOLON
-4.513217	CSUBX VCLIinf	-0.1257077
-2.888821	CSUBX VEfin	-0.8899189
-4.870643	CSUBX VEger	-0.5230806
-5.46746	CSUBX VHadj
-1.519536	CSUBX VHfin	-0.3225579
-5.46746	CSUBX VHger
-4.870643	CSUBX VHinf	-0.2285857
-2.592399	CSUBX VLadj	-0.5672108
-0.6766685	CSUBX VLfin	-0.164763
-3.948946	CSUBX VLger	0.04484254
-2.920918	CSUBX VLinf	-0.2161041
-2.150024	CSUBX VMfin	-0.3691819
-5.46746	CSUBX VSadj
-1.437752	CSUBX VSfin	-0.8857021
-4.8654	CSUBX VSger	-0.1407746
-3.701118	DASH </s>
-1.896535	DASH ACRNM	-1.696115
-1.822264	DASH ADJ	0.04276395
-1.368517	DASH ADV	-0.7427611
-1.183658	DASH ALFS	-1.712295
-1.135371	DASH ART	0.005087614
-1.078875	DASH CARD	-1.124824
-1.489725	DASH CC	-1.811424
-2.293614	DASH CCAD	-0.4864422
-2.792786	DASH CCNEG	-0.3136365
-1.438797	DASH CM	0.01923239
-2.835537	DASH CODE	-0.3553981
-3.218754	DASH COLON	-0.244509
-1.31206	DASH CQUE	0.1873854
-2.422874	DASH CSUBF	0.3708958
-2.174084	DASH CSUBI	0.2098048
-1.469276	DASH CSUBX	-0.3572887
-2.21515	DASH DM	0.1313139
-4.297935	DASH DOTS
-2.373656	DASH FS	0.1020968
-1.422296	DASH LP	-1.698862
-0.752381	DASH NC	-0.3844085
-1.770306	DASH NEG	-0.3782189
-1.347084	DASH NP	-0.1932722
-3.297935	DASH ORD	0.5500261
-2.400308	DASH PAL	-0.2516192
-2.674686	DASH PDEL	0.1821831
-2.685152	DASH PE	-0.3488891
-2.154921	DASH PPC	-0.5974268
-2.527083	DASH PPO	0.0001393557
-1.975716	DASH PPX	-0.7829159
-1.088957	DASH PREP	-0.1092842
-2.534508	DASH QT	-0.3212965
-1.969556	DASH QU	-0.5550041
-2.806574	DASH REL	-0.4007876
-3.996906	DASH RP
-1.879634	DASH SE	0.8753408
-3.093816	DASH SEMICOLON	-0.2488313
-3.519784	DASH VCLIinf	-0.001044333
-3.343693	DASH VEfin	-0.007555991
-3.701118	DASH VHadj	-0.3532934
-2.20803	DASH VHfin	0.04914796
-4.297935	DASH VHger
-3.996906	DASH VHinf
-2.102036	DASH VLadj	-0.4266624
-1.218392	DASH VLfin	-0.4265095
-2.685152	DASH VLger	-0.31762
-2.019182	DASH VLinf	-0.4874738
-2.264512	DASH VMfin	-0.5535901
-3.701118	DASH VMinf	-0.1178468
-4.297935	DASH VSadj
-1.79008	DASH VSfin	-0.258065
-3.701118	DASH VSinf	-0.508554
-5.628932	DM </s>
-3.880744	DM ACRNM	0.06101686
-1.403313	DM ADJ	-0.5605814
-2.086605	DM ADV	-0.2190092
-2.450819	DM ART	-0.2795358
-2.002387	DM CARD	-1.865379
-2.502476	DM CC	-0.4228199
-4.452841	DM CCAD	-0.4579041
-4.13757	DM CCNEG	-0.1460322
-1.706466	DM CM	-0.7365286
-5.628932	DM CODE
-3.27675	DM COLON	-0.4998332
-1.988252	DM CQUE	-0.4231997
-3.850781	DM CSUBF	-0.04367626
-3.880744	DM CSUBI	0.1891196
-3.172566	DM CSUBX	-0.3819995
-3.822752	DM DASH	0.05026662
-4.06073	DM DM	-0.2648836
-4.725842	DM DOTS	-0.2893791
-2.135614	DM FS	-0.1749492
-5.026872	DM LP	-0.2111196
-0.1241787	DM NC	-0.4271808
-1.874278	DM NEG	-1.554764
-3.938736	DM NMEA	-0.3501247
-4.850781	DM NMON	0.1284216
-1.967877	DM NP	-0.8502525
-2.661384	DM ORD	-0.8094198
-3.731305	DM PAL	-0.1932002
-3.896538	DM PDEL	0.1637994
-3.873057	DM PE	-0.2155271
-2.766801	DM PPC	-0.4255804
-3.444241	DM PPO	-0.3424616
-2.477256	DM PPX	-1.35935
-2.050637	DM PREP	-0.003187418
-3.603626	DM QT	-0.5924972
-2.883077	DM QU	-0.6169879
-3.709854	DM REL	-1.12166
-5.628932	DM RP
-2.17424	DM SE	-0.0354495
-3.742441	DM SEMICOLON	-0.2071682
-5.032115	DM VCLIinf
-3.140382	DM VEfin	-0.6385586
-5.628932	DM VHadj
-2.667037	DM VHfin	-0.46543
-5.327902	DM VHger
-2.586751	DM VLadj	-0.1748387
-1.238704	DM VLfin	-0.2567897
-4.005683	DM VLger	0.07009995
-3.591506	DM VLinf	-0.3801234
-2.37511	DM VMfin	-0.3891346
-4.166534	DM VMinf	-0.4970579
-1.561378	DM VSfin	-1.18689
-5.026872	DM VSger	-0.1959904
-0.2896835	DOTS </s>
-2.30963	DOTS ADJ	-0.1407289
-1.947902	DOTS ADV	-0.4684744
-3.30963	DOTS ALFS
-1.656418	DOTS ART	0.02466458
-3.30963	DOTS CARD
-1.36024	DOTS CC	-0.3264269
-2.054358	DOTS CCAD	-0.2910332
-2.712813	DOTS CCNEG
-1.753328	DOTS CM	0.01961157
-3.30963	DOTS COLON
-2.030877	DOTS CQUE	-0.2089469
-2.315929	DOTS CSUBF	-0.2486481
-2.355388	DOTS CSUBI	0.5586014
-2.030877	DOTS CSUBX	-0.1547259
-2.39853	DOTS DASH	-0.1756354
-2.40654	DOTS DM	-0.2574262
-2.315929	DOTS DOTS	-0.04083705
-1.477121	DOTS FS	0.3222809
-2.531479	DOTS LP	-0.1464163
-1.305309	DOTS NC	-0.6767626
-2.054358	DOTS NEG	-0.1228439
-2.268238	DOTS NP	-0.2924935
-2.70757	DOTS PAL	0.281114
-2.712813	DOTS PDEL	-0.1257938
-2.39853	DOTS PE	-0.1683159
-3.30963	DOTS PERCT
-2.712813	DOTS PPC	0.1757683
-3.30963	DOTS PPO
-2.712813	DOTS PPX
-1.440398	DOTS PREP	-0.3383056
-1.61066	DOTS QT	-0.3907869
-2.315929	DOTS QU
-1.21272	DOTS RP	-0.6497782
-2.315929	DOTS SE	0.2868088
-2.70757	DOTS SEMICOLON	-0.23298
-2.40654	DOTS SLASH	-0.2472634
-2.712813	DOTS VHfin	-0.06507289
-2.163502	DOTS VLadj	-0.2099554
-1.182525	DOTS VLfin	-0.2249695
-3.0086	DOTS VLger
-2.355388	DOTS VLinf	-0.120059
-2.70757	DOTS VMfin	-0.2000601
-2.70757	DOTS VSfin
-0.03671376	FS </s>
-3.003854	FS ACRNM	-1.141904
-3.396477	FS ADJ	-0.6718729
-2.278866	FS ADV	-0.7671881
-4.031103	FS ALFS	-0.894079
-2.498161	FS ART	-0.2143245
-3.507869	FS CARD	-0.5942264
-3.024392	FS CC	-0.2564121
-3.152261	FS CCAD	-0.7514433
-4.598949	FS CCNEG	-0.5084261
-3.053005	FS CM	0.1715076
-3.674983	FS CODE	-0.7333305
-4.549261	FS COLON	-0.007011652
-3.929942	FS CQUE	-0.1846709
-3.419362	FS CSUBF	-0.8519741
-3.753851	FS CSUBI	0.2665534
-3.169539	FS CSUBX	-0.1376305
-3.7994	FS DASH	-0.4337807
-3.022992	FS DM	-0.454131
-5.214373	FS DOTS	0.04316437
-3.27673	FS FS	0.3712258
-2.531213	FS LP	-1.885054
-2.191378	FS NC	-0.08168173
-3.165155	FS NEG	-0.7139169
-5.206363	FS NMEA	-0.8322788
-1.456304	FS NP	-1.881888
-4.686099	FS ORD	0.1258823
-4.208978	FS PAL	-0.5739363
-4.464251	FS PDEL	-0.08282936
-3.47008	FS PE	-1.032967
-6.117463	FS PPC
-3.735446	FS PPO	0.0977354
-3.146651	FS PPX	-1.276554
-2.422945	FS PREP	-0.4026914
-3.440769	FS QT	-0.7483512
-3.389922	FS QU	-0.5251944
-4.887014	FS REL	-0.1279069
-3.564795	FS RP	-0.9827852
-3.266205	FS SE	-0.4794528
-4.325071	FS SEMICOLON	-0.399038
-5.339312	FS SLASH	-0.1529373
-4.887014	FS SYM	-0.8835539
-5.816433	FS VCLIinf
-4.719523	FS VEfin	-0.2205695
-5.520646	FS VHadj	-0.3532934
-3.65807	FS VHfin	0.001918197
-6.117463	FS VHger
-3.656565	FS VLadj	-0.5866222
-1.930337	FS VLfin	-0.636848
-4.887014	FS VLger	-0.09780496
-3.874425	FS VLinf	-0.2791871
-3.753851	FS VMfin	-0.3387213
-6.117463	FS VMinf
-3.173474	FS VSfin	-0.2103071
-5.520646	FS VSger
-1.092572	LP ACRNM	-2.533532
-1.983906	LP ADJ	-1.035158
-1.906231	LP ADV	-0.6982679
-2.256263	LP ALFS	-1.391719
-1.412546	LP ART	-0.1983626
-0.9625325	LP CARD	-1.830637
-2.080172	LP CC	-0.3820665
-3.600435	LP CCAD	-0.1744432
-3.909476	LP CCNEG	-0.2159536
-1.937505	LP CODE	-1.643698
-2.371657	LP CQUE	-0.8594498
-3.210506	LP CSUBF	-0.1777552
-2.920471	LP CSUBI	0.3712731
-2.365408	LP CSUBX	-0.2110624
-3.080172	LP DM	0.15449
-2.587256	LP DOTS	-1.595788
-2.993022	LP FS	-1.114678
-3.232782	LP LP	-1.187339
-1.002333	LP NC	-1.193527
-2.82134	LP NEG	0.02432376
-4.511536	LP NMEA
-3.557293	LP NMON	-0.6725028
-0.3066565	LP NP	-2.373729
-2.719144	LP ORD	-0.4866527
-3.909476	LP PAL	0.281114
-3.149808	LP PDEL	-0.666238
-1.321484	LP PE	-2.185108
-3.470143	LP PPC	0.2600733
-3.511536	LP PPO	0.4389719
-3.049138	LP PPX	-0.3265381
-1.802266	LP PREP	-0.1766348
-2.719144	LP QT	-0.78991
-2.679027	LP QU	-0.2472253
-3.397593	LP REL	-0.1435715
-2.733385	LP RP	-0.5649071
-1.862201	LP SE	-0.6102586
-3.909476	LP SYM	-0.2312545
-4.511536	LP VEfin
-3.914719	LP VHfin
-2.171092	LP VLadj	-0.4776638
-1.952827	LP VLfin	-0.6564862
-3.020174	LP VLger	-0.155182
-3.034415	LP VLinf	-0.2709438
-3.517835	LP VMfin	-0.331296
-3.909476	LP VSadj	-1.123317
-2.353173	LP VSfin	-1.155783
-4.511536	LP VSger
-3.77943	NC </s>
-4.109373	NC ACRNM	-0.4011254
-0.7308736	NC ADJ	-0.459919
-1.715839	NC ADV	-0.6155124
-3.382817	NC ALFS	-0.885021
-1.928342	NC ART	-0.4609234
-2.355102	NC CARD	-0.6905022
-1.312497	NC CC	-0.4036031
-3.221189	NC CCAD	-0.1526165
-3.103356	NC CCNEG	-0.4020524
-1.034195	NC CM	-0.5972137
-2.550455	NC CODE	-1.055475
-2.522239	NC COLON	-0.1749809
-1.424243	NC CQUE	-1.093207
-2.947408	NC CSUBF	-0.1704693
-1.872018	NC CSUBI	-0.7172737
-2.330239	NC CSUBX	-0.4343264
-3.146047	NC DASH	-0.3830078
-2.981376	NC DM	-0.3129311
-3.958105	NC DOTS	-0.2986832
-1.126944	NC FS	-2.068615
-3.001708	NC LP	0.3151646
-1.546541	NC NC	-0.7248433
-2.100002	NC NEG	-0.8410041
-4.89227	NC NMEA	-0.2067986
-6.550282	NC NMON
-1.674197	NC NP	-1.813191
-4.122958	NC ORD	0.5241908
-2.231384	NC PAL	-0.3157074
-1.443968	NC PDEL	0.1521568
-3.526824	NC PE	-0.11322
-6.851312	NC PERCT
-2.903143	NC PPC	-0.3642559
-3.143997	NC PPO	0.3562553
-3.056127	NC PPX	-1.083394
-0.5342507	NC PREP	-0.7185025
-3.01925	NC QT	-0.3404779
-2.58421	NC QU	-0.2990472
-3.444431	NC REL	-1.321375
-3.227339	NC RP	-0.2656841
-2.059551	NC SE	-0.2027614
-2.799041	NC SEMICOLON	-0.2397275
-3.376513	NC SLASH	-0.7298071
-5.249252	NC SYM	0.2974343
-4.346162	NC VCLIinf	-0.3553898
-3.462323	NC VEfin	-0.09783196
-5.67522	NC VEger	0.1796461
-4.959217	NC VEinf	-0.824949
-5.419948	NC VHadj	-0.9137555
-2.352781	NC VHfin	-0.5066731
-6.254495	NC VHger	-0.258979
-5.152342	NC VHinf	-0.6961936
-1.559401	NC VLadj	-0.9709644
-1.473201	NC VLfin	-0.1575007
-3.376222	NC VLger	-0.9108353
-2.615506	NC VLinf	-0.6386242
-2.292124	NC VMfin	-0.7005951
-6.249252	NC VMger	0.0504657
-5.271528	NC VMinf	-0.8542841
-1.950803	NC VSfin	-0.8261659
-5.436338	NC VSger	0.2146815
-6.851312	NC VSinf
-1.465425	NEG ADJ	-0.4730265
-1.687142	NEG ADV	-0.01209807
-4.909606	NEG ALFS
-2.054636	NEG ART	-0.09488416
-3.566903	NEG CARD	-0.2457733
-3.655164	NEG CC	-0.3062181
-5.205392	NEG CCAD
-2.250427	NEG CM	-0.5697919
-4.126211	NEG CODE	-0.1650269
-4.275974	NEG COLON	-0.256179
-3.281113	NEG CQUE	0.2482568
-4.164	NEG CSUBF	-0.187843
-3.105022	NEG CSUBI	-0.5084341
-2.69619	NEG CSUBX	-0.5122976
-4.330331	NEG DASH	-0.1974823
-3.402619	NEG DM	-0.1718472
-4.728271	NEG DOTS	0.0996477
-2.424356	NEG FS	-0.08861268
-5.506423	NEG LP
-1.786429	NEG NC	-0.3538897
-4.595322	NEG NEG	-0.3342648
-5.506423	NEG NMON
-3.313298	NEG NP	-0.6164208
-5.205392	NEG ORD
-2.982676	NEG PAL	0.08935261
-3.211956	NEG PDEL	-0.1076456
-3.85321	NEG PE	-0.4884458
-1.654797	NEG PPC	-0.4455962
-3.427241	NEG PPO	-0.9076885
-1.66425	NEG PPX	-2.113977
-1.706049	NEG PREP	-0.1510971
-4.015061	NEG QT	-0.0137758
-2.438608	NEG QU	-0.6419599
-4.595322	NEG REL	-0.1365922
-4.904363	NEG RP	-0.2204024
-0.9420524	NEG SE	-0.4369349
-4.001273	NEG SEMICOLON	-0.2768684
-2.76923	NEG VCLIinf	-0.0009124279
-2.483582	NEG VEfin	-0.2596914
-4.728271	NEG VEger	0.001362354
-3.135355	NEG VEinf	0.1058744
-4.909606	NEG VHadj	-0.3532934
-1.198221	NEG VHfin	-0.01634002
-4.360294	NEG VHger	-0.2069368
-2.738525	NEG VHinf	-0.3454785
-1.931235	NEG VLadj	-0.6682904
-0.3583322	NEG VLfin	-1.012717
-3.625609	NEG VLger	-0.305949
-1.590812	NEG VLinf	-0.3812256
-1.169503	NEG VMfin	-1.354079
-4.55218	NEG VMger	-0.2588828
-2.920962	NEG VMinf	-1.276232
-5.506423	NEG VSadj
-0.9845394	NEG VSfin	-0.6549315
-4.108482	NEG VSger	-0.05959594
-2.613216	NEG VSinf	-0.4780558
-3.503995	NMEA </s>
-3.805025	NMEA ACRNM
-1.114829	NMEA ADJ	-0.3578622
-1.725844	NMEA ADV	-0.4190196
-2.763632	NMEA ALFS	-0.1846516
-1.66201	NMEA ART	-0.3445929
-2.805025	NMEA CARD	-0.2116386
-1.41409	NMEA CC	-0.7368549
-3.026874	NMEA CCAD	-0.09990077
-3.208208	NMEA CCNEG
-0.9501118	NMEA CM	0.151516
-2.901935	NMEA CODE	-0.09233293
-2.574576	NMEA COLON	-0.1018756
-1.519468	NMEA CQUE	-0.3953671
-3.208208	NMEA CSUBF	-0.3884848
-1.671486	NMEA CSUBI	-0.7421966
-2.248722	NMEA CSUBX	-0.03687388
-3.208208	NMEA DASH
-2.628934	NMEA DM	-1.163473
-3.503995	NMEA DOTS
-1.024708	NMEA FS	-0.5939714
-1.476645	NMEA NC	-0.4735691
-2.142267	NMEA NEG	-0.3354435
-3.026874	NMEA NP	-0.3194372
-3.805025	NMEA ORD
-2.390052	NMEA PAL	-0.4523132
-2.21396	NMEA PDEL	-0.3831928
-3.805025	NMEA PE
-2.850782	NMEA PPC	-0.1756552
-2.658897	NMEA PPO	-0.2825074
-2.763632	NMEA PPX	-0.7280761
-0.3400884	NMEA PREP	-1.320873
-2.286511	NMEA QU	-0.01687127
-2.850782	NMEA RP	-0.6089912
-2.327904	NMEA SE	0.1136215
-3.026874	NMEA SEMICOLON
-3.805025	NMEA VHadj
-2.628934	NMEA VHfin	0.09278947
-1.91293	NMEA VLadj	-0.3809808
-1.850782	NMEA VLfin	-0.1596223
-3.208208	NMEA VLger	-0.2749591
-2.725844	NMEA VLinf	-0.1940356
-2.850782	NMEA VMfin	-0.1626486
-3.503995	NMEA VMinf	-0.96566
-2.123784	NMEA VSfin	-0.4257202
-3.223546	NMON </s>
-2.31962	NMON ADJ	-0.4659399
-2.583779	NMON ADV	-0.5612932
-1.664579	NMON ART	-0.6159418
-2.785883	NMON CARD	-0.3569752
-1.485658	NMON CC	-0.1403942
-3.439096	NMON CCAD
-4.217247	NMON CCNEG
-0.8002738	NMON CM	-0.1611383
-2.855519	NMON CODE	-0.733018
-2.673179	NMON COLON	-0.05719441
-2.397703	NMON CQUE	-0.2722131
-3.615187	NMON CSUBF
-2.325152	NMON CSUBI	-0.1095426
-2.509677	NMON CSUBX	-0.2869176
-2.961974	NMON DASH	-0.1373546
-3.103304	NMON DM	-0.3497601
-0.9121107	NMON FS	-1.168695
-3.615187	NMON LP	-0.08287534
-2.384738	NMON NC	-0.3584459
-2.453819	NMON NEG	-0.1078825
-3.263005	NMON NP	-0.3103786
-2.545149	NMON PAL	-0.2213448
-1.286298	NMON PDEL	-0.9198991
-2.461372	NMON PE	-1.747975
-2.895028	NMON PPC	-0.518078
-3.041156	NMON PPO	-0.3124706
-2.637463	NMON PPX	-0.5829501
-0.3212171	NMON PREP	-1.333304
-4.217247	NMON QT
-3.217247	NMON QU	-0.08372509
-3.916217	NMON REL
-3.138066	NMON RP	-0.1089553
-1.814126	NMON SE	-0.9044249
-2.593998	NMON SEMICOLON	-0.1249971
-3.223546	NMON SLASH	-0.8970114
-3.306147	NMON VEfin	-0.06872765
-2.411067	NMON VHfin	-0.6616923
-1.771643	NMON VLadj	-0.4881005
-1.418596	NMON VLfin	-0.6141225
-3.916217	NMON VLger	-0.8353341
-2.986798	NMON VLinf	-0.5534099
-2.698733	NMON VMfin	-0.5009225
-2.187863	NMON VSfin	-0.5410644
-3.237652	NP </s>
-3.023507	NP ACRNM	-1.200768
-1.747802	NP ADJ	-0.1465399
-1.770784	NP ADV	-0.5033
-3.39392	NP ALFS	-1.265661
-1.686403	NP ART	-0.3470395
-2.580954	NP CARD	-0.4704454
-1.150671	NP CC	-0.5319808
-3.279188	NP CCAD	0.03023934
-3.543481	NP CCNEG	-0.3189454
-0.8014614	NP CM	-1.672347
-3.1898	NP CODE	-0.8152263
-2.582746	NP COLON	-0.2142344
-1.812986	NP CQUE	0.3195331
-3.369971	NP CSUBF	0.07237768
-2.090163	NP CSUBI	-0.7911193
-2.216599	NP CSUBX	-0.2699666
-2.752805	NP DASH	-0.5851005
-2.492629	NP DM	-0.08251524
-3.989867	NP DOTS	-0.3146432
-0.8609226	NP FS	0.1877141
-2.468908	NP LP	-0.694689
-1.209859	NP NC	-0.6725099
-1.820756	NP NEG	-0.8104668
-3.973977	NP NMEA	-1.104605
-4.497724	NP NMON	-0.6425779
-0.9147651	NP NP	-2.054318
-2.787606	NP ORD	-0.6559479
-2.731162	NP PAL	-0.3032558
-2.172085	NP PDEL	-0.8018386
-2.951922	NP PE	0.02761984
-2.462774	NP PPC	-0.1336529
-3.056814	NP PPO	-0.182611
-2.192329	NP PPX	-0.8642926
-1.031464	NP PREP	-0.9082589
-2.906436	NP QT	-0.3041192
-2.84509	NP QU	-0.3734703
-3.230552	NP REL	-0.966974
-2.148368	NP RP	-0.4994717
-1.810908	NP SE	-0.1561966
-2.624985	NP SEMICOLON	0.4772277
-2.284578	NP SLASH	-1.968503
-3.718127	NP SYM	-0.7473927
-5.895663	NP UMMX
-3.902227	NP VCLIinf	-0.4198468
-3.188946	NP VEfin	-0.5860487
-5.594634	NP VEger	-0.1725661
-4.573444	NP VEinf	0.2626342
-5.08275	NP VHadj	-0.5579632
-1.719456	NP VHfin	-0.652643
-5.155301	NP VHger	-0.6293699
-3.502088	NP VHinf	-0.3443474
-1.808717	NP VLadj	-0.514384
-0.9390244	NP VLfin	-1.029279
-3.469152	NP VLger	-0.8232373
-2.543288	NP VLinf	-0.4318554
-4.041358	NP VMadj	-0.413129
-1.940939	NP VMfin	-0.8083742
-5.285593	NP VMger	-0.1558629
-4.705332	NP VMinf	-0.09474134
-3.660135	NP VSadj	-0.6340967
-1.7474	NP VSfin	-0.6959336
-4.734295	NP VSger	-0.1890539
-4.063155	NP VSinf	-0.6428982
-4.231637	ORD ACRNM
-2.293159	ORD ADJ	-0.1986147
-3.366056	ORD ADV	-0.32731
-2.953393	ORD ART	-0.01195633
-2.742094	ORD CARD	-1.165447
-1.846182	ORD CC	-0.8081329
-3.874211	ORD CCNEG	-0.6602186
-1.688889	ORD CM	-0.2764717
-2.965131	ORD COLON	-0.4425201
-2.841682	ORD CQUE	-0.7843177
-4.828454	ORD CSUBF
-3.573181	ORD CSUBI	0.174464
-3.430514	ORD CSUBX	-0.1714945
-3.71451	ORD DASH	-0.009608164
-4.828454	ORD DM
-4.828454	ORD DOTS
-2.408498	ORD FS	-0.5656097
-4.527424	ORD LP
-0.05872195	ORD NC	-0.6805072
-3.296975	ORD NEG	-0.2302516
-3.466726	ORD NMEA	-0.323417
-1.850273	ORD NP	-0.3839967
-3.917353	ORD ORD	0.3133346
-3.260252	ORD PAL	-0.6578469
-3.226394	ORD PDEL	0.1015097
-3.527424	ORD PE	-0.6432616
-3.828454	ORD PPC	-0.4223073
-4.226394	ORD PPO	-0.2598156
-3.925364	ORD PPX	-0.2887435
-1.765496	ORD PREP	-0.5776649
-3.71451	ORD QT	-0.3879587
-4.231637	ORD REL	-0.2599958
-3.828454	ORD RP	-0.2198119
-2.455542	ORD SE	-0.8060441
-4.050303	ORD SEMICOLON	-0.1449966
-3.682326	ORD VEfin	-0.1953582
-3.682326	ORD VHfin	0.3824536
-2.694915	ORD VLadj	-0.3628097
-1.703298	ORD VLfin	-0.9586384
-3.448242	ORD VLger	-0.3020551
-3.486031	ORD VLinf	-0.4783596
-3.39709	ORD VMfin	-0.4082879
-3.5497	ORD VMinf	-0.3402158
-1.848905	ORD VSfin	-0.3291194
-2.783737	PAL ACRNM	-0.2710191
-1.152946	PAL ADJ	-0.4312665
-2.520949	PAL ADV	-0.4189225
-5.200377	PAL ALFS
-4.297287	PAL ART	0.292081
-1.814057	PAL CARD	-1.324003
-4.60356	PAL CC	-0.3249389
-4.086434	PAL CM	-0.2158248
-5.200377	PAL COLON
-1.691578	PAL CQUE	-0.736451
-3.361528	PAL DM	0.1738747
-5.200377	PAL DOTS
-4.422226	PAL FS	0.5313466
-5.200377	PAL LP
-0.1486883	PAL NC	-0.914408
-3.236589	PAL NMEA	-0.5481387
-0.9595783	PAL NP	-0.8535333
-2.151547	PAL ORD	-0.7880434
-2.988189	PAL PDEL	0.0807116
-2.97249	PAL PE	-0.6349672
-4.121196	PAL PPX	-0.2829117
-2.347897	PAL PREP	-0.4521909
-3.337054	PAL QT	-1.004641
-2.617178	PAL QU	-0.7081114
-2.58548	PAL REL	-0.3757774
-5.200377	PAL RP
-4.899347	PAL SE	-0.3546391
-2.964849	PAL VCLIinf	-0.2443283
-1.809089	PAL VLadj	-0.5792955
-1.536299	PAL VLfin	-1.273366
-3.444502	PAL VLger	-1.223753
-2.536676	PAL VLinf	-0.9186177
-4.054249	PAL VSadj	-0.3668632
-5.200377	PAL VSfin
-4.978715	PDEL </s>
-2.226859	PDEL ACRNM	-0.9862802
-1.34444	PDEL ADJ	-0.7215102
-3.494416	PDEL ADV	-0.7753333
-4.580776	PDEL ALFS	-0.7657208
-3.848382	PDEL ART	-0.6748384
-1.639662	PDEL CARD	-1.249169
-3.908678	PDEL CC	-0.506689
-3.656496	PDEL CM	-0.2752817
-2.398646	PDEL CODE	-1.643473
-4.978715	PDEL COLON	-0.804744
-2.264176	PDEL CQUE	-0.5016764
-5.279746	PDEL CSUBX
-2.730129	PDEL DM	-0.294189
-3.908678	PDEL FS	-0.2798849
-0.1549432	PDEL NC	-0.1265502
-4.049297	PDEL NEG	-0.3975602
-3.34778	PDEL NMEA	-0.6520394
-4.983959	PDEL NMON
-0.77272	PDEL NP	-1.553298
-2.271571	PDEL ORD	-0.7165523
-5.580776	PDEL PAL
-4.669675	PDEL PDEL	0.1317405
-2.594452	PDEL PE	-0.9776881
-4.103654	PDEL PPO	0.7045477
-4.376656	PDEL PPX	-0.5033612
-3.149412	PDEL PREP	-0.09834659
-3.122894	PDEL QT	-1.165046
-2.458888	PDEL QU	-0.5714333
-2.734438	PDEL REL	-0.7199944
-4.626533	PDEL SE	-0.3409864
-5.279746	PDEL SEMICOLON	-0.9157215
-5.279746	PDEL VCLIinf
-5.580776	PDEL VEinf
-4.802624	PDEL VHfin	-0.3035247
-5.279746	PDEL VHinf
-1.725499	PDEL VLadj	-0.917884
-2.022788	PDEL VLfin	-0.7093326
-3.559586	PDEL VLger	-0.8200443
-3.434648	PDEL VLinf	-0.4178355
-4.404685	PDEL VMfin	-0.3422945
-3.947307	PDEL VMinf	-0.9753039
-3.434648	PDEL VSadj	-0.679212
-4.669675	PDEL VSfin	-0.1723136
-3.243164	PE </s>
-3.243164	PE ACRNM
-1.663993	PE ADJ	-0.1327205
-1.958111	PE ADV	-0.1275226
-3.090737	PE ALFS	-0.5598258
-1.927234	PE ART	-0.1461608
-2.458713	PE CARD	-0.4827095
-1.5077	PE CC	-0.5306959
-3.236865	PE CCAD	-0.1884053
-3.243164	PE CCNEG	-0.1347609
-1.279736	PE CM	0.5273225
-1.837191	PE CODE	-1.135862
-2.856653	PE COLON	-0.268913
-2.055021	PE CQUE	-0.3073267
-3.640048	PE CSUBF
-2.894442	PE CSUBI	-0.1116722
-2.537895	PE CSUBX	-0.3755737
-2.34477	PE DASH	-0.340714
-2.981592	PE DM	-0.04886442
-3.325764	PE DOTS	-0.4148685
-1.443074	PE FS	-0.08560574
-2.958111	PE LP	-0.2460994
-1.037109	PE NC	-0.09537601
-2.356051	PE NEG	-0.8417816
-0.8689499	PE NP	-0.7638433
-4.236865	PE ORD
-2.914645	PE PAL	-0.1193166
-1.628339	PE PDEL	-0.5998912
-1.133061	PE PE	-0.4543902
-3.243164	PE PPC	0.3850877
-2.564767	PE PPO	-0.5132191
-2.593412	PE PPX	-0.66132
-0.9291547	PE PREP	-0.5230364
-1.723647	PE QT	-0.2651869
-2.821891	PE QU	-0.07214022
-3.640048	PE REL
-1.045693	PE RP	-1.720728
-2.361803	PE SE	-0.1879725
-2.981592	PE SEMICOLON	-0.06574313
-3.640048	PE SLASH	-0.3922584
-4.236865	PE SYM
-3.634805	PE VEfin	-0.1343067
-2.603396	PE VHfin	-0.515322
-4.236865	PE VHinf
-2.466013	PE VLadj	-0.3914223
-0.6848051	PE VLfin	-0.488106
-4.236865	PE VLger
-2.856653	PE VLinf	-0.664129
-2.634805	PE VMfin	-0.4729114
-3.935835	PE VMinf
-4.236865	PE VSadj
-2.191542	PE VSfin	0.3034453
-1.836206	PERCT ADJ	-0.2666972
-1.917412	PERCT ADV	-0.4104071
-4.247826	PERCT ALFS
-1.874914	PERCT ART	-0.6588131
-3.469675	PERCT CARD	-0.8192228
-1.33032	PERCT CC	-0.4027779
-3.254125	PERCT CCAD	-0.2271242
-3.293584	PERCT CCNEG	-0.1662079
-1.038043	PERCT CM	-0.3266127
-3.206433	PERCT COLON	-0.3009344
-2.147455	PERCT CQUE	-0.4852151
-3.101698	PERCT CSUBF	-0.2255196
-2.645766	PERCT CSUBI	0.1467371
-2.147455	PERCT CSUBX	-0.5064824
-2.265555	PERCT DASH	-0.2320092
-3.071735	PERCT DM	-0.599772
-3.946796	PERCT DOTS
-0.9174122	PERCT FS	-1.060274
-2.925607	PERCT LP	-0.361105
-1.889891	PERCT NC	-0.4950477
-2.328748	PERCT NEG	-0.6586413
-4.247826	PERCT NP
-1.79604	PERCT PAL	-1.129797
-0.8663499	PERCT PDEL	-1.283876
-3.651009	PERCT PE
-3.247826	PERCT PPC	-0.1756552
-3.206433	PERCT PPO	0.3871659
-3.293584	PERCT PPX	-0.6866834
-0.3513549	PERCT PREP	-1.031745
-3.254125	PERCT QT	-0.5626097
-2.992553	PERCT QU	-0.6784312
-2.318407	PERCT RP	-0.9636019
-2.293584	PERCT SE	0.02061915
-2.303343	PERCT SEMICOLON	-0.2022552
-4.247826	PERCT SYM
-3.651009	PERCT VEfin
-3.017377	PERCT VHfin	-0.9901719
-1.985375	PERCT VLadj	-0.6606575
-1.707497	PERCT VLfin	-0.4129615
-3.469675	PERCT VLger	-0.283666
-2.816462	PERCT VMfin	0.2731159
-2.137236	PERCT VSfin	-0.6467597
-4.247826	PERCT VSger
-4.944655	PPC ACRNM
-2.453294	PPC ADJ	-0.8109347
-3.254459	PPC ADV	-0.2855242
-3.740535	PPC ART	-0.3316479
-3.665902	PPC CARD	-0.4730583
-4.643625	PPC CM
-2.020376	PPC CQUE	-2.054178
-4.643625	PPC DM
-4.944655	PPC DOTS
-2.188019	PPC NC	-0.6817021
-2.804776	PPC NP	-0.8406937
-4.944655	PPC PAL
-4.944655	PPC PDEL
-3.768564	PPC PE	-0.1252576
-4.643625	PPC PPO
-3.413177	PPC PPX	-0.675334
-3.482257	PPC PREP	-0.06276411
-3.426142	PPC QT	-0.6332359
-4.347838	PPC QU	-0.3812919
-4.347838	PPC SE	-0.03532028
-3.301203	PPC VEfin	-0.34201
-4.643625	PPC VHadj	-0.9495486
-1.031955	PPC VHfin	-1.367006
-2.539822	PPC VLadj	-0.8472224
-0.07050418	PPC VLfin	-0.9322536
-3.376454	PPC VLinf	-1.076484
-1.984185	PPC VMfin	-1.18223
-4.944655	PPC VMinf
-1.717026	PPC VSfin	0.1638086
-5.506155	PPO </s>
-3.533027	PPO ACRNM	-0.3471212
-1.038162	PPO ADJ	-1.052374
-2.990281	PPO ADV	-0.6509327
-3.31303	PPO ART	0.09085095
-2.701334	PPO CARD	-1.245709
-3.426973	PPO CC	-0.408698
-5.205124	PPO CCAD	-0.9230443
-4.728003	PPO CCNEG	-0.1741633
-2.887061	PPO CM	-0.03858566
-4.506155	PPO COLON	-0.126858
-3.872686	PPO CQUE	-0.1380659
-5.506155	PPO CSUBF
-4.728003	PPO CSUBI	0.5363882
-4.551912	PPO CSUBX	-0.241018
-4.551912	PPO DASH	-0.05907474
-3.893371	PPO DM	-0.4073585
-5.205124	PPO DOTS
-2.95106	PPO FS	-0.9393276
-5.205124	PPO LP
-0.06393505	PPO NC	-0.009227753
-3.852942	PPO NEG	-0.1625663
-3.68661	PPO NMEA	-0.8413411
-1.940661	PPO NP	-1.155142
-2.272904	PPO ORD	-1.511752
-5.205124	PPO PAL	-0.4301626
-5.205124	PPO PDEL
-4.163732	PPO PE	-0.2929265
-4.909338	PPO PPC	0.1757683
-4.275705	PPO PPO	-0.06579822
-3.91509	PPO PPX	-0.6926878
-3.054368	PPO PREP	-0.1879683
-3.781879	PPO QT	-1.309174
-3.153972	PPO QU	-0.8093461
-5.205124	PPO RP
-4.250882	PPO SE	-0.4905375
-4.551912	PPO SEMICOLON	-0.1582925
-5.506155	PPO VCLIinf
-5.205124	PPO VEfin
-4.205124	PPO VHfin	-0.5393767
-4.330063	PPO VHinf	-0.3900433
-2.321463	PPO VLadj	-0.8052958
-2.090847	PPO VLfin	-0.6632191
-4.603065	PPO VLger	-0.2557884
-2.306674	PPO VLinf	-0.4531834
-5.205124	PPO VMadj	-0.9635807
-5.506155	PPO VMfin
-3.021855	PPO VMinf	-0.1491488
-3.872686	PPO VSfin	-0.4718443
-4.740854	PPX </s>
-4.34397	PPX ACRNM	-0.2094472
-1.483486	PPX ADJ	-0.4348092
-1.518127	PPX ADV	-0.3480084
-1.608911	PPX ART	-0.5085738
-2.518785	PPX CARD	-1.029945
-1.842404	PPX CC	-0.605113
-3.413392	PPX CCAD	-0.04550749
-3.217097	PPX CCNEG	-0.06122202
-1.013594	PPX CM	-1.185152
-4.107222	PPX CODE	-0.2362158
-2.781368	PPX COLON	-0.04141915
-1.990536	PPX CQUE	0.1699362
-3.408252	PPX CSUBF	-0.01006544
-2.426513	PPX CSUBI	-0.1210992
-2.592596	PPX CSUBX	-0.3900915
-3.03232	PPX DASH	-0.5628922
-2.760179	PPX DM	-0.3400415
-4.133551	PPX DOTS	-0.8914391
-1.287949	PPX FS	-0.6734369
-4.133551	PPX LP	-0.2652485
-1.756404	PPX NC	-0.42028
-1.818499	PPX NEG	-0.8080255
-2.658243	PPX NP	-0.6046815
-3.793603	PPX ORD	-0.1689327
-2.873778	PPX PAL	-0.4477835
-3.337671	PPX PDEL	0.03864634
-3.769469	PPX PE	-0.2951752
-1.872734	PPX PPC	-1.117429
-2.737788	PPX PPO	-0.2889563
-2.026341	PPX PPX	-1.728022
-1.51701	PPX PREP	0.04318261
-3.714422	PPX QT	-0.3700433
-2.573495	PPX QU	-0.403035
-3.07522	PPX REL	-0.6032509
-3.95746	PPX RP	-0.3490723
-1.898812	PPX SE	-0.8229244
-3.015452	PPX SEMICOLON	-0.2421957
-3.597308	PPX VCLIinf	0.1528902
-3.094633	PPX VEfin	-0.01994944
-3.769469	PPX VEinf	-0.4675024
-5.036641	PPX VHadj	-0.6726122
-1.250315	PPX VHfin	-1.02072
-4.16158	PPX VHinf	-0.2789793
-2.165068	PPX VLadj	-0.3129374
-0.2890815	PPX VLfin	-0.9601099
-3.456857	PPX VLger	-0.1075861
-2.03534	PPX VLinf	-0.2809494
-5.337671	PPX VMadj
-2.085789	PPX VMfin	-0.7387677
-2.870803	PPX VMinf	0.04392564
-5.337671	PPX VSadj
-1.77419	PPX VSfin	-0.1887219
-4.735611	PPX VSger	-0.3177226
-3.995248	PPX VSinf	0.2421133
-5.074123	PREP </s>
-3.454508	PREP ACRNM	-0.7034783
-1.711071	PREP ADJ	-0.6977239
-2.291651	PREP ADV	-0.05727625
-4.249672	PREP ALFS	-1.118912
-0.3532824	PREP ART	-0.6151905
-1.75904	PREP CARD	-0.06229615
-3.921835	PREP CC	-0.514895
-6.676183	PREP CCAD
-5.052934	PREP CCNEG	-0.7003782
-3.522978	PREP CM	-0.3465418
-3.420669	PREP CODE	-0.9209548
-4.443187	PREP COLON	-0.6466498
-1.551796	PREP CQUE	-0.3165188
-4.39515	PREP CSUBF	-0.7482786
-6.676183	PREP CSUBI
-3.40667	PREP CSUBX	0.01454067
-5.42091	PREP DASH	-0.1623994
-1.331799	PREP DM	-0.8769312
-4.920308	PREP DOTS	-0.5770215
-3.807539	PREP FS	-0.5966451
-5.261209	PREP LP	-0.008305818
-0.6235591	PREP NC	-0.452518
-2.954867	PREP NEG	-1.862535
-4.301435	PREP NMEA	-0.2433596
-2.471602	PREP NMON	0.6569366
-1.324497	PREP NP	-1.70173
-2.216173	PREP ORD	-2.141133
-4.726793	PREP PAL	-0.4640419
-3.266757	PREP PDEL	-0.3926709
-4.012482	PREP PE	-0.6484057
-6.375153	PREP PPC
-1.433798	PREP PPO	-0.8546836
-1.912269	PREP PPX	0.02697229
-2.367192	PREP PREP	-0.8425665
-3.518726	PREP QT	-0.8426602
-1.412796	PREP QU	0.3805323
-2.767805	PREP REL	-0.6827891
-5.56224	PREP RP	-0.298336
-4.784089	PREP SE	0.8619552
-5.500092	PREP SEMICOLON	-0.3045838
-6.676183	PREP SLASH
-6.074123	PREP SYM	-0.2312545
-6.375153	PREP UMMX
-2.829598	PREP VCLIinf	-0.2566309
-6.676183	PREP VEfin
-3.525427	PREP VEinf	0.2386363
-6.676183	PREP VHadj
-5.530055	PREP VHfin	0.3366789
-3.076627	PREP VHinf	-0.4775305
-2.585608	PREP VLadj	-0.3346298
-2.299752	PREP VLfin	-1.293268
-5.898032	PREP VLger	-0.08047202
-1.458326	PREP VLinf	-0.3464208
-5.721941	PREP VMfin	-0.4404405
-3.202988	PREP VMinf	0.03133178
-5.472063	PREP VSadj	-0.4563451
-5.107981	PREP VSfin	0.1209722
-2.724651	PREP VSinf	-0.08036566
-1.758745	QT </s>
-3.437594	QT ACRNM	-0.5842823
-1.524568	QT ADJ	-0.5987363
-1.973946	QT ADV	-0.1732234
-1.865821	QT ALFS	-1.31422
-1.260204	QT ART	-0.1853902
-2.445604	QT CARD	-0.4237959
-1.609122	QT CC	0.4191861
-2.886296	QT CCAD	0.03392684
-3.047664	QT CCNEG	-0.03960589
-1.04658	QT CM	-0.2143159
-4.348694	QT CODE
-2.667453	QT COLON	0.1039499
-1.943861	QT CQUE	-0.1900451
-3.026475	QT CSUBF	0.0456351
-2.384906	QT CSUBI	-0.2146924
-2.010238	QT CSUBX	-0.09327865
-2.394452	QT DASH	0.1706471
-2.768911	QT DM	0.03469574
-2.641124	QT DOTS	-0.07140386
-0.8476349	QT FS	-0.385334
-2.052029	QT LP	-0.4910743
-0.5608088	QT NC	-0.5986302
-1.867252	QT NEG	-0.152958
-4.348694	QT NMEA
-1.225496	QT NP	-0.7344304
-3.172603	QT ORD	0.2295659
-2.649724	QT PAL	0.09117341
-2.224843	QT PDEL	-0.1601058
-1.784028	QT PE	-1.284883
-2.725445	QT PPC	-0.7989045
-2.843544	QT PPO	0.0624181
-2.429616	QT PPX	-0.2707443
-1.175799	QT PREP	-0.04558659
-3.118245	QT QT	-0.1818481
-2.026475	QT QU	-0.5997994
-2.585266	QT REL	-0.6373498
-2.497436	QT RP	-0.4963563
-2.152795	QT SE	0.07937658
-2.451067	QT SEMICOLON	0.07397372
-3.394452	QT VCLIinf	0.07242118
-3.354994	QT VEfin	-0.1897873
-4.047664	QT VEinf
-2.503596	QT VHfin	-0.3943223
-1.957759	QT VLadj	-0.5967598
-1.338394	QT VLfin	-0.03759873
-2.843544	QT VLger	-0.1019122
-1.843544	QT VLinf	-0.8331515
-2.269513	QT VMfin	-0.1395545
-3.746634	QT VMinf	-0.9657909
-2.022358	QT VSfin	-0.04722142
-3.746634	QT VSinf	-0.2588705
-4.873772	QU </s>
-3.508908	QU ACRNM	-0.808567
-1.711755	QU ADJ	-0.1532085
-1.978257	QU ADV	-0.1467102
-0.7624702	QU ART	-1.025995
-1.882989	QU CARD	-1.589722
-1.960842	QU CC	-0.44242
-4.120444	QU CCAD	-0.5609063
-3.738109	QU CCNEG	-0.2747905
-1.427338	QU CM	-0.9853766
-2.906848	QU COLON	0.05479968
-1.596851	QU CQUE	-0.3864694
-3.426614	QU CSUBF	-0.09839439
-2.722504	QU CSUBI	-0.2936207
-1.817121	QU CSUBX	-0.6971335
-3.434439	QU DASH	-0.4256517
-1.701948	QU DM	-0.3780756
-4.350893	QU DOTS	-0.1466581
-1.678149	QU FS	-0.6397533
-4.146773	QU LP	-0.4724374
-0.3165034	QU NC	-1.266493
-2.825201	QU NEG	-0.3891468
-2.993912	QU NMEA	-0.3135808
-5.651923	QU NMON
-1.914095	QU NP	-0.5715973
-4.008471	QU ORD	-0.3004608
-3.16905	QU PAL	-0.6040283
-3.075582	QU PDEL	-0.147434
-4.204765	QU PE	-0.2053735
-3.331777	QU PPC	-1.590006
-1.947858	QU PPO	-1.110527
-1.818521	QU PPX	-0.3375356
-1.24118	QU PREP	-0.3812747
-3.651923	QU QT	-0.3867938
-1.936839	QU QU	-0.9118298
-2.902187	QU REL	-0.5350435
-3.911561	QU RP	-0.3028946
-2.588215	QU SE	-0.3334956
-3.35307	QU SEMICOLON	-0.2332243
-5.651923	QU SLASH
-4.475832	QU VCLIinf	0.02189888
-4.133409	QU VEfin	0.08513379
-5.049863	QU VEinf	-0.1471764
-5.651923	QU VHadj
-2.693359	QU VHfin	-0.1508284
-5.055106	QU VHinf	-0.2285857
-2.331569	QU VLadj	-0.3031794
-1.449762	QU VLfin	-0.3743782
-4.028674	QU VLger	-0.1530909
-2.863048	QU VLinf	-0.2533743
-2.670105	QU VMfin	-0.012411
-4.873772	QU VMinf	0.1700519
-2.339323	QU VSfin	-0.6758156
-5.651923	QU VSger
-3.407799	REL ACRNM	-0.2985049
-1.906283	REL ADJ	-0.6975155
-1.691239	REL ADV	-1.141715
-1.135184	REL ART	-0.5052499
-2.385233	REL CARD	-0.7295043
-3.37977	REL CC	-0.3309216
-3.18595	REL CCNEG	-0.3684514
-1.393558	REL CM	-0.5982563
-3.437762	REL CODE	-0.4529768
-3.542497	REL COLON	-0.2244395
-2.150921	REL CQUE	-0.2878109
-3.590189	REL CSUBF	-0.1955888
-3.106769	REL CSUBI	-0.09096789
-3.052411	REL CSUBX	-0.1278674
-3.407799	REL DASH	-0.1501902
-2.371702	REL DM	-0.1822938
-2.820462	REL FS	-0.1951238
-0.5803432	REL NC	-0.6924932
-1.491871	REL NEG	-1.351494
-3.58389	REL NMEA	-0.1465577
-2.305136	REL NP	-0.5107927
-2.835702	REL ORD	-0.1734231
-1.504709	REL PAL	-0.9571972
-3.987073	REL PDEL	0.130361
-3.353441	REL PE	-0.2862761
-1.916437	REL PPC	-0.7958109
-2.504709	REL PPO	-1.316495
-1.660128	REL PPX	-1.167206
-1.875469	REL PREP	-0.2297291
-3.542497	REL QT	-0.1570792
-2.066694	REL QU	-0.3802956
-3.590189	REL REL	-0.7098526
-1.192778	REL SE	-0.7751985
-4.28286	REL SEMICOLON
-4.58389	REL VCLIinf
-3.039822	REL VEfin	-0.0600884
-1.468946	REL VHfin	-0.7502701
-2.654471	REL VLadj	-0.09489781
-0.572531	REL VLfin	-0.319191
-4.28286	REL VLger
-2.597118	REL VLinf	-0.3280848
-1.682977	REL VMfin	-0.02794623
-3.542497	REL VMinf	-1.169894
-1.332008	REL VSfin	-0.2917368
-1.016372	RP </s>
-3.917558	RP ACRNM	-0.3594069
-1.970615	RP ADJ	-0.5866723
-2.291731	RP ADV	-0.1794695
-2.700074	RP ALFS	-0.4688736
-1.498842	RP ART	-0.3488662
-1.260024	RP CARD	-2.078931
-1.282326	RP CC	-0.1444161
-3.405675	RP CCAD	-0.157482
-3.741467	RP CCNEG	-0.1151033
-1.096864	RP CM	-0.02207994
-2.289169	RP CODE	-0.7690118
-1.465388	RP COLON	-1.840911
-2.114784	RP CQUE	-0.5477366
-3.104645	RP CSUBF	-0.237521
-2.486194	RP CSUBI	-0.4714648
-2.171313	RP CSUBX	-0.1602917
-2.54649	RP DASH	-0.2335256
-2.478225	RP DM	-0.6170168
-3.121678	RP DOTS	-0.2682265
-0.9547153	RP FS	-0.6959245
-1.690314	RP LP	-1.015731
-1.032197	RP NC	-0.9705443
-2.171313	RP NEG	-0.6820225
-1.37287	RP NP	-0.3900932
-4.218588	RP ORD	-0.06988114
-2.812048	RP PAL	-0.9700211
-1.186574	RP PDEL	-1.268432
-3.042497	RP PE	-0.8227031
-3.922801	RP PPC	0.1757683
-3.917558	RP PPO	0.4852698
-3.240865	RP PPX	-0.7977896
-1.035603	RP PREP	-0.6471018
-3.177195	RP QT	-0.2053775
-3.042497	RP QU	-0.3734149
-3.565376	RP REL	-0.8675742
-1.092782	RP RP	-1.652478
-2.346432	RP SE	0.2704479
-1.907895	RP SEMICOLON	-0.8616526
-3.440437	RP SLASH	-0.485381
-3.608518	RP SYM	-0.5961504
-3.922801	RP VEfin
-2.462713	RP VHfin	0.1053256
-1.99979	RP VLadj	-0.7446057
-1.380369	RP VLfin	-0.5001434
-3.565376	RP VLger	-0.169032
-2.590199	RP VLinf	-0.6642081
-2.662286	RP VMfin	0.1520967
-4.519618	RP VMinf
-2.139407	RP VSfin	-0.5188657
-4.519618	RP VSinf
-5.598193	SE ACRNM
-3.985409	SE ADJ	-0.5828364
-3.615921	SE ADV	-0.6436434
-3.577003	SE ART	-0.6494487
-5.598193	SE CC
-4.695103	SE CM
-4.34292	SE CQUE	-0.0819867
-5.598193	SE CSUBI
-4.996133	SE CSUBX
-5.598193	SE DASH
-4.297163	SE DM	-0.5364161
-5.598193	SE DOTS
-4.695103	SE FS	0.1369404
-5.598193	SE LP
-2.328913	SE NC	-0.6290984
-4.5568	SE NEG	-0.2206914
-5.598193	SE PDEL
-3.059117	SE PE	-1.081906
-1.675883	SE PPC	-1.445747
-5.297163	SE PPO	-0.1042745
-1.889177	SE PPX	-2.732203
-3.964724	SE PREP	-0.4320651
-4.5568	SE QT	-0.2481141
-5.001376	SE QU
-5.598193	SE RP
-4.996133	SE SE	0.2349053
-5.598193	SE VCLIinf
-4.519011	SE VEfin	-0.6705344
-5.598193	SE VEinf
-0.8282397	SE VHfin	-2.12883
-3.88219	SE VLadj	-0.1385913
-0.1212699	SE VLfin	-1.855649
-5.598193	SE VLger
-4.598193	SE VLinf	-0.5051948
-1.267475	SE VMfin	-1.290688
-3.416349	SE VSfin	-0.3910705
-1.18264	SEMICOLON </s>
-3.488707	SEMICOLON ACRNM	-0.989088
-2.116614	SEMICOLON ADJ	-0.5332164
-0.9182941	SEMICOLON ADV	-1.070372
-3.04501	SEMICOLON ALFS	-0.5389822
-0.8386158	SEMICOLON ART	-0.0126965
-2.046751	SEMICOLON CARD	-0.2870427
-1.193507	SEMICOLON CC	-0.2027483
-1.537694	SEMICOLON CCAD	-0.3298301
-2.630037	SEMICOLON CCNEG	-0.2893999
-4.44295	SEMICOLON CM
-3.329006	SEMICOLON CODE	-0.5228095
-1.897643	SEMICOLON CQUE	-0.5533303
-1.979057	SEMICOLON CSUBF	-0.5769081
-2.34604	SEMICOLON CSUBI	0.237035
-1.604101	SEMICOLON CSUBX	-1.254535
-3.846133	SEMICOLON DASH	-0.6318334
-1.586825	SEMICOLON DM	-0.5849651
-4.44295	SEMICOLON DOTS
-3.846133	SEMICOLON FS	0.4426065
-3.488707	SEMICOLON LP	-0.9518286
-1.275928	SEMICOLON NC	-0.2369167
-1.491612	SEMICOLON NEG	-0.4413204
-2.244293	SEMICOLON NMEA	-1.55366
-2.048498	SEMICOLON NP	-0.1906321
-2.53986	SEMICOLON ORD	-1.268164
-2.112536	SEMICOLON PAL	-1.212782
-3.187677	SEMICOLON PDEL	-0.6615103
-3.488707	SEMICOLON PE	-0.2604537
-2.53986	SEMICOLON PPC	-0.2526913
-2.05556	SEMICOLON PPO	-0.2008113
-1.769008	SEMICOLON PPX	-0.6561155
-0.9461585	SEMICOLON PREP	-0.4481299
-3.449249	SEMICOLON QT	-0.06128958
-1.672835	SEMICOLON QU	-0.6981758
-3.53986	SEMICOLON REL	-0.3494006
-1.670628	SEMICOLON SE	0.07400584
-3.488707	SEMICOLON VCLIinf	-0.2133023
-3.120731	SEMICOLON VEfin	-0.5978473
-4.44295	SEMICOLON VHadj
-2.022994	SEMICOLON VHfin	-0.06356502
-3.846133	SEMICOLON VHger	-0.3771172
-2.021346	SEMICOLON VLadj	-0.6172763
-0.9903968	SEMICOLON VLfin	-0.9135453
-3.081222	SEMICOLON VLger	-0.070328
-1.939159	SEMICOLON VLinf	-0.5612655
-1.90262	SEMICOLON VMfin	-0.6128356
-1.497974	SEMICOLON VSfin	-0.138377
-4.14192	SEMICOLON VSger	-0.8269108
-4.44295	SEMICOLON VSinf
-2.391557	SLASH ACRNM	-0.3334271
-2.523126	SLASH ADJ	0.02436894
-2.391557	SLASH ALFS	-0.9201816
-3.432949	SLASH ART	0.1489719
-0.1094393	SLASH CARD	-1.241421
-2.193024	SLASH CC	-0.4442599
-2.097993	SLASH CODE	-1.250722
-4.336039	SLASH CSUBX
-3.432949	SLASH DOTS	-0.6003535
-3.557888	SLASH LP	-0.2643609
-1.678983	SLASH NC	-0.3970138
-4.336039	SLASH NEG
-3.557888	SLASH NMON	-0.2780967
-0.7853218	SLASH NP	-0.8811769
-4.035009	SLASH PDEL
-3.424939	SLASH PE
-4.035009	SLASH PREP
-3.733979	SLASH SLASH	0.3955634
-3.222096	SLASH UMMX	-0.1367984
-3.739222	SLASH VHfin
-3.057286	SLASH VLadj	-0.296244
-3.294647	SLASH VLfin	-0.1173777
-4.336039	SLASH VLger
-3.424939	SLASH VLinf	-0.05029927
-4.336039	SLASH VMfin
-2.121195	SLASH VSadj	-1.060153
-2.356459	SYM </s>
-2.042176	SYM ACRNM	-0.2528937
-2.175125	SYM ADJ
-0.8529058	SYM ALFS	-0.5689797
-2.351216	SYM ART	-0.5618388
-0.5416566	SYM CARD	-0.4452044
-1.698004	SYM CC	-0.1575393
-1.245706	SYM CM	-0.3998509
-2.652246	SYM CODE
-2.953276	SYM COLON
-2.652246	SYM CQUE
-1.959576	SYM CSUBI	0.2397253
-2.953276	SYM CSUBX
-2.953276	SYM DASH
-1.448126	SYM FS	-0.427331
-1.959576	SYM LP	-0.1299269
-1.290519	SYM NC	-0.4230677
-2.652246	SYM NEG
-0.839333	SYM NP	-0.4584079
-2.652246	SYM PE
-2.652246	SYM PPX	-0.6545787
-1.652246	SYM PREP	-0.2972585
-2.175125	SYM RP
-2.042176	SYM SE	0.3414185
-2.652246	SYM SEMICOLON
-2.953276	SYM SLASH
-0.9990338	SYM SYM	-1.382382
-2.953276	SYM VHfin
-2.356459	SYM VLadj
-1.631057	SYM VLfin	-0.4202939
-2.175125	SYM VLinf	-0.274784
-2.050186	SYM VMfin	0.1030468
-1.777185	SYM VSfin	-0.3010529
-2.047275	UMMX ADJ
-2.348305	UMMX ADV
-1.306912	UMMX CC	-0.03569946
-0.9680936	UMMX CM	-0.2829733
-2.348305	UMMX CODE
-2.348305	UMMX COLON
-2.047275	UMMX CSUBI	-0.01527989
-2.348305	UMMX CSUBX
-1.751488	UMMX DASH	-0.61076
-0.5774528	UMMX FS	0.1277863
-2.348305	UMMX NEG
-2.348305	UMMX PAL
-1.746245	UMMX PDEL
-0.5489643	UMMX PREP	-0.4242076
-2.047275	UMMX SE	-0.3546391
-0.8297909	UMMX SLASH	-1.678973
-2.348305	UMMX VLadj
-1.306912	UMMX VLfin	-0.09519596
-2.348305	UMMX VSfin
-1.616146	VCLIinf ADJ	-0.2824734
-1.088374	VCLIinf ADV	-0.7817544
-0.9869612	VCLIinf ART	-0.2557952
-2.826587	VCLIinf CARD	-1.030258
-1.666515	VCLIinf CC	-0.9371154
-3.392649	VCLIinf CCAD	-0.1233846
-3.091619	VCLIinf CCNEG	-0.2141029
-1.253629	VCLIinf CM	-0.8869829
-2.986884	VCLIinf COLON	-0.07309031
-1.732906	VCLIinf CQUE	-0.096102
-2.536415	VCLIinf CSUBF	-0.01998985
-1.907057	VCLIinf CSUBI	-0.8893619
-1.543341	VCLIinf CSUBX	-0.4972485
-2.979197	VCLIinf DASH	-0.1802679
-2.133012	VCLIinf DM	-0.608762
-4.138255	VCLIinf DOTS
-1.137706	VCLIinf FS	-0.6880157
-3.823972	VCLIinf LP
-1.233465	VCLIinf NC	-0.7917912
-2.645167	VCLIinf NEG	-0.2760624
-3.373344	VCLIinf NP	-0.04816952
-4.735072	VCLIinf ORD
-1.788619	VCLIinf PAL	-1.071977
-2.266724	VCLIinf PDEL	-0.4905388
-4.434042	VCLIinf PE	-0.9260719
-3.044876	VCLIinf PPC	-0.8658513
-2.412852	VCLIinf PPO	-0.5472271
-2.915528	VCLIinf PPX	-0.2674441
-0.4131627	VCLIinf PREP	-0.2455468
-3.412852	VCLIinf QT	-0.1540909
-1.821788	VCLIinf QU	-0.4330078
-4.138255	VCLIinf REL	-0.2599958
-3.831982	VCLIinf RP	-0.1645679
-3.229922	VCLIinf SE	-0.1215241
-2.854258	VCLIinf SEMICOLON	-0.114494
-3.831982	VCLIinf VCLIinf	-0.1115083
-3.95692	VCLIinf VEfin	-0.2939152
-4.735072	VCLIinf VHadj
-3.55898	VCLIinf VHfin	-0.0525139
-1.329725	VCLIinf VLadj	-0.6462157
-2.020742	VCLIinf VLfin	-0.2619884
-2.522884	VCLIinf VLger	-0.3890148
-2.079933	VCLIinf VLinf	-0.2808822
-3.823972	VCLIinf VMadj	-0.08576757
-3.229922	VCLIinf VMfin	0.186667
-3.780829	VCLIinf VSadj	-0.4842505
-2.358495	VCLIinf VSfin	-0.2867231
-4.735072	VCLIinf VSinf
-1.072889	VEadj ADJ	-0.5174785
-0.9179866	VEadj ADV	-1.266262
-1.93647	VEadj ART	-0.07857734
-2.696138	VEadj CARD	-0.9901919
-2.094078	VEadj CC	-0.1859365
-3.298198	VEadj CCNEG
-2.122107	VEadj CM	-0.3078226
-3.298198	VEadj CSUBI
-2.997168	VEadj DM
-2.701381	VEadj FS	0.4426065
-1.465689	VEadj NC	-0.2204937
-2.298198	VEadj PAL	-0.4622674
-2.696138	VEadj PDEL	-0.6006537
-3.298198	VEadj PPC
-3.298198	VEadj PPO
-2.219017	VEadj PPX	-0.2964772
-0.7060211	VEadj PREP	-0.6477616
-2.997168	VEadj QT
-2.042925	VEadj QU	-1.152645
-0.3854446	VEadj VLadj	-0.5239413
-1.6261	VEadj VLfin	-0.1358311
-1.15207	VEadj VLger	-0.3424053
-3.298198	VEadj VLinf
-0.6078836	VEfin ADJ	-0.4808625
-0.9370139	VEfin ADV	-0.9548433
-0.6100371	VEfin ART	-0.7628407
-2.089684	VEfin CARD	-1.555952
-2.106284	VEfin CC	-1.102478
-3.390714	VEfin CCAD	-0.3373508
-3.038532	VEfin CCNEG	-0.4221872
-1.757246	VEfin CM	-0.5393085
-3.992774	VEfin CODE
-2.691744	VEfin COLON	-0.4949063
-1.576134	VEfin CQUE	-0.2825866
-3.390714	VEfin CSUBF	-0.2008088
-2.40171	VEfin CSUBX	-0.5925422
-2.320677	VEfin DM	-0.1593932
-2.320677	VEfin FS	-0.5900583
-3.992774	VEfin LP
-1.3513	VEfin NC	-0.6692219
-2.951382	VEfin NEG	-0.5529838
-2.369525	VEfin NP	-0.1205332
-3.390714	VEfin ORD	-0.2254223
-2.762326	VEfin PAL	-1.152969
-1.967469	VEfin PDEL	-0.5246878
-3.691744	VEfin PE	-0.9047994
-2.913593	VEfin PPC	-0.2895986
-1.831406	VEfin PPO	0.1870234
-2.461295	VEfin PPX	-0.02172476
-1.050766	VEfin PREP	-0.0350796
-3.038532	VEfin QT	-0.1782234
-1.935869	VEfin QU	-0.5004523
-3.395957	VEfin REL	-0.5133311
-3.691744	VEfin SE	-0.3546391
-3.992774	VEfin SEMICOLON
-2.951382	VEfin VCLIinf	-0.07186362
-3.992774	VEfin VEinf
-3.992774	VEfin VHfin
-3.395957	VEfin VHinf	-0.2285857
-1.198286	VEfin VLadj	-0.5075026
-2.193434	VEfin VLfin	-0.4904018
-2.999074	VEfin VLger	-0.1734135
-1.245363	VEfin VLinf	-0.5428663
-3.992774	VEfin VMfin
-3.992774	VEfin VMinf
-3.390714	VEfin VSfin	-0.2325779
-3.691744	VEfin VSinf
-0.9601285	VEger ADJ	-0.4361094
-0.7545822	VEger ADV	-1.236455
-1.73828	VEger ART	0.0285477
-3.017033	VEger CC
-1.569875	VEger CM	-0.6014186
-2.716003	VEger CSUBI
-3.017033	VEger CSUBX
-2.716003	VEger DM
-2.420216	VEger FS	0.4426065
-1.73828	VEger NC	-0.1115526
-2.716003	VEger NP
-1.761761	VEger PAL	-0.7175399
-2.105933	VEger PDEL	0.250945
-2.716003	VEger PPO
-2.238882	VEger PPX	-0.1996222
-0.6003928	VEger PREP	-0.718218
-2.238882	VEger QU
-0.4619389	VEger VLadj	-0.6620939
-2.414973	VEger VLfin	-0.1590172
-0.6587115	VEinf ADJ	-1.152899
-0.9465714	VEinf ADV	-1.030242
-2.100668	VEinf ART	-0.1132106
-3.231002	VEinf CARD	-0.4265919
-2.753881	VEinf CC	-0.5762409
-3.708123	VEinf CCAD	-0.9629738
-3.412336	VEinf CCNEG	-0.2944917
-2.216762	VEinf CM	-0.444646
-4.009153	VEinf COLON
-3.708123	VEinf CSUBX
-3.708123	VEinf DASH
-3.054911	VEinf DM	-0.3498945
-2.477674	VEinf FS	-0.139266
-1.67874	VEinf NC	-0.8677522
-3.708123	VEinf NP
-1.888579	VEinf PAL	-1.366632
-2.753881	VEinf PDEL	-0.6131386
-3.412336	VEinf PE	-0.291897
-4.009153	VEinf PPO
-2.477674	VEinf PPX	-0.7625114
-0.6521719	VEinf PREP	-0.6387215
-3.015453	VEinf QT	-0.5180283
-2.139922	VEinf QU	-0.4296324
-4.009153	VEinf RP
-4.009153	VEinf SEMICOLON
-4.009153	VEinf VCLIinf
-0.4448424	VEinf VLadj	-0.7632186
-2.504003	VEinf VLfin	-0.4761025
-1.912243	VEinf VLger	-0.1306887
-4.009153	VEinf VLinf
-3.407093	VEinf VSger	-0.3177226
-1.403456	VHadj ADJ	-0.6494328
-1.586019	VHadj ADV	-0.6596806
-0.6993762	VHadj ART	-0.8006279
-1.662859	VHadj CARD	-0.8733364
-2.168944	VHadj CC	-0.52332
-2.400893	VHadj CCNEG	-0.6686606
-1.838951	VHadj CM	-0.4025892
-3.029282	VHadj CODE	-0.2539712
-3.631342	VHadj COLON
-1.77401	VHadj CQUE	-1.404484
-2.853191	VHadj CSUBI	0.1075173
-3.631342	VHadj CSUBX
-3.631342	VHadj DASH
-2.58995	VHadj DM	-0.06615126
-2.37607	VHadj FS	-0.1640896
-0.306854	VHadj NC	-1.277832
-3.034525	VHadj NEG
-3.330312	VHadj NP	-0.9402464
-3.034525	VHadj PDEL	-0.312146
-3.330312	VHadj PE
-1.383369	VHadj PREP	-0.2470821
-3.631342	VHadj QT
-1.020682	VHadj QU	-0.6470433
-2.427222	VHadj REL	-0.6366414
-3.330312	VHadj SE	-0.898074
-3.034525	VHadj VHfin	-0.3525148
-2.37607	VHadj VLadj	-0.05305189
-1.786244	VHadj VLfin	-0.0694291
-3.631342	VHadj VLinf
-2.720242	VHadj VSfin	-0.3619011
-5.437056	VHfin ACRNM
-1.892988	VHfin ADJ	-0.6404542
-2.361509	VHfin ADV	-1.131594
-4.840239	VHfin ALFS	-0.6368079
-1.579121	VHfin ART	-0.9527657
-2.234023	VHfin CARD	-1.464689
-3.533966	VHfin CC	-0.5671773
-5.437056	VHfin CCAD
-3.482813	VHfin CCNEG	-0.7926476
-2.796574	VHfin CM	-0.6765589
-4.840239	VHfin CODE	-0.3897742
-4.834996	VHfin COLON
-3.666204	VHfin CQUE	-0.5884348
-4.114837	VHfin CSUBF	-0.4491129
-3.857272	VHfin CSUBI	-0.3261383
-4.482813	VHfin CSUBX	-0.2293601
-4.525956	VHfin DASH
-3.945694	VHfin DM	-0.4664367
-5.437056	VHfin DOTS
-3.450284	VHfin FS	-0.1413519
-1.345178	VHfin NC	-1.222161
-4.482813	VHfin NEG	-0.1759018
-5.437056	VHfin NMEA
-4.260964	VHfin NP	-0.09791121
-5.136026	VHfin ORD
-4.482813	VHfin PAL	-0.4165099
-4.395663	VHfin PDEL	-1.114495
-4.840239	VHfin PE
-5.437056	VHfin PPC
-5.437056	VHfin PPO
-4.005692	VHfin PPX	-0.9866444
-2.438361	VHfin PREP	-0.5304698
-4.260964	VHfin QT	-0.2375052
-1.366242	VHfin QU	-1.123069
-2.935997	VHfin REL	-0.6517302
-4.840239	VHfin RP
-4.075328	VHfin SE	-0.5929366
-4.443355	VHfin SEMICOLON
-4.395663	VHfin VCLIinf	-0.01143175
-2.139295	VHfin VEadj	0.1238177
-5.437056	VHfin VEger
-5.437056	VHfin VEinf
-2.038769	VHfin VHadj	0.1376321
-4.525956	VHfin VHfin	-0.00117594
-5.437056	VHfin VHinf
-0.1313047	VHfin VLadj	-1.441923
-3.027123	VHfin VLfin	-0.232069
-4.323112	VHfin VLger	-0.148801
-3.512776	VHfin VLinf	0.108029
-2.039116	VHfin VMadj	-0.1114383
-5.437056	VHfin VMfin
-1.056537	VHfin VSadj	-0.7362618
-3.959934	VHfin VSfin	-0.4722692
-4.443355	VHfin VSinf	-0.1304058
-1.110349	VHger ADJ	-0.659107
-1.682446	VHger ADV	-0.1724273
-0.8332313	VHger ART	-0.4639103
-1.712409	VHger CARD	-0.8879656
-2.858537	VHger CC
-1.779356	VHger CM	-0.2632982
-2.557507	VHger CODE
-2.858537	VHger CSUBF
-2.858537	VHger CSUBI
-2.26172	VHger DM	-0.04422837
-2.858537	VHger FS
-0.54467	VHger NC	-0.5332235
-2.858537	VHger PAL
-1.654417	VHger PREP	-0.4686701
-1.087685	VHger QU	-0.9348763
-0.5775039	VHger VLadj	-0.5590727
-1.947437	VHger VLfin	-0.1615748
-2.557507	VHger VMadj
-1.460597	VHger VSadj	-0.2340391
-1.710174	VHinf ADJ	-0.6076151
-1.869232	VHinf ADV	-0.5063182
-1.034192	VHinf ART	-0.8268181
-2.682145	VHinf CARD	-0.5547169
-2.831908	VHinf CC	-0.6274822
-3.108114	VHinf CCNEG	-0.3611997
-2.205024	VHinf CM	-0.3417098
-4.062356	VHinf COLON
-3.159266	VHinf CQUE	-0.9417163
-4.062356	VHinf CSUBF
-3.159266	VHinf CSUBI	-0.001627207
-4.062356	VHinf CSUBX
-4.062356	VHinf DASH
-3.020964	VHinf DM	0.04007661
-2.783603	VHinf FS	0.1134593
-0.9689347	VHinf NC	-0.507153
-4.062356	VHinf NEG
-3.465539	VHinf NP	-0.3280571
-4.062356	VHinf ORD
-3.151256	VHinf PDEL	-0.2235064
-4.062356	VHinf PE
-3.761326	VHinf PPC	-0.1435505
-3.761326	VHinf PPX
-2.02493	VHinf PREP	-0.301475
-4.062356	VHinf QT
-1.696868	VHinf QU	-0.595678
-3.465539	VHinf REL	-0.5133311
-4.062356	VHinf VEadj
-2.647383	VHinf VHadj	-0.03488052
-0.2077467	VHinf VLadj	-0.8978415
-2.321994	VHinf VLfin	-0.2149826
-4.062356	VHinf VLger
-4.062356	VHinf VLinf
-1.90702	VHinf VMadj	-0.6581961
-1.09294	VHinf VSadj	-0.4217703
-3.460296	VHinf VSfin	-0.2371898
-3.688141	VLadj </s>
-4.575101	VLadj ACRNM	-0.2699176
-1.692268	VLadj ADJ	-0.3413968
-1.180431	VLadj ADV	-0.267519
-4.492915	VLadj ALFS	-0.3178889
-1.002302	VLadj ART	-0.3947327
-2.322754	VLadj CARD	-1.385866
-1.460185	VLadj CC	-0.6983876
-2.937445	VLadj CCAD	-0.09949863
-3.106508	VLadj CCNEG	-0.02634478
-1.170324	VLadj CM	-0.1382487
-3.426396	VLadj CODE	-0.1403979
-2.761353	VLadj COLON	0.009927273
-1.605375	VLadj CQUE	-0.4153173
-2.89273	VLadj CSUBF	0.1502392
-1.888986	VLadj CSUBI	-0.5730026
-1.996271	VLadj CSUBX	-0.2149911
-3.276794	VLadj DASH	-0.465683
-2.005191	VLadj DM	-0.2871881
-4.199438	VLadj DOTS	-0.1999342
-1.156869	VLadj FS	-0.6803136
-3.135768	VLadj LP	-0.8327068
-1.393281	VLadj NC	-0.2344973
-2.29931	VLadj NEG	-0.1161108
-5.654283	VLadj NMEA
-3.719784	VLadj NMON	-0.2971678
-2.404717	VLadj NP	-0.554873
-4.364248	VLadj ORD	-0.6930505
-1.89337	VLadj PAL	-1.004856
-2.088258	VLadj PDEL	-0.02548957
-4.39901	VLadj PE	-0.6666881
-2.815748	VLadj PPC	0.0262897
-1.950046	VLadj PPO	0.2097232
-2.462831	VLadj PPX	-0.2363799
-0.4178145	VLadj PREP	-0.4038334
-3.176438	VLadj QT	-0.3083707
-1.835101	VLadj QU	-1.179262
-3.959677	VLadj REL	-0.642585
-3.401429	VLadj RP	-0.7254012
-2.449078	VLadj SE	-0.3515267
-2.791555	VLadj SEMICOLON	-0.1254663
-3.964086	VLadj SLASH	-0.6394839
-5.654283	VLadj SYM
-3.607008	VLadj VCLIinf	-0.1914873
-3.748487	VLadj VEfin	0.1599847
-5.654283	VLadj VEger	-0.8838427
-4.09199	VLadj VEinf	-0.3190565
-3.274977	VLadj VHadj	-0.4114527
-2.475593	VLadj VHfin	-0.3357472
-5.044212	VLadj VHger	-0.3615808
-4.199438	VLadj VHinf	-0.1337841
-2.009844	VLadj VLadj	-0.7411525
-1.380275	VLadj VLfin	-0.6321576
-2.998184	VLadj VLger	-0.462543
-1.874109	VLadj VLinf	-0.5776453
-2.46648	VLadj VMfin	-0.3302627
-5.654283	VLadj VMger
-4.222919	VLadj VMinf	-0.5304373
-4.961612	VLadj VSadj	0.03435612
-2.04134	VLadj VSfin	-0.4701676
-4.247742	VLadj VSger	0.1263883
-4.142399	VLadj VSinf	-0.6097586
-4.210738	VLfin </s>
-4.876632	VLfin ACRNM	-0.2146235
-1.438258	VLfin ADJ	-0.6770377
-1.147148	VLfin ADV	-0.6914399
-4.63775	VLfin ALFS	-0.7223111
-0.8129071	VLfin ART	-0.5235081
-2.042635	VLfin CARD	-0.5590115
-1.933451	VLfin CC	-0.09496284
-3.473511	VLfin CCAD	-0.9419241
-3.063051	VLfin CCNEG	-0.1838467
-1.433807	VLfin CM	-0.5137463
-4.033607	VLfin CODE	-0.6574459
-2.762577	VLfin COLON	-0.3340492
-1.101289	VLfin CQUE	-0.3052754
-3.024559	VLfin CSUBF	0.148339
-2.09404	VLfin CSUBI	-0.8305705
-2.020004	VLfin CSUBX	-0.5851498
-3.426897	VLfin DASH	-0.6246381
-1.999933	VLfin DM	-0.2198832
-4.125866	VLfin DOTS	-0.04600382
-1.730525	VLfin FS	-0.2793398
-3.973542	VLfin LP	-0.1965234
-1.17324	VLfin NC	-0.440639
-2.395428	VLfin NEG	-0.3087006
-5.098481	VLfin NMEA	-0.1690665
-5.274572	VLfin NMON	-0.3321639
-2.554068	VLfin NP	-0.2712696
-4.955813	VLfin ORD	-0.09115869
-1.90372	VLfin PAL	-0.2030787
-2.225322	VLfin PDEL	-0.757158
-3.664444	VLfin PE	-0.7544526
-6.353753	VLfin PERCT
-4.700541	VLfin PPC	-0.58011
-1.867635	VLfin PPO	-0.1171362
-2.560102	VLfin PPX	-0.03184104
-0.6962155	VLfin PREP	-0.1668482
-3.476958	VLfin QT	-0.2588178
-1.682451	VLfin QU	-0.5125844
-3.701507	VLfin REL	-0.54461
-3.928872	VLfin RP	-0.7744798
-2.623052	VLfin SE	0.1270883
-3.363859	VLfin SEMICOLON	0.2606831
-5.442653	VLfin SLASH	-0.1825509
-5.756936	VLfin SYM
-2.261875	VLfin VCLIinf	-0.07652187
-3.959301	VLfin VEfin	-0.3284994
-3.447957	VLfin VEger	-0.6822551
-2.818459	VLfin VEinf	-0.298362
-4.54084	VLfin VHadj	0.4416462
-3.088935	VLfin VHfin	0.1323669
-3.683507	VLfin VHger	-0.4513875
-2.919025	VLfin VHinf	-0.1923864
-1.212818	VLfin VLadj	-0.9973495
-2.099181	VLfin VLfin	0.07199144
-2.189281	VLfin VLger	-1.432593
-0.940321	VLfin VLinf	-0.5866704
-3.042423	VLfin VMadj	-0.3558134
-3.134169	VLfin VMfin	-0.2966661
-5.399511	VLfin VMger	-0.5711834
-2.975355	VLfin VMinf	-0.6879503
-2.959827	VLfin VSadj	-0.1347291
-2.332523	VLfin VSfin	-0.03218484
-2.53718	VLfin VSger	0.1847107
-2.30718	VLfin VSinf	-0.05062032
-4.284972	VLger </s>
-3.989185	VLger ACRNM
-1.646982	VLger ADJ	-0.745921
-1.156573	VLger ADV	-0.3078485
-2.122109	VLger ALFS	-0.8635901
-0.6252933	VLger ART	-0.3817651
-2.103128	VLger CARD	-0.563019
-1.967954	VLger CC	-0.4212213
-3.989185	VLger CCAD	-0.3298712
-3.506821	VLger CCNEG	0.009624302
-1.55298	VLger CM	-0.7838652
-3.631759	VLger CODE	-0.8597806
-3.041934	VLger COLON	-0.3885264
-1.359144	VLger CQUE	-0.2168287
-3.080852	VLger CSUBF	-0.244687
-1.925136	VLger CSUBI	-0.9306157
-2.002803	VLger CSUBX	-0.5057001
-3.506821	VLger DASH	-0.2325601
-1.674844	VLger DM	-0.7125823
-3.989185	VLger DOTS	-0.07974076
-1.613799	VLger FS	-0.7177875
-3.674902	VLger LP
-0.9342394	VLger NC	-0.5547826
-2.878432	VLger NEG	-0.3931343
-4.586002	VLger NMEA
-2.489092	VLger NP	-0.2590311
-4.586002	VLger ORD
-2.140398	VLger PAL	-0.3740021
-2.129636	VLger PDEL	-0.3627746
-3.592301	VLger PE	-0.3030207
-1.676981	VLger PPO	-0.3580507
-2.830127	VLger PPX	0.1025563
-0.5799639	VLger PREP	-0.6791122
-3.592301	VLger QT	-0.3019121
-1.579108	VLger QU	-0.5853266
-3.983942	VLger REL	-0.9910105
-3.989185	VLger RP	-0.3890745
-3.307248	VLger SE	-0.9239165
-3.263783	VLger SEMICOLON	-0.1142742
-3.983942	VLger VCLIinf
-3.989185	VLger VEfin	-0.3390667
-3.989185	VLger VHfin	-0.06507289
-2.31416	VLger VLadj	-0.6912588
-2.231893	VLger VLfin	-0.3324529
-3.989185	VLger VLger	-0.2598605
-1.902955	VLger VLinf	-0.2250292
-4.586002	VLger VMadj
-3.586002	VLger VMfin	-0.9599706
-3.674902	VLger VMinf	-0.3532208
-1.61057	VLger VSadj	-0.7548128
-2.427639	VLger VSfin	-0.5978144
-3.171029	VLger VSinf	-0.2994171
-3.370525	VLinf </s>
-4.860952	VLinf ACRNM	-0.1973467
-1.720067	VLinf ADJ	-0.5267951
-1.238876	VLinf ADV	-0.02455115
-3.568696	VLinf ALFS	-1.401099
-0.5560063	VLinf ART	-0.5723729
-2.398354	VLinf CARD	-1.659682
-1.751823	VLinf CC	-1.077666
-3.635643	VLinf CCAD	-0.4246077
-3.095035	VLinf CCNEG	-0.4326559
-1.420473	VLinf CM	-0.2995775
-4.413794	VLinf CODE	-0.5141839
-2.795248	VLinf COLON	-0.1559706
-1.224792	VLinf CQUE	-0.4258451
-3.147181	VLinf CSUBF	-0.05465651
-2.255431	VLinf CSUBI	-0.08705187
-2.056994	VLinf CSUBX	-0.6009314
-3.29985	VLinf DASH	-0.6236751
-1.5206	VLinf DM	-0.09954953
-4.266191	VLinf DOTS	-0.3973111
-1.593076	VLinf FS	-0.8149049
-4.041408	VLinf LP	0.02162141
-0.9785981	VLinf NC	-0.66236
-2.948553	VLinf NEG	0.02044058
-4.251713	VLinf NMEA	-0.7377107
-2.337812	VLinf NP	-0.7132783
-5.434983	VLinf ORD	-0.2254223
-1.767413	VLinf PAL	-1.044252
-2.482433	VLinf PDEL	-0.6150687
-3.564286	VLinf PE	-0.7760596
-2.419309	VLinf PPC	-1.510762
-1.518634	VLinf PPO	-0.8531239
-2.097424	VLinf PPX	-0.7382185
-0.684224	VLinf PREP	-0.3023252
-3.457259	VLinf QT	-0.3119469
-1.566706	VLinf QU	0.009705067
-4.204534	VLinf REL	-0.6215711
-4.29668	VLinf RP	-0.5663698
-3.22213	VLinf SE	0.3636773
-3.271374	VLinf SEMICOLON	0.3348063
-5.037043	VLinf SLASH	-1.013949
-5.736013	VLinf SYM	-0.9220302
-3.87868	VLinf VCLIinf	-0.17377
-4.355802	VLinf VEfin	0.2684962
-4.133953	VLinf VEger	-0.4902087
-4.445979	VLinf VEinf	0.1096542
-5.133953	VLinf VHadj	-0.306777
-3.983965	VLinf VHfin	-0.277582
-5.125943	VLinf VHger	-0.1259501
-4.32104	VLinf VHinf	-0.4757231
-1.72769	VLinf VLadj	-1.135964
-2.516298	VLinf VLfin	-0.4180278
-2.623743	VLinf VLger	-0.9910117
-1.884418	VLinf VLinf	-0.5948777
-6.037043	VLinf VMadj
-3.456118	VLinf VMfin	0.280858
-4.531893	VLinf VMinf	-0.8115351
-5.434983	VLinf VSadj	-0.1685688
-2.502763	VLinf VSfin	-0.2917334
-3.063453	VLinf VSger	-0.2009838
-4.832923	VLinf VSinf	-0.5779695
-2.792879	VMadj ADJ
-2.272615	VMadj ADV	-0.6843295
-2.590035	VMadj ART	-0.8787943
-2.361556	VMadj CC	-0.4949337
-3.402949	VMadj CCAD	-0.9596899
-3.402949	VMadj CCNEG
-1.884435	VMadj CM	-0.4002433
-3.703979	VMadj CSUBF
-2.499859	VMadj CSUBI	-0.2778336
-3.402949	VMadj CSUBX
-3.101919	VMadj DM	0.2259972
-2.306039	VMadj FS	-0.005727053
-2.005009	VMadj NC	-0.5766544
-3.107162	VMadj NP	-0.3911768
-3.402949	VMadj PPC	-0.1435505
-3.402949	VMadj PPO	-0.1042745
-2.448706	VMadj PPX	-0.9502204
-2.041221	VMadj PREP	-0.05447614
-3.703979	VMadj SEMICOLON
-1.37154	VMadj VCLIinf	-0.348654
-1.87147	VMadj VEinf	-0.3777344
-2.800889	VMadj VHinf	-0.06659675
-2.710278	VMadj VLadj	-0.3789714
-2.241581	VMadj VLfin	-0.4267713
-3.703979	VMadj VLger
-0.07528345	VMadj VLinf	-0.3012884
-3.703979	VMadj VMinf
-1.494464	VMadj VSinf	-0.252409
-3.275814	VMfin ADJ	-0.4379773
-2.171522	VMfin ADV	-1.087108
-2.529053	VMfin ART	-1.137281
-3.687257	VMfin CARD	-0.731652
-2.35535	VMfin CC	-1.409627
-2.981483	VMfin CCAD	-1.517539
-3.004589	VMfin CCNEG	-1.539648
-2.183179	VMfin CM	-0.8146216
-4.96601	VMfin COLON
-2.16736	VMfin CQUE	-0.33295
-3.440965	VMfin CSUBF	-0.9645215
-3.8691	VMfin CSUBI	-0.4623581
-4.26704	VMfin CSUBX	-0.08293167
-4.153097	VMfin DASH	-0.3519174
-3.687257	VMfin DM	0.0230912
-4.670223	VMfin DOTS	-0.07974076
-3.149769	VMfin FS	-0.7782712
-4.670223	VMfin LP
-3.633572	VMfin NC	-0.1490034
-3.004589	VMfin NEG	-1.008246
-3.722972	VMfin NP	-0.4047281
-3.085197	VMfin PAL	-0.9334706
-4.35594	VMfin PDEL	-0.7212355
-5.26704	VMfin PE
-4.96601	VMfin PPC	-0.9676534
-3.988287	VMfin PPO	-1.044014
-2.56894	VMfin PPX	-1.154136
-2.603339	VMfin PREP	-0.45681
-3.988287	VMfin QT	-0.3444855
-3.66498	VMfin QU	-0.2784482
-5.26704	VMfin REL
-4.96601	VMfin RP
-4.06292	VMfin SE	-0.2650297
-4.670223	VMfin SEMICOLON
-0.9132586	VMfin VCLIinf	-0.498106
-1.763386	VMfin VEinf	-0.1659029
-4.670223	VMfin VHfin
-1.948768	VMfin VHinf	-0.4930989
-4.96601	VMfin VLadj
-3.011768	VMfin VLfin	-0.2362796
-0.1588508	VMfin VLinf	-0.3546336
-4.187859	VMfin VMfin	-0.1208296
-2.319607	VMfin VMinf	-1.280357
-4.225647	VMfin VSfin	-0.3170633
-0.9587961	VMfin VSinf	-0.152261
-1.411783	VMger ADV	-0.6437369
-1.411783	VMger ART
-1.411783	VMger CM	-0.6066824
-1.40654	VMger DM	-0.2308004
-2.0086	VMger NC
-0.8946568	VMger VCLIinf	-0.192587
-2.0086	VMger VEinf
-2.0086	VMger VHinf
-1.70757	VMger VLfin	-0.9149707
-0.2024202	VMger VLinf	-0.2772727
-1.40654	VMger VSinf	-0.1165962
-1.536268	VMinf ADJ	-0.4804169
-2.401569	VMinf ADV	-0.4739985
-2.747412	VMinf ART	0.03638989
-1.878691	VMinf CC	-0.2731814
-4.109139	VMinf CCAD
-3.115439	VMinf CCNEG	-0.1874069
-1.682628	VMinf CM	-0.2728627
-3.115439	VMinf COLON	-0.1616357
-2.309799	VMinf CQUE	-0.1494752
-3.19804	VMinf CSUBF	-0.2254676
-1.544474	VMinf CSUBI	-1.521218
-2.446382	VMinf CSUBX	-0.2534708
-3.19804	VMinf DASH	-0.2349269
-4.109139	VMinf DM
-3.80811	VMinf DOTS
-1.747412	VMinf FS	-0.5525459
-2.376746	VMinf NC	-0.3522048
-3.029958	VMinf NEG	-0.06398204
-3.80811	VMinf NP
-2.963012	VMinf PAL	0.3309191
-2.20605	VMinf PDEL	0.04124701
-3.50708	VMinf PE	-1.022912
-3.512323	VMinf PPC	0.1757683
-3.20605	VMinf PPX	-0.4585926
-1.06031	VMinf PREP	-0.7891321
-3.19804	VMinf QT	-0.648308
-3.19804	VMinf QU	-0.1660754
-3.512323	VMinf SE	0.2208345
-3.50708	VMinf SEMICOLON	-0.2044449
-1.505995	VMinf VCLIinf	0.2845534
-3.512323	VMinf VEfin	-0.367008
-2.122368	VMinf VEinf	-0.0805372
-3.115439	VMinf VHfin	-0.2615945
-3.50708	VMinf VHinf	0.04163986
-2.632018	VMinf VLadj	-0.3309383
-2.60399	VMinf VLfin	0.07862172
-3.19804	VMinf VLger	-0.1380235
-0.1515802	VMinf VLinf	-0.4508858
-3.512323	VMinf VMfin	0.1213803
-3.80811	VMinf VMinf	-0.4371656
-2.289596	VMinf VSfin	-0.7228001
-1.861166	VMinf VSinf	-0.07855284
-0.831102	VSadj ADJ	-1.020245
-0.9267011	VSadj ADV	-1.406561
-0.7968203	VSadj ART	-0.7938833
-2.276974	VSadj CARD	-1.276755
-2.047992	VSadj CC	-0.5791801
-3.870813	VSadj CCAD	-0.1940682
-3.010475	VSadj CCNEG	-0.2658496
-1.683998	VSadj CM	-0.400364
-3.472873	VSadj CODE	-0.1908273
-3.242424	VSadj COLON	-0.3267257
-2.201032	VSadj CQUE	-0.06140673
-3.35893	VSadj CSUBF	-0.08478627
-2.89309	VSadj CSUBI	-0.6384493
-2.904672	VSadj CSUBX	-0.4909579
-3.479173	VSadj DASH	-0.1088159
-2.724685	VSadj DM	0.01288772
-4.171844	VSadj DOTS	-0.6552143
-2.136414	VSadj FS	-0.7087499
-1.186417	VSadj NC	-0.5866909
-3.074933	VSadj NEG	-0.06311747
-2.89309	VSadj NP	-0.2068005
-4.472873	VSadj ORD
-3.569783	VSadj PAL	-0.06432742
-2.86009	VSadj PDEL	-0.8572271
-3.870813	VSadj PE	-0.3700662
-3.0579	VSadj PPC	-0.6070189
-2.266047	VSadj PPO	-0.2609833
-2.553795	VSadj PPX	-0.342967
-1.512879	VSadj PREP	-0.6817702
-3.569783	VSadj QT	-0.009606004
-2.0732	VSadj QU	-0.5008097
-3.569783	VSadj REL	-0.5870521
-3.561773	VSadj RP	-0.2356215
-3.431481	VSadj SE	-0.6865557
-3.561773	VSadj SEMICOLON
-3.431481	VSadj SLASH	-1.00142
-4.472873	VSadj VCLIinf
-3.479173	VSadj VHfin	-0.09450209
-4.472873	VSadj VHinf
-0.416693	VSadj VLadj	-0.9663651
-2.242424	VSadj VLfin	-0.1720154
-4.472873	VSadj VLger
-2.054572	VSadj VLinf	-0.2377809
-3.569783	VSadj VMfin	0.1604382
-4.171844	VSadj VMinf	-0.4371656
-2.995752	VSadj VSfin	-0.4127868
-4.171844	VSadj VSinf
-4.967916	VSfin ACRNM	-0.3333156
-0.5294759	VSfin ADJ	-1.461391
-0.9340515	VSfin ADV	-1.166347
-4.653633	VSfin ALFS	-0.5337622
-0.5449569	VSfin ART	-0.4215546
-2.110651	VSfin CARD	-1.555514
-2.779404	VSfin CC	-0.8513505
-3.339424	VSfin CCAD	-1.106949
-3.097866	VSfin CCNEG	-0.7070472
-1.657537	VSfin CM	-1.099136
-4.653633	VSfin CODE	-0.2304315
-2.640454	VSfin COLON	-0.9467489
-1.359015	VSfin CQUE	-0.6989586
-3.180918	VSfin CSUBF	-0.4385317
-2.357908	VSfin CSUBI	-0.9893126
-2.337876	VSfin CSUBX	-0.4066756
-3.824371	VSfin DASH	-0.1765974
-2.3402	VSfin DM	-1.020165
-4.661644	VSfin DOTS	-0.2893791
-2.690832	VSfin FS	-0.238494
-4.786582	VSfin LP
-1.248029	VSfin NC	-1.061064
-3.224289	VSfin NEG	-0.4452403
-4.967916	VSfin NMEA	-0.377682
-4.571033	VSfin NMON	-0.1395949
-2.643568	VSfin NP	-0.8661243
-4.360613	VSfin ORD	-0.306106
-3.523341	VSfin PAL	-1.082164
-2.722124	VSfin PDEL	-0.7770096
-4.334285	VSfin PE	-0.283639
-2.181277	VSfin PPO	-0.6213706
-2.291732	VSfin PPX	-1.537164
-1.466609	VSfin PREP	-0.9936428
-3.478374	VSfin QT	-0.8052749
-1.672027	VSfin QU	-1.01083
-2.858016	VSfin REL	-0.6436256
-3.45079	VSfin RP	-1.25511
-4.610491	VSfin SE	0.3166333
-4.166793	VSfin SEMICOLON	-0.1117657
-3.556133	VSfin VCLIinf	-0.1533229
-4.203006	VSfin VEinf	0.5543625
-4.967916	VSfin VHfin
-4.166793	VSfin VHinf	-0.9779493
-1.302852	VSfin VLadj	-0.7478242
-2.935324	VSfin VLfin	-0.5561711
-3.765393	VSfin VLger	-0.368104
-1.602601	VSfin VLinf	-0.9647317
-5.263703	VSfin VMfin	-0.4540932
-3.656249	VSfin VMinf	-0.8505533
-5.564734	VSfin VSadj
-4.571033	VSfin VSfin	-0.1806743
-5.263703	VSfin VSger	-0.8520512
-4.334285	VSfin VSinf	-0.5061013
-0.6305459	VSger ADJ	-0.7455195
-0.9856548	VSger ADV	-1.267043
-3.328856	VSger ALFS
-0.5572001	VSger ART	-0.4808002
-2.074415	VSger CARD	-0.9332624
-3.014573	VSger CC	-0.1577394
-3.925673	VSger CCNEG
-1.60761	VSger CM	-1.122473
-3.323613	VSger CODE	-0.1359318
-2.88428	VSger COLON	-0.4749896
-2.312889	VSger CQUE	-0.1765073
-3.624643	VSger CSUBF
-3.014573	VSger CSUBI	0.2164988
-2.646919	VSger CSUBX	-0.2801083
-3.328856	VSger DASH
-2.27246	VSger DM	-0.3647776
-3.925673	VSger DOTS
-2.262915	VSger FS	-0.5809149
-0.9265425	VSger NC	-0.7689214
-2.971431	VSger NEG	-0.2354108
-3.925673	VSger NMON
-2.545462	VSger NP	-0.7350318
-3.925673	VSger ORD
-3.925673	VSger PAL
-2.721553	VSger PDEL	-0.3650669
-3.624643	VSger PE
-2.931972	VSger PPC	0.3850877
-1.98119	VSger PPO	-0.1235025
-2.334608	VSger PPX	-0.5668877
-1.531221	VSger PREP	-0.504846
-3.624643	VSger QT
-1.861215	VSger QU	-0.4815709
-3.323613	VSger REL	-0.9881909
-3.925673	VSger VCLIinf
-0.8850707	VSger VLadj	-1.038231
-2.006595	VSger VLfin	-0.4530792
-2.420523	VSger VLinf	-0.132414
-4.658154	VSinf ACRNM
-0.6188594	VSinf ADJ	-0.7215533
-1.095386	VSinf ADV	-1.505746
-4.056095	VSinf ALFS	-0.3274336
-0.6942251	VSinf ART	-0.7090425
-2.422626	VSinf CARD	-1.130578
-2.744341	VSinf CC	-0.5584546
-3.181033	VSinf CCAD	-0.8187982
-3.195756	VSinf CCNEG	-0.4790136
-1.797218	VSinf CM	-0.8326169
-3.664454	VSinf CODE	-0.2080875
-3.06709	VSinf COLON	-0.1190343
-1.598213	VSinf CQUE	-0.6382393
-3.578973	VSinf CSUBF	-0.2538128
-3.703912	VSinf CSUBI	0.6559925
-2.894727	VSinf CSUBX	-0.1528853
-3.578973	VSinf DASH	0.01459581
-2.547565	VSinf DM	-0.3986551
-4.658154	VSinf DOTS
-2.315732	VSinf FS	-0.7232945
-4.658154	VSinf LP
-1.096934	VSinf NC	-0.7854978
-3.153005	VSinf NEG	-0.6147766
-2.909966	VSinf NP	-0.3461121
-3.747054	VSinf ORD	0.3133346
-3.544211	VSinf PAL	-1.122435
-3.024686	VSinf PDEL	-0.630278
-3.747054	VSinf PE	-0.8756658
-4.061337	VSinf PPC	0.1757683
-2.091128	VSinf PPO	-0.9372609
-2.718635	VSinf PPX	-0.6179608
-1.634491	VSinf PREP	-0.8602401
-3.210997	VSinf QT	-0.5567508
-1.975108	VSinf QU	-0.7669073
-3.578973	VSinf REL	-0.4292861
-4.061337	VSinf SEMICOLON
-4.061337	VSinf VCLIinf
-4.658154	VSinf VEfin
-4.357124	VSinf VHfin	-0.3843917
-0.5597185	VSinf VLadj	-0.5670898
-2.666929	VSinf VLfin	-0.1372641
-4.658154	VSinf VLger
-1.949734	VSinf VLinf	-0.2590991
-4.658154	VSinf VMinf
-3.357125	VSinf VSfin	-0.7006973
-4.658154	VSinf VSger
-4.658154	VSinf VSinf

\3-grams:
-2.907712	<s> ACRNM COLON
-2.080085	<s> ACRNM FS
-2.510506	<s> ACRNM PPC
-0.04498903	<s> ACRNM PPO
-1.083719	<s> ACRNM SLASH
-1.210844	ACRNM ACRNM ADJ
-0.8242244	ACRNM ACRNM CC
-0.8136379	ACRNM ACRNM CM
-1.095755	ACRNM ACRNM FS
-1.210844	ACRNM ACRNM PREP
-1.210844	ACRNM ACRNM SE
-0.8943183	ACRNM ACRNM VLfin
-1.868331	ADJ ACRNM ADJ
-1.868331	ADJ ACRNM ADV
-1.728354	ADJ ACRNM ART
-2.254951	ADJ ACRNM CARD
-1.144777	ADJ ACRNM CC
-2.254951	ADJ ACRNM CCAD
-2.254951	ADJ ACRNM CCNEG
-0.8344072	ADJ ACRNM CM
-1.603415	ADJ ACRNM CQUE
-1.938425	ADJ ACRNM CSUBI
-1.938425	ADJ ACRNM CSUBX
-0.6552467	ADJ ACRNM FS
-1.857745	ADJ ACRNM LP
-1.868331	ADJ ACRNM NEG
-2.139862	ADJ ACRNM PAL
-1.938425	ADJ ACRNM PPC
-2.254951	ADJ ACRNM PPO
-0.9154404	ADJ ACRNM PREP
-1.728354	ADJ ACRNM SE
-1.227751	ADJ ACRNM SLASH
-2.139862	ADJ ACRNM VHfin
-1.857745	ADJ ACRNM VLadj
-0.9879911	ADJ ACRNM VLfin
-1.868331	ADJ ACRNM VMfin
-1.938425	ADJ ACRNM VSfin
-0.8283611	ADV ACRNM CC
-0.39794	ADV ACRNM CM
-1.225567	ADV ACRNM CQUE
-0.69897	ADV ACRNM FS
-2.947275	ART ACRNM </s>
-3.515476	ART ACRNM ACRNM
-1.87599	ART ACRNM ADJ
-1.771183	ART ACRNM ADV
-1.987846	ART ACRNM ART
-3.038355	ART ACRNM CARD
-1	ART ACRNM CC
-2.902693	ART ACRNM CCAD
-2.816506	ART ACRNM CCNEG
-0.8349596	ART ACRNM CM
-3.947397	ART ACRNM CODE
-2.634663	ART ACRNM COLON
-1.67852	ART ACRNM CQUE
-2.902693	ART ACRNM CSUBF
-1.813046	ART ACRNM CSUBI
-1.867116	ART ACRNM CSUBX
-2.902693	ART ACRNM DASH
-3.339385	ART ACRNM DM
-3.612386	ART ACRNM DOTS
-0.6613526	ART ACRNM FS
-2.799473	ART ACRNM LP
-2.161368	ART ACRNM NC
-1.586569	ART ACRNM NEG
-3.024115	ART ACRNM NP
-2.502639	ART ACRNM PAL
-2.546993	ART ACRNM PDEL
-4.148833	ART ACRNM PE
-2.591197	ART ACRNM PPC
-3.474084	ART ACRNM PPO
-2.959174	ART ACRNM PPX
-0.8616853	ART ACRNM PREP
-3.153749	ART ACRNM QT
-3.053078	ART ACRNM QU
-3.401533	ART ACRNM REL
-3.117537	ART ACRNM RP
-1.569516	ART ACRNM SE
-2.528705	ART ACRNM SEMICOLON
-3.737325	ART ACRNM SLASH
-3.877303	ART ACRNM VCLIinf
-3.311357	ART ACRNM VEfin
-1.721686	ART ACRNM VHfin
-1.954375	ART ACRNM VLadj
-0.9005792	ART ACRNM VLfin
-3.474084	ART ACRNM VLger
-2.375597	ART ACRNM VLinf
-1.487719	ART ACRNM VMfin
-1.600077	ART ACRNM VSfin
-0.980256	CARD ACRNM ADJ
-1.296325	CARD ACRNM CC
-1.031408	CARD ACRNM CM
-1.567855	CARD ACRNM CSUBX
-0.980256	CARD ACRNM FS
-1.567855	CARD ACRNM LP
-1.567855	CARD ACRNM NEG
-1.567855	CARD ACRNM PDEL
-0.7303784	CARD ACRNM PREP
-0.980256	CARD ACRNM SLASH
-1.366419	CARD ACRNM VLadj
-1.296325	CARD ACRNM VLfin
-1.495365	CC ACRNM ADJ
-1.355388	CC ACRNM ADV
-1.565459	CC ACRNM CARD
-1.355388	CC ACRNM CC
-1.092146	CC ACRNM CM
-1.565459	CC ACRNM CQUE
-1.766896	CC ACRNM CSUBI
-0.3776641	CC ACRNM FS
-1.484779	CC ACRNM LP
-1.019596	CC ACRNM PREP
-1.766896	CC ACRNM SLASH
-1.881985	CC ACRNM VLadj
-1.881985	CC ACRNM VLfin
-1.881985	CC ACRNM VMfin
-1.766896	CC ACRNM VSfin
-0.3505057	CCNEG ACRNM CCNEG
-1.705239	CM ACRNM ADJ
-1.705239	CM ACRNM CARD
-0.673942	CM ACRNM CC
-0.5404031	CM ACRNM CM
-0.673942	CM ACRNM FS
-1.168792	CM ACRNM LP
-1.820328	CM ACRNM PDEL
-1.705239	CM ACRNM PREP
-1.11764	CM ACRNM SLASH
-1.705239	CM ACRNM VLfin
-0.526597	COLON ACRNM CM
-1.420544	CQUE ACRNM ACRNM
-0.1157954	CQUE ACRNM FS
-1.305455	CQUE ACRNM SE
-0.2354169	CSUBI ACRNM FS
-0.8242244	CSUBX ACRNM CC
-0.31627	CSUBX ACRNM FS
-1.210844	CSUBX ACRNM PREP
-2.149846	DASH ACRNM COLON
-2.149846	DASH ACRNM FS
-0.9700368	DASH ACRNM LP
-2.149846	DASH ACRNM PPC
-0.06694679	DASH ACRNM SLASH
-1.180108	DM ACRNM ADV
-1.496634	DM ACRNM ART
-1.496634	DM ACRNM CC
-1.099428	DM ACRNM CM
-1.180108	DM ACRNM CQUE
-0.9700368	DM ACRNM FS
-1.496634	DM ACRNM NEG
-1.496634	DM ACRNM PPC
-1.381545	DM ACRNM PPO
-1.180108	DM ACRNM PREP
-1.496634	DM ACRNM SE
-1.496634	DM ACRNM VHfin
-1.180108	DM ACRNM VLadj
-1.099428	DM ACRNM VLfin
-1.496634	DM ACRNM VSfin
-2.862055	FS ACRNM ADJ
-2.335458	FS ACRNM ADV
-2.862055	FS ACRNM ART
-1.480141	FS ACRNM CC
-1.557307	FS ACRNM CM
-2.862055	FS ACRNM CQUE
-2.862055	FS ACRNM CSUBF
-2.862055	FS ACRNM CSUBI
-0.06555597	FS ACRNM FS
-2.034428	FS ACRNM NEG
-2.862055	FS ACRNM PDEL
-1.812579	FS ACRNM PREP
-2.545529	FS ACRNM SE
-2.862055	FS ACRNM SEMICOLON
-2.862055	FS ACRNM SLASH
-2.335458	FS ACRNM VHfin
-2.862055	FS ACRNM VLadj
-1.771186	FS ACRNM VLfin
-2.545529	FS ACRNM VMfin
-2.746966	FS ACRNM VSfin
-2.640813	LP ACRNM CARD
-2.850884	LP ACRNM CM
-3.16741	LP ACRNM FS
-0.1610454	LP ACRNM LP
-1.042387	LP ACRNM RP
-0.671552	LP ACRNM SLASH
-1.310575	NC ACRNM ADJ
-2.103765	NC ACRNM ADV
-2.490385	NC ACRNM ART
-1.223425	NC ACRNM CARD
-1.361728	NC ACRNM CC
-0.9495474	NC ACRNM CM
-1.787697	NC ACRNM CODE
-1.662758	NC ACRNM CQUE
-2.490385	NC ACRNM CSUBF
-2.375296	NC ACRNM CSUBI
-2.375296	NC ACRNM CSUBX
-1.963788	NC ACRNM DASH
-0.9495474	NC ACRNM FS
-1.627996	NC ACRNM LP
-2.173859	NC ACRNM NC
-2.093179	NC ACRNM NEG
-1.963788	NC ACRNM PAL
-1.838849	NC ACRNM PDEL
-2.490385	NC ACRNM PPC
-1.236789	NC ACRNM PREP
-1.700546	NC ACRNM QT
-1.963788	NC ACRNM SE
-0.5324241	NC ACRNM SLASH
-2.490385	NC ACRNM VHfin
-1.838849	NC ACRNM VLadj
-1.264818	NC ACRNM VLfin
-2.490385	NC ACRNM VMfin
-2.173859	NC ACRNM VSfin
-1.969066	NP ACRNM ADJ
-1.303955	NP ACRNM ADV
-2.921632	NP ACRNM ART
-1.248907	NP ACRNM CC
-1.360273	NP ACRNM CM
-2.270096	NP ACRNM FS
-2.605107	NP ACRNM LP
-2.173186	NP ACRNM NC
-0.9636713	NP ACRNM NEG
-2.605107	NP ACRNM NP
-2.395035	NP ACRNM PPC
-2.921632	NP ACRNM PPO
-1.917914	NP ACRNM PREP
-1.432824	NP ACRNM SE
-2.094005	NP ACRNM SLASH
-1.079765	NP ACRNM VHfin
-2.094005	NP ACRNM VLadj
-0.4742163	NP ACRNM VLfin
-0.7649463	NP ACRNM VMfin
-1.328088	NP ACRNM VSfin
-1.76788	PAL ACRNM ADJ
-2.165086	PAL ACRNM ADV
-1.462398	PAL ACRNM ART
-2.049998	PAL ACRNM CARD
-0.9852768	PAL ACRNM CC
-0.7731878	PAL ACRNM CM
-1.270512	PAL ACRNM CQUE
-1.848561	PAL ACRNM CSUBI
-1.76788	PAL ACRNM CSUBX
-0.860338	PAL ACRNM FS
-1.848561	PAL ACRNM NC
-2.049998	PAL ACRNM NEG
-2.165086	PAL ACRNM PAL
-1.848561	PAL ACRNM PDEL
-0.6384892	PAL ACRNM PREP
-2.165086	PAL ACRNM SE
-2.165086	PAL ACRNM SEMICOLON
-2.165086	PAL ACRNM VHfin
-2.165086	PAL ACRNM VLadj
-1.76788	PAL ACRNM VLfin
-1.778467	PAL ACRNM VLinf
-1.638489	PAL ACRNM VSfin
-1.260495	PDEL ACRNM ADJ
-2.011493	PDEL ACRNM ADV
-2.353916	PDEL ACRNM ART
-2.312524	PDEL ACRNM CARD
-1.066115	PDEL ACRNM CC
-3.102362	PDEL ACRNM CCAD
-2.785836	PDEL ACRNM CCNEG
-0.7275758	PDEL ACRNM CM
-2.987273	PDEL ACRNM CODE
-2.785836	PDEL ACRNM COLON
-1.720448	PDEL ACRNM CQUE
-3.102362	PDEL ACRNM CSUBF
-1.922552	PDEL ACRNM CSUBI
-2.011493	PDEL ACRNM CSUBX
-2.785836	PDEL ACRNM DASH
-3.102362	PDEL ACRNM DM
-0.75842	PDEL ACRNM FS
-2.239973	PDEL ACRNM LP
-1.691158	PDEL ACRNM NC
-1.741132	PDEL ACRNM NEG
-2.987273	PDEL ACRNM NP
-2.239973	PDEL ACRNM PAL
-2.207788	PDEL ACRNM PDEL
-2.785836	PDEL ACRNM PPC
-2.715743	PDEL ACRNM PPX
-0.6296403	PDEL ACRNM PREP
-3.102362	PDEL ACRNM QT
-2.987273	PDEL ACRNM RP
-1.906758	PDEL ACRNM SE
-2.450826	PDEL ACRNM SEMICOLON
-2.785836	PDEL ACRNM SLASH
-3.102362	PDEL ACRNM VEfin
-2.177825	PDEL ACRNM VHfin
-1.590488	PDEL ACRNM VLadj
-1.257006	PDEL ACRNM VLfin
-1.992188	PDEL ACRNM VMfin
-1.906758	PDEL ACRNM VSfin
-1.018885	PPO ACRNM ADJ
-1.606485	PPO ACRNM CC
-0.7970366	PPO ACRNM CM
-1.721574	PPO ACRNM CQUE
-0.7690079	PPO ACRNM FS
-1.721574	PPO ACRNM NEG
-1.721574	PPO ACRNM PPC
-0.4817662	PPO ACRNM PREP
-1.606485	PPO ACRNM SE
-1.721574	PPO ACRNM VLfin
-0.478455	PPX ACRNM FS
-0.5935438	PPX ACRNM PREP
-2.045584	PREP ACRNM ACRNM
-1.318585	PREP ACRNM ADJ
-1.774517	PREP ACRNM ADV
-2.572915	PREP ACRNM ART
-2.653595	PREP ACRNM CARD
-1.069387	PREP ACRNM CC
-2.970121	PREP ACRNM CCNEG
-0.8637401	PREP ACRNM CM
-2.572915	PREP ACRNM COLON
-1.608891	PREP ACRNM CQUE
-2.267432	PREP ACRNM CSUBI
-2.180282	PREP ACRNM CSUBX
-0.5115576	PREP ACRNM FS
-2.970121	PREP ACRNM LP
-1.920645	PREP ACRNM NC
-1.942921	PREP ACRNM NEG
-2.970121	PREP ACRNM NP
-2.443524	PREP ACRNM PAL
-1.942921	PREP ACRNM PDEL
-2.970121	PREP ACRNM PPX
-0.7431085	PREP ACRNM PREP
-2.970121	PREP ACRNM QU
-2.970121	PREP ACRNM RP
-2.017555	PREP ACRNM SE
-2.653595	PREP ACRNM SEMICOLON
-2.572915	PREP ACRNM VHfin
-1.307861	PREP ACRNM VLadj
-1.481312	PREP ACRNM VLfin
-2.572915	PREP ACRNM VMfin
-1.859947	PREP ACRNM VSfin
-0.1308903	QT ACRNM QT
-1.101622	QU ACRNM ADJ
-1.364864	QU ACRNM ADV
-0.8877423	QU ACRNM CC
-0.7628036	QU ACRNM CM
-1.029071	QU ACRNM CQUE
-1.891461	QU ACRNM CSUBX
-0.9669235	QU ACRNM FS
-1.574935	QU ACRNM NC
-1.364864	QU ACRNM PPC
-0.8419848	QU ACRNM PREP
-1.776372	QU ACRNM SE
-1.891461	QU ACRNM SEMICOLON
-1.891461	QU ACRNM VHfin
-1.891461	QU ACRNM VLadj
-1.239925	QU ACRNM VLfin
-0.924537	REL ACRNM SE
-0.39794	REL ACRNM VSfin
-0.2354169	RP ACRNM LP
-0.04575749	SEMICOLON ACRNM SLASH
-1.692928	SLASH ACRNM CC
-0.90309	SLASH ACRNM CM
-1.692928	SLASH ACRNM DASH
-0.4973246	SLASH ACRNM FS
-1.692928	SLASH ACRNM LP
-1.692928	SLASH ACRNM NEG
-0.7983546	SLASH ACRNM PREP
-1.692928	SLASH ACRNM RP
-1.57784	SLASH ACRNM SE
-1.295722	SLASH ACRNM SLASH
-0.9444827	SLASH ACRNM VLfin
-0.3323269	SYM ACRNM LP
-0.8121316	VLadj ACRNM ADJ
-0.8121316	VLadj ACRNM CARD
-1.128657	VLadj ACRNM CC
-1.128657	VLadj ACRNM CM
-0.7420376	VLadj ACRNM FS
-1.128657	VLadj ACRNM SLASH
-0.9090416	VLfin ACRNM ADV
-0.69897	VLfin ACRNM CC
