
\data\
ngram 1=47
ngram 2=1461
ngram 3=13652
ngram 4=56445

\1-grams:
-5.47428	#	-0.772791
-3.217562	$	-2.861841
-3.225326	''	-1.857281
-1.286117	,	-3.87043
-2.709805	-LRB-	-3.152985
-2.709357	-RRB-	-2.126832
-1.410549	.	-3.055489
-2.427551	:	-2.405673
-1.423861	</s>
-99	<s>	-3.382885
-1.489195	CC	-2.212555
-1.911274	CD	-1.776819
-1.050631	DT	-0.8264809
-2.82339	EX	-3.372086
-3.516194	FW	-1.473546
-0.9577418	IN	-2.680506
-1.04465	JJ	-0.8150816
-2.36558	JJR	-2.534786
-2.694251	JJS	-2.503644
-4.395099	LS	-1.66977
-1.834734	MD	-3.283695
-0.8678985	NN	-1.33914
-1.271383	NNP	-0.7991824
-2.586888	NNPS	-2.801674
-1.193829	NNS	-0.6520033
-3.226306	PDT	-2.90231
-2.791413	POS	-3.358068
-1.794198	PRP	-2.224958
-2.013803	PRP$	-4.000181
-1.371681	RB	-1.247061
-2.591983	RBR	-2.717959
-3.06604	RBS	-3.201734
-2.695116	RP	-2.321055
-5.47428	SYM	-0.68331
-1.600982	TO	-4.003781
-4.214209	UH	-1.764344
-1.463666	VB	-1.165431
-1.808605	VBD	-2.965611
-1.758912	VBG	-2.191897
-1.667029	VBN	-1.826614
-1.778168	VBP	-1.949061
-1.514295	VBZ	-2.500145
-2.19361	WDT	-2.736356
-2.589598	WP	-3.081277
-3.653422	WP$	-2.135723
-2.478557	WRB	-2.390656
-3.227289	``	-2.533525

\2-grams:
-0.07918125	# CD	-0.7855856
-2.956168	$ :
-0.002892094	$ CD	-0.7747809
-2.655138	$ DT
-2.655138	$ JJ	-0.719175
-2.348305	'' ,
-1.719916	'' -LRB-	-0.1643468
-2.047275	'' -RRB-	-0.06581575
-1.804237	'' .	0.2019639
-1.3593	'' :	-0.1445273
-0.6603302	'' </s>
-1.179513	'' CC	-0.05350417
-2.649335	'' CD
-1.503207	'' DT	0.1145044
-2.950365	'' FW
-0.8232601	'' IN	0.1991954
-1.695092	'' JJ	0.06350088
-1.719916	'' MD	-0.06928003
-1.063874	'' NN	-0.02842289
-1.607942	'' NNP	0.05877295
-1.406297	'' NNS	-0.2716433
-1.871184	'' PRP	-0.4353098
-2.344538	'' PRP$	-0.1195022
-1.695092	'' RB	-0.07742453
-2.950365	'' RBR
-1.628146	'' TO	0.1126809
-2.009889	'' VB	-0.1307765
-1.503207	'' VBD	0.05207643
-1.908972	'' VBG	-0.1793282
-1.774274	'' VBN	-0.389244
-2.251395	'' VBP
-1.242795	'' VBZ	-0.1971936
-1.473244	'' WDT	-0.3209965
-2.348305	'' WP	-0.1217516
-2.344538	'' WRB	-0.2672795
-1.996122	'' ``	-0.2640393
-3.887139	, $	1.136624
-2.763287	, ''	-0.7500035
-3.887139	, -LRB-	-0.1427495
-4.586109	, :
-3.741011	, </s>
-0.7491837	, CC	-0.02633119
-2.005184	, CD	-0.3491119
-0.8943204	, DT	-0.2347949
-2.116287	, EX	-1.677064
-3.087798	, FW	-0.6235102
-0.8979116	, IN	-0.7273848
-1.21237	, JJ	-0.8096144
-2.467183	, JJR	-0.5822039
-2.683019	, JJS	-0.6757718
-1.903513	, MD	-0.3366026
-1.318702	, NN	-0.4532993
-1.118945	, NNP	-0.7570015
-2.606106	, NNPS	-0.7369254
-1.577722	, NNS	-0.5934805
-3.138951	, PDT	-0.0125612
-1.300327	, PRP	-1.531468
-2.209532	, PRP$	0.1446719
-1.094467	, RB	0.4297204
-2.793717	, RBR	-0.4486284
-3.131264	, RBS	-0.3503621
-2.109712	, TO	-0.2186065
-3.711048	, UH	-0.3886994
-2.16698	, VB	-0.508268
-1.775205	, VBD	-0.1177217
-1.374721	, VBG	-0.2112646
-1.792668	, VBN	-0.5478988
-1.870106	, VBP	-0.4343621
-1.640394	, VBZ	-0.6873279
-1.550879	, WDT	-0.7106562
-2.191657	, WP	-0.7515098
-2.711048	, WP$	0.1850578
-1.928097	, WRB	-0.07997715
-3.188169	, ``	0.08357179
-2.858365	-LRB- #	-0.03693324
-1.959041	-LRB- $	0.6728672
-3.163161	-LRB- </s>
-0.9404449	-LRB- CC	0.1903099
-1.330652	-LRB- CD	-0.9286121
-1.089443	-LRB- DT	-0.09872103
-2.765221	-LRB- EX	-0.1918449
-2.066251	-LRB- FW	-0.7193457
-0.8588863	-LRB- IN	-0.006904483
-1.20412	-LRB- JJ	-0.327683
-2.38501	-LRB- JJR	-0.2415365
-3.163161	-LRB- JJS
-2.318063	-LRB- LS	-1.014011
-3.163161	-LRB- MD
-0.9509737	-LRB- NN	-0.9752858
-0.8138838	-LRB- NNP	-0.8644655
-2.765221	-LRB- NNPS
-1.47742	-LRB- NNS	-0.9703948
-1.907889	-LRB- PRP	-0.3382587
-2.464191	-LRB- PRP$	0.6317062
-1.067992	-LRB- RB	-0.5337681
-3.163161	-LRB- RBR
-2.858365	-LRB- RBS	-0.3001765
-2.350248	-LRB- TO	-0.1213406
-2.862131	-LRB- UH	0.0484277
-2.001793	-LRB- VB	-0.406346
-2.765221	-LRB- VBD	-0.1739318
-1.50515	-LRB- VBG	-0.2296599
-1.756621	-LRB- VBN	-0.7233849
-3.464191	-LRB- VBP
-3.464191	-LRB- VBZ
-1.500404	-LRB- WDT	-0.3575242
-2.2881	-LRB- WP	-0.0939502
-2.464191	-LRB- WP$	0.04662186
-2.066251	-LRB- WRB	0.04214588
-2.523715	-LRB- ``	-0.2989111
-0.6236073	-RRB- ,	0.0797863
-0.6811518	-RRB- .	-0.2128186
-1.932862	-RRB- :	-0.3448505
-1.607008	-RRB- </s>
-1.209068	-RRB- CC	0.07866549
-2.862281	-RRB- CD
-1.792243	-RRB- DT	-0.166201
-2.862281	-RRB- EX	-0.1595865
-3.46434	-RRB- FW
-1.071644	-RRB- IN	-0.2797533
-1.748337	-RRB- JJ	0.1515903
-2.76537	-RRB- JJR	-0.5076445
-1.451503	-RRB- MD	-0.6733118
-1.324461	-RRB- NN	-0.2856344
-1.972979	-RRB- NNP	-0.3915383
-3.46434	-RRB- NNPS
-1.671949	-RRB- NNS	-0.01613462
-2.350397	-RRB- PRP	-0.108272
-2.76537	-RRB- PRP$	-0.058526
-1.774144	-RRB- RB	-0.1301578
-3.46434	-RRB- RBR
-1.613082	-RRB- TO	-0.00325191
-2.523865	-RRB- VB
-1.353751	-RRB- VBD	-0.356155
-2.260221	-RRB- VBG	-0.1035904
-2.209068	-RRB- VBN	-0.3832959
-1.381555	-RRB- VBP	0.03191745
-1.282497	-RRB- VBZ	-0.5913836
-1.932862	-RRB- WDT	-0.3035696
-2.510098	-RRB- WP	-0.3007502
-3.46434	-RRB- WP$
-2.862281	-RRB- WRB	-0.1230609
-4.762731	. $
-2.450977	. ''	-1.223752
-4.160671	. ,
-3.440512	. -LRB-	-0.2002248
-2.789603	. -RRB-	-0.4501692
-4.063761	. .	1.039922
-4.063761	. :	-0.4233759
-0.01993526	. </s>
-1.741128	. CC	-0.2437922
-3.244217	. CD	-0.0227038
-2.237686	. DT	-0.152923
-3.616603	. EX	0.7412572
-4.762731	. FW
-2.416378	. IN	0.1184525
-3.055161	. JJ	-0.03329206
-4.461701	. JJR
-4.461701	. JJS
-3.859641	. MD	-0.5568492
-3.006856	. NN	-0.0790984
-2.956551	. NNP	-0.2658449
-4.160671	. NNPS
-3.271369	. NNS	-0.3294977
-4.160671	. PDT	1.145591
-2.676371	. PRP	-1.000009
-3.507458	. PRP$	0.2537161
-2.572399	. RB	-0.470681
-3.917633	. RBR	-0.2857817
-4.160671	. TO	0.1945004
-3.558611	. VB	-0.1982111
-4.461701	. VBD
-3.38252	. VBG	-0.04585505
-4.461701	. VBN
-4.762731	. VBP
-4.160671	. VBZ
-4.160671	. WDT
-3.822255	. WP	-0.05401543
-3.68355	. WRB	-0.06332955
-4.156904	. ``
-2.70454	: $	1.098836
-3.140106	: ''
-3.143873	: ,	-0.1970817
-2.63199	: -LRB-	-0.5480959
-3.444903	: -RRB-
-2.16615	: :	-1.576183
-1.566956	: </s>
-1.007946	: CC	0.1680143
-1.967782	: CD	-0.1619743
-0.7542642	: DT	-0.2736002
-2.16615	: EX	0.2901028
-2.083175	: FW	-0.4877249
-0.9832546	: IN	-0.1218551
-1.188426	: JJ	-0.1300203
-2.189631	: JJR	-0.2502221
-3.046963	: JJS	-0.2346122
-3.745933	: LS
-1.848306	: MD	0.4230072
-1.184832	: NN	-0.1979069
-1.243506	: NNP	-0.4642339
-2.791691	: NNPS	-0.1891196
-1.419597	: NNS	-0.2563035
-3.745933	: PDT
-1.129983	: PRP	-1.082121
-1.926389	: PRP$	0.04443693
-1.213179	: RB	-0.2148062
-3.143873	: RBR	-0.1285268
-2.842843	: RBS	0.1518996
-3.745933	: SYM
-1.870872	: TO	-0.2111899
-3.745933	: UH
-1.642129	: VB	-0.07732022
-2.083175	: VBD	-0.206261
-1.528449	: VBG	-0.2746928
-1.982505	: VBN	-0.3133307
-1.990058	: VBP	-0.036511
-1.837448	: VBZ	-0.4941659
-2.092721	: WDT	-0.3259532
-1.997745	: WP	0.1822669
-3.140106	: WP$
-1.656028	: WRB	0.1287493
-2.154869	: ``	-0.1899374
-4.143577	<s> $	-0.3465873
-4.749404	<s> ''
-3.427185	<s> ,	-0.1789224
-2.910555	<s> -LRB-	-0.2987199
-4.448374	<s> -RRB-
-3.427185	<s> .	0.8194336
-4.050434	<s> :	-0.3857511
-1.128851	<s> CC	-0.6627779
-1.915619	<s> CD	-0.7556516
-0.6537465	<s> DT	-0.7425904
-1.930519	<s> EX	-0.9630929
-3.904306	<s> FW	-0.6659046
-0.7266045	<s> IN	-0.8848212
-1.290162	<s> JJ	-0.5206937
-2.632133	<s> JJR	-0.710164
-2.53192	<s> JJS	-0.5230742
-3.147344	<s> LS	-0.5422305
-2.399156	<s> MD	-0.01166809
-1.515647	<s> NN	-0.4847932
-1.00778	<s> NNP	-1.006625
-2.576218	<s> NNPS	-0.6811025
-1.603586	<s> NNS	-0.9903384
-2.585051	<s> PDT	-0.4210392
-1.191416	<s> PRP	-1.802762
-2.005111	<s> PRP$	-0.01371002
-0.9120049	<s> RB	-0.6510735
-2.537216	<s> RBR	-0.3879424
-3.369193	<s> RBS	-0.3082186
-2.0487	<s> TO	-0.5067688
-3.147344	<s> UH	-0.6385768
-2.184738	<s> VB	-0.4747219
-2.943224	<s> VBD	-0.6558513
-1.723279	<s> VBG	-0.6689332
-2.141949	<s> VBN	-1.142632
-3.050434	<s> VBP	-0.5141664
-2.632133	<s> VBZ	-1.042823
-2.427185	<s> WDT	0.3062003
-2.322893	<s> WP	-1.270954
-1.856753	<s> WRB	-0.1921089
-3.217925	<s> ``	0.09438327
-3.428854	CC $	0.8992635
-4.383097	CC ''
-1.579298	CC ,	-1.297943
-3.453678	CC -LRB-	-0.2369588
-4.082067	CC -RRB-
-3.221729	CC .	-0.1290293
-3.743651	CC :	-0.1124668
-3.781037	CC </s>
-3.341704	CC CC	-0.1395062
-1.924459	CC CD	-0.3009105
-0.8546302	CC DT	-0.07379961
-2.251158	CC EX	-0.2730567
-3.743651	CC FW	-0.1972288
-1.250197	CC IN	-0.07235789
-0.7950494	CC JJ	-0.4410892
-2.057786	CC JJR	-0.09502876
-2.770313	CC JJS	-0.5464029
-1.936715	CC MD	0.1343387
-0.8736256	CC NN	0.01541018
-1.075387	CC NNP	-0.2314122
-2.446081	CC NNPS	-0.2114151
-1.191926	CC NNS	-0.1681974
-3.178977	CC PDT	0.2381637
-1.46638	CC PRP	-1.264621
-1.693344	CC PRP$	0.1290534
-1.129153	CC RB	0.1808455
-2.259245	CC RBR	0.005413294
-3.002886	CC RBS	-0.214242
-4.0783	CC RP	-0.2271021
-1.976557	CC TO	-0.009063005
-4.0783	CC UH
-1.412285	CC VB	-0.2321992
-1.708695	CC VBD	-0.2328291
-1.534292	CC VBG	-0.07031846
-1.868549	CC VBN	0.276585
-1.925215	CC VBP	-0.2035329
-1.746609	CC VBZ	-0.08374369
-3.060878	CC WDT	0.07667929
-2.351688	CC WP	0.137656
-3.453678	CC WP$	0.02856541
-2.224735	CC WRB	-0.01568449
-3.165613	CC ``	-0.00105232
-3.321691	CD ''	-0.1345093
-0.9468257	CD ,	-0.3333595
-2.370072	CD -LRB-	-0.1943955
-2.063509	CD -RRB-	-0.251965
-1.201846	CD .	-0.02786946
-2.19398	CD :	-0.217705
-3.086075	CD </s>
-1.681241	CD CC	-0.7502848
-1.093964	CD CD	-0.4561386
-1.881955	CD DT	-0.3281381
-3.660106	CD EX	-0.3857397
-1.09044	CD IN	-0.5343907
-1.227939	CD JJ	-0.4807229
-2.506291	CD JJR	-0.3304179
-2.682383	CD JJS	-0.3298416
-1.999715	CD MD	-0.1611333
-0.6661192	CD NN	-0.1005194
-1.919744	CD NNP	-0.4644083
-2.410908	CD NNPS	-0.03139544
-0.6553551	CD NNS	-0.5021462
-2.253566	CD POS	-0.1588891
-2.864226	CD PRP	-0.7155476
-3.65634	CD PRP$	-0.2318432
-2.094849	CD RB	-0.3655984
-4.262166	CD RBR
-3.058046	CD RBS	-0.5928521
-4.262166	CD RP
-1.81038	CD TO	-0.6911693
-3.321691	CD VB	-0.1343277
-1.919744	CD VBD	-0.3165582
-2.462826	CD VBG	-0.04802823
-2.279895	CD VBN	-0.4570895
-2.442622	CD VBP	-0.147211
-1.835655	CD VBZ	0.0001869202
-2.116038	CD WDT	-0.2287139
-3.182985	CD WP	-0.1494865
-3.65634	CD WP$	-0.1402783
-3.116038	CD WRB	-0.04862121
-3.961136	CD ``	-0.6467891
-3.114028	DT $	0.16518
-5.122629	DT ''
-2.25164	DT ,	0.1056252
-3.843875	DT -LRB-	-0.2116275
-3.800409	DT -RRB-	-0.02716312
-2.568746	DT .	-0.07874715
-3.241815	DT :	-0.07924896
-3.691265	DT </s>
-3.214144	DT CC	-0.2472855
-1.83126	DT CD	-0.7268162
-3.118307	DT DT	-0.1338179
-4.516802	DT EX	-0.05094984
-3.617479	DT FW	-1.027554
-1.926176	DT IN	-0.3843051
-0.5443219	DT JJ	-0.2526131
-2.086799	DT JJR	-0.07531643
-2.09001	DT JJS	-0.2978175
-2.307051	DT MD	-0.1609255
-0.3995919	DT NN	0.2072225
-0.95366	DT NNP	-0.3689053
-2.240674	DT NNPS	0.2002492
-1.148209	DT NNS	-0.01183391
-5.122629	DT PDT
-4.821599	DT POS
-3.432433	DT PRP	-0.4128438
-3.247567	DT PRP$	-0.216006
-1.91231	DT RB	-0.9714842
-2.399173	DT RBR	-0.4678396
-2.299807	DT RBS	-0.4643174
-4.277531	DT RP	-0.4176998
-3.198349	DT TO	-0.3003483
-4.516802	DT UH	-0.3383085
-3.065724	DT VB	-0.168884
-2.554427	DT VBD	-0.04701054
-1.921778	DT VBG	-0.8621451
-2.111905	DT VBN	-0.5667329
-2.496288	DT VBP	-0.02725124
-1.867597	DT VBZ	-0.5811347
-3.230534	DT WDT	-0.3740513
-2.542845	DT WP	-1.610246
-4.423659	DT WP$	-0.1008988
-4.122629	DT WRB	-0.2262775
-2.786169	DT ``	-0.7320619
-3.350829	EX -LRB-
-3.350829	EX -RRB-
-2.748769	EX .	0.7503688
-3.350829	EX :
-2.745003	EX CC
-3.350829	EX CD
-1.873708	EX DT	-0.7365099
-2.236886	EX IN	-0.276298
-2.748769	EX JJ	-0.1132295
-1.020416	EX MD	-0.8856976
-2.410353	EX NN	-0.1012116
-2.745003	EX NNS	-0.698601
-3.049799	EX PDT	0.9834063
-2.748769	EX PRP	-0.1622548
-3.350829	EX PRP$
-2.271648	EX RB	-0.1613438
-3.049799	EX VB	-0.7312951
-0.9459956	EX VBD	-0.9252334
-3.049799	EX VBG
-0.5949544	EX VBP	-0.9120823
-0.3055063	EX VBZ	-1.300226
-0.7916338	FW ,	-0.1892722
-1.961895	FW -LRB-	-0.2801409
-1.546922	FW -RRB-	0.01646237
-1.299138	FW .	0.7261152
-1.058805	FW :	-1.121966
-1.961895	FW </s>
-1.72039	FW CC	-0.1737927
-2.660866	FW CD
-1.359836	FW DT	0.3044092
-0.6923825	FW FW	-0.2583592
-1.815767	FW IN	-0.02043448
-1.456746	FW JJ	-0.1664423
-2.660866	FW JJR
-2.359835	FW LS
-2.660866	FW MD
-0.8827142	FW NN	-0.3555744
-1.048082	FW NNP	-0.4095374
-2.660866	FW NNPS
-1.514737	FW NNS	-0.07257678
-2.359835	FW PRP	-0.6907326
-2.660866	FW PRP$
-2.660866	FW RB
-2.660866	FW SYM
-2.660866	FW TO
-2.660866	FW VB
-2.058805	FW VBD	-0.180338
-2.359835	FW VBG
-2.660866	FW VBN
-2.055039	FW VBP	-0.2714096
-1.660865	FW VBZ	-0.2901548
-2.359835	FW WDT
-2.660866	FW WP
-2.660866	FW ``
-2.670212	IN $	-0.3685255
-5.215518	IN ''
-2.385572	IN ,	-0.5022309
-3.647317	IN -LRB-	0.04024982
-3.936765	IN -RRB-	-0.06940037
-2.741302	IN .	-0.318426
-3.444667	IN :	-0.1320943
-3.483125	IN </s>
-2.566184	IN CC	-0.3228599
-1.445108	IN CD	-0.4685113
-0.478501	IN DT	-0.6097085
-2.655612	IN EX	-0.4126049
-3.68404	IN FW	-0.5540407
-1.777135	IN IN	-0.116111
-0.8906808	IN JJ	-0.5867422
-2.230991	IN JJR	-0.6055127
-2.323424	IN JJS	-0.1928107
-3.572066	IN MD	0.3002434
-0.8603162	IN NN	-0.2984788
-0.9609947	IN NNP	-0.07206154
-2.515681	IN NNPS	-0.1529802
-1.26833	IN NNS	-0.4384422
-2.754621	IN PDT	0.5391858
-1.445994	IN PRP	-0.4479632
-1.449701	IN PRP$	-0.3060725
-1.790637	IN RB	-0.05106497
-3.562306	IN RBR	-0.09347713
-4.275043	IN RBS	0.3148713
-2.599569	IN TO	0.07516694
-3.098247	IN VB	-0.3006635
-3.233247	IN VBD	-0.1208749
-1.35291	IN VBG	0.3257742
-2.325657	IN VBN	-0.6088575
-3.38301	IN VBP	0.002143979
-2.826353	IN VBZ	0.06220508
-2.2337	IN WDT	0.4079533
-2.46733	IN WP	0.05236673
-4.101575	IN WP$	-0.6178522
-2.634594	IN WRB	-0.7978152
-3.025187	IN ``	-0.2618543
-3.456508	JJ $	0.4967759
-3.141834	JJ ''	-0.9311608
-1.439208	JJ ,	-0.566072
-2.911122	JJ -LRB-	-0.6376677
-2.838571	JJ -RRB-	-0.4102847
-1.535652	JJ .	-0.0775528
-2.37121	JJ :	0.1458302
-4.087214	JJ </s>
-1.513498	JJ CC	-0.5578005
-2.107831	JJ CD	-0.3150055
-2.526546	JJ DT	-0.2560329
-4.526546	JJ EX	-0.1040962
-4.014663	JJ FW	-0.3003669
-1.301883	JJ IN	-0.01428413
-1.048052	JJ JJ	-0.3923414
-2.927209	JJ JJR	-0.02304089
-3.548822	JJ JJS	-0.51301
-2.935481	JJ MD	0.2750713
-0.3715366	JJ NN	-0.4000158
-1.614989	JJ NNP	-0.01961732
-2.598406	JJ NNPS	0.1878653
-0.6229271	JJ NNS	-0.2632651
-4.827576	JJ PDT
-4.526546	JJ POS	-0.01622677
-3.150882	JJ PRP	-0.2650255
-3.584538	JJ PRP$	-0.3743684
-2.299302	JJ RB	0.206067
-3.982478	JJ RBR	-0.2492053
-3.748395	JJ RBS	-0.3665784
-5.128606	JJ RP
-1.502779	JJ TO	-0.4449794
-4.522779	JJ UH	-0.3043241
-3.242115	JJ VB	-0.2759983
-2.794152	JJ VBD	0.01962137
-2.401065	JJ VBG	-0.06704104
-2.750208	JJ VBN	-0.2071959
-2.694037	JJ VBP	0.03605485
-2.525462	JJ VBZ	-0.134024
-4.049425	JJ WDT	0.001381576
-3.637244	JJ WP	-0.07376456
-4.526546	JJ WP$	-0.07764737
-3.001501	JJ WRB	-0.51922
-3.214792	JJ ``	-0.8840568
-3.807806	JJR ''
-1.526772	JJR ,	-0.3155931
-2.853563	JJR -LRB-	-0.07937058
-2.506776	JJR -RRB-	-0.2204873
-1.42399	JJR .	-1.148538
-2.577357	JJR :	-0.2318941
-1.483523	JJR CC	-0.8436118
-2.962708	JJR CD	-0.1925001
-1.932744	JJR DT	-0.4309803
-3.807806	JJR EX
-0.563281	JJR IN	-0.4636115
-0.9339039	JJR JJ	-0.6786252
-2.807806	JJR MD	-0.1581849
-0.5520508	JJR NN	-0.5993236
-2.001626	JJR NNP	-0.02153707
-3.201979	JJR NNPS
-0.9179438	JJR NNS	-0.1123712
-2.446078	JJR PRP	-0.350016
-2.766413	JJR PRP$	0.7230768
-1.807806	JJR RB	-0.5748949
-2.360647	JJR RP	-0.6859633
-1.493938	JJR TO	-0.03588557
-2.766413	JJR VB	-0.06199071
-2.485586	JJR VBD	-0.1504054
-2.577357	JJR VBG	-0.2404686
-2.276327	JJR VBN	0.03698918
-2.807806	JJR VBP	-0.1157659
-2.577357	JJR VBZ	-0.1826698
-3.506776	JJR WDT
-3.807806	JJR WP
-2.904716	JJR WRB	-0.01705535
-2.874611	JJS $	1.362933
-1.502715	JJS ,	0.02755481
-2.874611	JJS -LRB-	-0.2828585
-2.539962	JJS -RRB-	-0.2610992
-1.63534	JJS .	0.1050539
-2.874611	JJS :	-0.2634287
-1.781468	JJS CC	-0.965274
-1.51665	JJS CD	-0.6955148
-1.73225	JJS DT	-0.2749534
-3.179408	JJS EX
-0.8074172	JJS IN	-0.4120857
-0.8827429	JJS JJ	-0.1495969
-3.480438	JJS JJR
-3.480438	JJS JJS
-2.577348	JJS MD	0.7188978
-0.5956428	JJS NN	-0.2044028
-1.889374	JJS NNP	-0.6437161
-1.889374	JJS NNPS	-0.2215996
-0.6979655	JJS NNS	-0.1423677
-3.480438	JJS PDT
-2.366495	JJS PRP	-0.02623546
-3.179408	JJS PRP$	-0.5318604
-1.54594	JJS RB	-0.4058899
-3.480438	JJS RP
-1.889374	JJS TO	-0.2146195
-2.225166	JJS VB	-0.2933243
-2.577348	JJS VBD	-0.1009542
-1.912236	JJS VBG	-0.2337307
-1.924136	JJS VBN	-0.3270804
-1.989076	JJS VBP	-0.2013382
-2.276318	JJS VBZ	-0.1218108
-2.577348	JJS WDT	-0.308833
-2.874611	JJS WP
-2.539962	JJS WRB	-0.2569273
-0.5065762	LS -RRB-	-0.4900498
-0.2290273	LS .	0.4085183
-1.4843	LS :
-1.78533	LS NN
-1.4843	LS NNP
-2.162584	MD ,	-0.5417848
-3.435585	MD -LRB-	-0.3902074
-3.493577	MD -RRB-	-0.3529184
-2.590487	MD .	-0.4000961
-3.259494	MD :	-0.04747483
-4.037646	MD </s>
-2.409257	MD CC	-1.128868
-3.037646	MD CD	-1.195504
-1.897766	MD DT	-0.4300632
-4.338675	MD EX
-4.338675	MD FW
-2.424862	MD IN	-0.7623864
-2.631105	MD JJ	-0.3139163
-3.732849	MD JJS
-2.095638	MD NN	-0.5939279
-2.409257	MD NNP	-0.4870603
-3.435585	MD NNPS	-0.2501245
-2.770474	MD NNS	-0.2680418
-3.384433	MD PDT	0.7433137
-1.896196	MD PRP	-1.539911
-3.297283	MD PRP$	0.5348716
-0.6611599	MD RB	-2.162213
-3.037646	MD RBR	-0.4864877
-2.715426	MD RBS	-0.4705382
-2.553346	MD TO	-0.7927271
-0.1474482	MD VB	-0.2446082
-3.736616	MD VBD	-0.1959197
-3.493577	MD VBG	-0.3319008
-3.639706	MD VBN	-0.1238808
-3.3982	MD VBZ
-3.3982	MD WDT	-0.05346017
-4.037646	MD WRB
-3.732849	MD ``	-0.8007631
-4.460256	NN $	1.274927
-2.914418	NN ''	-0.8899611
-0.8943571	NN ,	-0.1367161
-2.329922	NN -LRB-	-0.160665
-2.360871	NN -RRB-	0.06831813
-0.9268466	NN .	-0.1825044
-1.980454	NN :	-0.6462986
-3.017552	NN </s>
-1.331487	NN CC	-0.7922289
-2.866021	NN CD	0.196823
-2.157059	NN DT	-0.06361675
-3.652141	NN EX	0.04804587
-3.581078	NN FW	-0.5420746
-0.5651883	NN IN	-0.09859228
-2.113623	NN JJ	0.3575423
-3.077467	NN JJR	0.01963639
-4.263961	NN JJS	-0.04679936
-1.543802	NN MD	-0.6990623
-1.090775	NN NN	-0.330224
-2.243524	NN NNP	-0.493073
-4.074904	NN NNPS	-0.2205585
-1.17731	NN NNS	-0.2235539
-4.263961	NN PDT	0.6641325
-2.527927	NN POS	-0.2394246
-2.460876	NN PRP	-0.1914294
-3.305353	NN PRP$	-0.1790315
-1.731786	NN RB	-0.7054784
-2.939866	NN RBR	-0.4782363
-4.263961	NN RBS	0.5803242
-3.642596	NN RP	0.0217886
-1.35572	NN TO	0.125195
-2.531567	NN VB	-0.0830543
-1.632056	NN VBD	0.3607159
-2.282513	NN VBG	0.1172535
-2.094233	NN VBN	-0.2576613
-2.087081	NN VBP	-0.134625
-1.117325	NN VBZ	0.1444304
-1.844606	NN WDT	-0.6675153
-2.870785	NN WP	-0.8148949
-3.499174	NN WP$	-0.2392842
-2.520024	NN WRB	-0.7518688
-3.773875	NN ``	-0.02604523
-4.901927	NNP #
-3.961451	NNP $	1.446547
-3.220685	NNP ''	-0.1895242
-0.8546908	NNP ,	-0.3684959
-2.099838	NNP -LRB-	-0.3798072
-2.07198	NNP -RRB-	-0.4369642
-1.239736	NNP .	-0.0262413
-2.284926	NNP :	0.09620988
-3.370448	NNP </s>
-1.269065	NNP CC	-0.7492588
-1.942408	NNP CD	-0.170223
-2.188436	NNP DT	0.05246425
-3.671478	NNP EX	0.002904892
-3.540199	NNP FW	-0.4105257
-1.220595	NNP IN	-0.4283943
-1.991836	NNP JJ	-0.07520604
-3.559504	NNP JJR	-0.5809984
-3.961451	NNP JJS	-0.07892018
-4.901927	NNP LS
-1.524074	NNP MD	-0.1801095
-1.224229	NNP NN	-0.3433964
-0.6541007	NNP NNP	0.08692217
-1.808505	NNP NNPS	-0.08302605
-1.316579	NNP NNS	0.5978706
-3.961451	NNP PDT	1.293315
-1.711035	NNP POS	-0.1706185
-2.605262	NNP PRP	-0.2745185
-3.697807	NNP PRP$	0.4429696
-1.781024	NNP RB	-0.05716991
-3.202957	NNP RBR	-0.3356804
-4.600897	NNP RBS	-0.1486394
-4.2961	NNP RP	-0.2271021
-4.2961	NNP SYM
-1.883226	NNP TO	-0.4157166
-2.435059	NNP VB	-0.3114284
-1.345745	NNP VBD	-0.05316925
-2.435059	NNP VBG	-0.3348627
-2.755799	NNP VBN	0.05338764
-1.901493	NNP VBP	-0.4156022
-0.862354	NNP VBZ	-0.2013445
-2.527178	NNP WDT	-0.4642566
-3.026865	NNP WP	-0.1337413
-3.901927	NNP WP$	-0.1688411
-3.0043	NNP WRB	-0.5270186
-4.056828	NNP ``	-0.2120408
-3.285782	NNPS ''
-0.7410942	NNPS ,	-0.1913632
-2.206601	NNPS -LRB-	-0.1643256
-2.24439	NNPS -RRB-	-0.2893286
-1.094052	NNPS .	0.01449513
-1.963563	NNPS :	0.0797424
-1.015103	NNPS CC	-0.5711002
-3.586812	NNPS CD
-2.042744	NNPS DT	-0.1637323
-3.285782	NNPS EX
-1.012781	NNPS IN	-0.1667429
-1.9336	NNPS JJ	-0.3361387
-3.285782	NNPS JJR
-3.285782	NNPS JJS	-0.6328083
-3.586812	NNPS LS
-1.281461	NNPS MD	-0.5395373
-1.419495	NNPS NN	-0.01328683
-1.486442	NNPS NNP	-0.3916355
-2.887842	NNPS NNPS
-2.081662	NNPS NNS	-0.2102877
-3.586812	NNPS PDT
-2.356363	NNPS POS	-0.2184331
-2.646337	NNPS PRP	-0.04639892
-2.980986	NNPS PRP$	-0.1976825
-1.462961	NNPS RB	-0.1596721
-2.984752	NNPS RBR	-0.1285268
-3.285782	NNPS RP
-1.667734	NNPS TO	-0.4601701
-2.095451	NNPS VB	-0.08980572
-1.136563	NNPS VBD	0.03227985
-1.924054	NNPS VBG	-0.09354323
-2.308059	NNPS VBN	-0.4170878
-0.8370759	NNPS VBP	-0.1595346
-1.416551	NNPS VBZ	-0.2944382
-2.54542	NNPS WDT	-0.2881262
-1.84645	NNPS WP	-0.9551076
-2.887842	NNPS WRB	-0.6365369
-4.280456	NNS $	1.531698
-3.030035	NNS ''	-0.4861914
-0.8555085	NNS ,	0.3036873
-2.194096	NNS -LRB-	-0.0645982
-2.279588	NNS -RRB-	-0.4647064
-0.8887442	NNS .	-0.04232836
-1.95453	NNS :	-0.4039071
-3.517027	NNS </s>
-1.221422	NNS CC	-0.8448788
-2.950042	NNS CD	-0.7710193
-2.195522	NNS DT	-0.2688712
-3.865482	NNS EX	0.1810191
-3.700672	NNS FW	-0.848322
-0.6284606	NNS IN	0.4231017
-1.672786	NNS JJ	-0.004465818
-2.849092	NNS JJR	-0.1334463
-3.239063	NNS JJS	-0.3959265
-1.364317	NNS MD	-0.7957283
-1.639378	NNS NN	-0.04125786
-2.509604	NNS NNP	-0.3364199
-3.775306	NNS NNPS	-0.153307
-1.883211	NNS NNS	-0.3617651
-4.076335	NNS PDT	0.7890711
-2.865482	NNS POS	-0.4803531
-2.488064	NNS PRP	-0.6923068
-3.247032	NNS PRP$	-0.5504606
-1.494272	NNS RB	-0.4124835
-2.689391	NNS RBR	-0.1913074
-3.548062	NNS RBS	0.3721918
-3.599214	NNS RP	-0.6295779
-1.36495	NNS TO	0.03372622
-4.678395	NNS UH
-2.548062	NNS VB	0.01830685
-1.479189	NNS VBD	-0.3976336
-1.862486	NNS VBG	-0.1446476
-1.79844	NNS VBN	0.05966687
-1.012955	NNS VBP	-0.2208409
-1.740878	NNS VBZ	-0.4365312
-1.604677	NNS WDT	-0.3597789
-2.202724	NNS WP	-0.8892435
-3.298184	NNS WP$	-0.5914664
-2.557822	NNS WRB	-0.5948295
-4.134327	NNS ``	-0.08271921
-0.00791447	PDT DT	-0.423777
-1.771343	PDT PRP$	0.454065
-1.760746	POS ,	0.1613004
-2.781935	POS -LRB-	-0.1798667
-3.082965	POS -RRB-
-1.952631	POS .	-0.09906602
-2.443519	POS :
-2.179875	POS CC	-0.3651171
-2.061775	POS CD	-0.1927397
-3.082965	POS DT	-0.6138808
-2.429752	POS IN	0.02879938
-0.5657689	POS JJ	-0.5839814
-2.443519	POS JJR	-0.2984279
-1.643632	POS JJS	-0.8888857
-2.778168	POS MD
-0.4081036	POS NN	-0.125967
-1.19087	POS NNP	-0.2060046
-2.443519	POS NNPS
-0.899695	POS NNS	-0.4602039
-2.153546	POS RB	-0.2330182
-3.383995	POS RBR
-2.153546	POS RBS	-0.3181509
-2.781935	POS TO	-0.1379352
-3.082965	POS VB
-2.443519	POS VBD	-0.05318756
-1.852516	POS VBG	-0.7123175
-1.969021	POS VBN	-0.4062929
-2.685025	POS VBP	-0.1202448
-2.685025	POS VBZ	-0.2491452
-1.936837	POS ``	-0.4387448
-4.078094	PRP $	1.41811
-3.773298	PRP ''
-1.566879	PRP ,	-0.1629506
-3.175004	PRP -LRB-	-0.1402443
-2.902003	PRP -RRB-	-0.07790554
-1.316542	PRP .	0.05714488
-2.424882	PRP :	-0.08963192
-3.680154	PRP </s>
-2.054842	PRP CC	-0.1434447
-3.379124	PRP CD	-0.06448752
-1.872619	PRP DT	0.2988133
-3.777064	PRP EX	-0.2289051
-4.078094	PRP FW	-0.698925
-1.294905	PRP IN	-0.009355068
-1.816831	PRP JJ	-0.1485347
-2.579784	PRP JJR	-0.4728219
-4.078094	PRP JJS
-0.8019772	PRP MD	-1.173397
-2.223788	PRP NN	-0.2650537
-3.078094	PRP NNP	-0.06222257
-2.847645	PRP NNPS	-0.8791767
-2.593794	PRP NNS	-0.006986201
-3.476034	PRP PDT	0.7890711
-3.036701	PRP PRP	-0.1898217
-3.175004	PRP PRP$	0.6392176
-1.23893	PRP RB	-0.8072317
-2.600973	PRP RBR	-0.3011451
-3.777064	PRP RBS
-2.540275	PRP RP	-0.723713
-1.617196	PRP TO	-0.3704945
-1.658138	PRP VB	0.03025353
-0.831965	PRP VBD	-0.1469579
-2.553049	PRP VBG	0.2283762
-2.630936	PRP VBN	-0.3609619
-0.712887	PRP VBP	-0.03999043
-0.7039877	PRP VBZ	-0.4297493
-3.438648	PRP WDT	-0.1854406
-2.86061	PRP WP	-0.07886422
-4.078094	PRP WP$
-2.916726	PRP WRB	-0.3472136
-3.534026	PRP ``	-0.1036179
-3.256567	PRP$ $	1.274927
-3.858627	PRP$ ,
-3.256567	PRP$ -LRB-	-0.293795
-3.858627	PRP$ :
-2.880904	PRP$ CC	-1.101332
-2.14682	PRP$ CD	-0.8959448
-3.314559	PRP$ DT	-0.1755056
-3.553831	PRP$ FW	-0.7165119
-2.79793	PRP$ IN	-0.2767753
-0.5348598	PRP$ JJ	-0.459815
-2.536408	PRP$ JJR	-0.680327
-2.142624	PRP$ JJS	-1.006326
-3.118265	PRP$ MD	-0.3000311
-0.3888054	PRP$ NN	-0.362253
-1.856461	PRP$ NNP	-0.3862269
-3.858627	PRP$ NNPS
-0.6309978	PRP$ NNS	-0.4427676
-3.858627	PRP$ PRP
-4.159657	PRP$ PRP$
-2.181934	PRP$ RB	-1.023247
-2.506445	PRP$ RBS	-0.8251124
-3.553831	PRP$ RP	-0.2271021
-3.553831	PRP$ TO	-0.3891546
-2.983566	PRP$ VB	-0.2379975
-3.219182	PRP$ VBD	-0.2128689
-2.062747	PRP$ VBG	-0.524619
-2.220138	PRP$ VBN	-1.27102
-3.553831	PRP$ VBP	-0.3460256
-3.557597	PRP$ VBZ	-0.1661968
-2.880904	PRP$ ``	-0.5588866
-2.805947	RB $	0.1780171
-3.898492	RB ''	-0.1770394
-0.8628122	RB ,	-0.4716873
-3.199522	RB -LRB-	-0.2808326
-2.857099	RB -RRB-	0.3165486
-1.356913	RB .	0.1429775
-2.502729	RB :	0.0367465
-4.195755	RB </s>
-2.044186	RB CC	-0.1025267
-1.865068	RB CD	-0.5669289
-1.264897	RB DT	0.3941128
-2.950324	RB EX	-0.1479579
-4.102612	RB FW	-0.2095971
-0.8733911	RB IN	-0.08618903
-0.9362411	RB JJ	-0.3248525
-1.878857	RB JJR	-0.1126014
-2.852192	RB JJS	-0.5072669
-2.136001	RB MD	0.3270868
-1.863563	RB NN	-0.01389265
-2.108735	RB NNP	0.1915603
-3.270103	RB NNPS	-0.1912179
-2.158129	RB NNS	-0.01637995
-3.296432	RB PDT	0.2381637
-4.801582	RB POS
-2.220657	RB PRP	-0.688169
-2.614061	RB PRP$	0.1070974
-1.067823	RB RB	-0.1387475
-1.872674	RB RBR	-0.1326025
-3.354424	RB RBS	0.1800997
-4.801582	RB RP
-1.613216	RB TO	-0.04798365
-4.801582	RB UH
-0.9831582	RB VB	-0.3469336
-1.549944	RB VBD	-0.3266839
-1.512439	RB VBG	0.05157042
-1.131893	RB VBN	-0.3297992
-1.591531	RB VBP	-0.06111836
-1.507116	RB VBZ	-0.2301385
-3.84734	RB WDT	-0.3960654
-2.722401	RB WP	-0.2075809
-2.311624	RB WRB	-0.3584622
-3.956484	RB ``	-0.4961081
-1.50663	RBR ,	-0.1976866
-3.582177	RBR -LRB-
-2.97635	RBR -RRB-
-1.485267	RBR .	-0.748818
-2.540784	RBR :	-0.06576468
-1.707116	RBR CC	-1.102766
-1.668363	RBR DT	-0.5407726
-1.019884	RBR IN	-0.1080822
-0.2928111	RBR JJ	-0.09408808
-2.326905	RBR MD	-0.1701549
-1.351728	RBR NN	-0.3541175
-2.679087	RBR NNP	-0.09055072
-2.627934	RBR NNPS	-0.3592845
-1.663099	RBR NNS	-0.4135855
-2.502996	RBR PRP	-0.3185333
-2.641701	RBR PRP$	-0.1972573
-0.8636754	RBR RB	-0.7749193
-1.910079	RBR TO	-0.1173279
-2.013975	RBR VB	-0.1329636
-2.679087	RBR VBD	-0.08147743
-2.167204	RBR VBG	-0.2951622
-1.627935	RBR VBN	-0.3916434
-2.97635	RBR VBP
-2.167204	RBR VBZ	-0.05704007
-2.540784	RBR WDT	-0.2763303
-3.582177	RBR WP
-2.641701	RBR WRB	-0.1308023
-3.582177	RBR ``
-1.933487	RBS ,	-0.1010382
-3.109579	RBS -RRB-
-2.808548	RBS .	0.5881846
-2.503752	RBS :
-3.109579	RBS CC
-1.787359	RBS IN	-0.2674427
-0.1219123	RBS JJ	-0.5112976
-2.808548	RBS MD
-1.87913	RBS NN	-0.0665099
-2.503752	RBS NNP	-0.3260759
-2.410609	RBS NNPS	-0.1413027
-1.565511	RBS NNS	-0.1460308
-3.109579	RBS PRP
-0.9857269	RBS RB	-0.6664856
-2.264481	RBS TO	0.1839802
-2.169103	RBS VB
-2.808548	RBS VBD
-2.507519	RBS VBG
-1.553276	RBS VBN	-0.2309624
-2.503752	RBS VBP
-2.264481	RBS VBZ	-0.176717
-3.109579	RBS WP
-2.503752	RBS WRB
-2.873317	RP ''
-1.311826	RP ,	-0.076406
-2.877083	RP -LRB-	-0.1667388
-2.873317	RP -RRB-
-1.154861	RP .	0.1923332
-2.303052	RP :	-0.0550402
-3.479143	RP </s>
-1.723268	RP CC	-0.3501875
-2.081203	RP CD	-0.647548
-0.7411559	RP DT	-0.4681891
-0.6158204	RP IN	-0.281852
-1.171647	RP JJ	-0.539534
-2.178113	RP JJR	-1.272249
-3.178113	RP JJS	-0.6863499
-2.524901	RP MD	-0.2562879
-1.233631	RP NN	-0.6467787
-1.738781	RP NNP	-0.04314852
-1.43382	RP NNS	-0.4468132
-2.780173	RP PDT	1.096995
-3.479143	RP PRP
-1.228723	RP PRP$	-0.468236
-1.368554	RP RB	-0.5575609
-2.576053	RP RBR	0.00655961
-1.054262	RP TO	0.1668336
-3.479143	RP VB
-2.873317	RP VBD	-0.3385479
-1.835691	RP VBG	0.1901199
-2.873317	RP VBN	-0.3227017
-2.538667	RP VBP	-0.2455924
-2.576053	RP VBZ	-0.09687912
-3.479143	RP WDT
-2.479143	RP WP	-0.1516887
-2.098932	RP WRB	-0.2052838
-3.479143	RP ``
-0.7781513	SYM :
-0.7781513	SYM CC
-0.7781513	SYM NNP
-0.7781513	SYM NNS
-0.7781513	SYM RB
-2.900239	TO $	0.4967759
-3.192126	TO ,	-0.4212966
-3.631861	TO -LRB-	-0.2682486
-4.572337	TO -RRB-
-3.530944	TO .	0.3066993
-3.966511	TO :	-0.8031507
-4.572337	TO </s>
-3.053823	TO CC	-0.04062504
-1.805181	TO CD	-0.6908983
-0.8657047	TO DT	-0.5874953
-3.966511	TO FW	-0.2489766
-2.746262	TO IN	0.03363806
-1.262707	TO JJ	-0.2866826
-2.354853	TO JJR	-0.6312774
-3.341888	TO JJS	0.05443555
-4.572337	TO MD
-1.31155	TO NN	0.3906822
-1.432458	TO NNP	-0.6408831
-3.067187	TO NNPS	-0.4276644
-1.697276	TO NNS	-0.2927413
-3.174397	TO PDT	0.3283403
-2.28678	TO PRP	-0.5536435
-1.770933	TO PRP$	-0.1762642
-2.241923	TO RB	-0.3698786
-3.210609	TO RBR	-0.2680662
-3.966511	TO RBS	0.2637188
-0.2041432	TO VB	0.05991912
-4.572337	TO VBD
-1.83914	TO VBG	-0.03882682
-2.808909	TO VBN	-1.049652
-4.572337	TO VBZ
-2.603854	TO WDT	-0.7879668
-2.653259	TO WP	-0.4358693
-3.067187	TO WRB	-0.1564908
-3.174397	TO ``	-0.2938915
-1.371897	UH ''	-0.3372025
-0.1715436	UH ,	-0.02414459
-1.023481	UH .	-0.02933156
-1.977724	UH :
-1.371897	UH CC	-0.7497063
-1.977724	UH IN
-1.977724	UH NNP
-1.676694	UH NNS
-1.977724	UH PRP
-1.371897	UH TO
-1.676694	UH VB
-1.977724	UH VBN
-4.709609	VB #
-3.118545	VB $	0.5759572
-3.755367	VB ''	-0.1551623
-1.654613	VB ,	-0.2267675
-3.204459	VB -LRB-	-0.286141
-3.262451	VB -RRB-	-0.1522834
-1.492388	VB .	-0.06565666
-2.602399	VB :	-0.3014783
-4.103783	VB </s>
-1.908205	VB CC	-0.3714225
-2.192413	VB CD	-0.3855644
-0.6686114	VB DT	-0.3427186
-4.103783	VB EX
-3.806519	VB FW	-0.3701552
-0.9249205	VB IN	-0.1234741
-0.9598728	VB JJ	-0.3149366
-1.87076	VB JJR	-0.2962219
-3.47916	VB JJS	-0.3898931
-3.066156	VB MD	-0.1855905
-1.19546	VB NN	-0.3103828
-1.618294	VB NNP	-0.0972414
-3.141407	VB NNPS	-0.3773054
-1.452891	VB NNS	0.1414208
-2.760219	VB PDT	-0.2060763
-4.408579	VB POS	-0.7595484
-1.455545	VB PRP	0.2428257
-1.334494	VB PRP$	-0.002847195
-1.283586	VB RB	-0.6855958
-2.170533	VB RBR	-0.4454708
-3.505489	VB RBS	0.09655356
-1.68226	VB RP	-0.278517
-1.311322	VB TO	-0.1685295
-4.408579	VB UH	-0.7166822
-2.349774	VB VB	-0.2431035
-2.977215	VB VBD	0.02859604
-1.817515	VB VBG	-0.1940765
-1.026742	VB VBN	-0.4106576
-3.408579	VB VBP	-0.2766519
-2.680225	VB VBZ	-0.4599105
-3.096825	VB WDT	-0.4813445
-2.349774	VB WP	-0.8030524
-2.247211	VB WRB	-0.5364358
-3.408579	VB ``	0.1147881
-2.808361	VBD $	0.6098155
-3.762604	VBD ''	-0.3672386
-1.549086	VBD ,	0.05303133
-3.08591	VBD -LRB-	-0.4268988
-3.160543	VBD -RRB-	-0.01429558
-1.73322	VBD .	-0.2120037
-2.478173	VBD :	-0.5161649
-2.119151	VBD CC	-0.3664489
-1.856808	VBD CD	-0.8899428
-0.7423459	VBD DT	-0.2207866
-3.25072	VBD EX	-0.1455194
-0.8152924	VBD IN	-0.4820575
-1.10507	VBD JJ	0.06700468
-2.152476	VBD JJR	-0.3344316
-3.410421	VBD JJS	-0.314821
-3.188572	VBD MD	-0.4781365
-1.395714	VBD NN	-0.03241253
-1.593076	VBD NNP	-0.3633513
-3.042444	VBD NNPS	-0.1894093
-1.68797	VBD NNS	-0.1744176
-3.022241	VBD PDT	1.146132
-1.553759	VBD PRP	0.3660197
-1.56326	VBD PRP$	-0.2139261
-0.9384777	VBD RB	-0.9635882
-2.400876	VBD RBR	0.3336592
-3.188572	VBD RBS	0.2022718
-1.770271	VBD RP	-0.2541292
-1.113512	VBD TO	-0.387718
-4.063633	VBD UH
-2.289117	VBD VB	-0.2817726
-2.692566	VBD VBD	-0.453482
-1.670058	VBD VBG	-0.0228945
-0.9547304	VBD VBN	-0.3793712
-3.519566	VBD VBP	-0.04268824
-3.188572	VBD VBZ	-0.2385873
-4.063633	VBD WDT
-2.873302	VBD WP	-0.2484023
-2.405622	VBD WRB	-0.6870058
-3.042444	VBD ``	-0.1316279
-2.937267	VBG $	0.6866554
-3.473912	VBG ''	-0.1260471
-1.751631	VBG ,	-0.3571531
-3.238297	VBG -LRB-	-0.06823668
-3.335207	VBG -RRB-	-0.1574114
-1.773907	VBG .	0.03960907
-2.636237	VBG :	0.1605
-4.113358	VBG </s>
-1.950495	VBG CC	-0.2765423
-2.191672	VBG CD	-0.6571857
-0.7143773	VBG DT	0.1376226
-4.414388	VBG EX
-4.414388	VBG FW
-0.91087	VBG IN	-0.03244805
-0.9779077	VBG JJ	-0.620699
-2.079935	VBG JJR	-0.2751242
-3.715418	VBG JJS	-0.6008705
-4.414388	VBG LS
-2.937267	VBG MD	0.1568321
-0.8517386	VBG NN	-0.3139164
-1.45774	VBG NNP	-0.03065896
-3.135635	VBG NNPS	-0.1643597
-0.9825423	VBG NNS	-0.06462646
-2.834605	VBG PDT	0.1635301
-1.591567	VBG PRP	0.133895
-1.463051	VBG PRP$	-0.04564667
-1.394027	VBG RB	0.09177923
-2.380965	VBG RBR	-0.05569541
-3.715418	VBG RBS	0.192689
-1.697551	VBG RP	-0.1772822
-1.194804	VBG TO	-0.1823301
-3.183939	VBG VB	-0.3071541
-2.791139	VBG VBD	-0.2752504
-2.615048	VBG VBG	-0.3807034
-1.569911	VBG VBN	0.06664371
-3.26826	VBG VBP	-0.1506983
-2.464998	VBG VBZ	-0.09905452
-3.56929	VBG WDT	-0.3663987
-2.545157	VBG WP	-0.3739181
-4.414388	VBG WP$
-2.681995	VBG WRB	-0.2239232
-3.135635	VBG ``	-0.2531609
-3.275813	VBN $	0.9227446
-3.552019	VBN ''	-0.3574264
-1.291418	VBN ,	-0.1095271
-2.872793	VBN -LRB-	-0.5089455
-2.843504	VBN -RRB-	-0.1776913
-1.170403	VBN .	-0.2770386
-2.21846	VBN :	-0.190703
-3.904202	VBN </s>
-1.739849	VBN CC	-0.2748225
-2.270733	VBN CD	-0.6225607
-1.157178	VBN DT	-0.3238436
-3.900435	VBN EX
-4.506261	VBN FW
-0.4602348	VBN IN	-0.05489993
-1.254867	VBN JJ	-0.4436191
-2.366382	VBN JJR	-0.1763163
-3.900435	VBN JJS	-0.741527
-2.781986	VBN MD	-0.1417881
-1.257553	VBN NN	-0.2083722
-1.82502	VBN NNP	-0.1089727
-3.275813	VBN NNPS	-0.2492396
-1.508875	VBN NNS	-0.3143489
-3.33017	VBN PDT	0.5391936
-2.118872	VBN PRP	0.6180904
-1.947553	VBN PRP$	0.0544312
-1.245475	VBN RB	-1.437498
-2.33017	VBN RBR	-0.4795085
-3.275813	VBN RBS	0.434642
-1.772262	VBN RP	-0.1791488
-0.9607069	VBN TO	-0.2118275
-3.163839	VBN VB	-0.2490559
-2.834164	VBN VBD	0.0254674
-1.89988	VBN VBG	-0.4002159
-1.435116	VBN VBN	-0.8987781
-2.904202	VBN VBP	-0.2971375
-2.457043	VBN VBZ	-0.1082366
-3.464869	VBN WDT	-0.008030415
-3.360133	VBN WP	-0.1999657
-2.571763	VBN WRB	-0.1707176
-3.091288	VBN ``	-0.02166235
-3.454728	VBP $	1.446547
-3.696234	VBP ''	-0.1350247
-1.613449	VBP ,	-0.1461793
-3.316023	VBP -LRB-	-0.3572493
-3.440962	VBP -RRB-	-0.1216959
-1.716686	VBP .	0.05216086
-2.751751	VBP :	-0.03985348
-3.454728	VBP </s>
-2.277933	VBP CC	-0.4630233
-2.196547	VBP CD	-0.6961559
-0.9528811	VBP DT	0.1551423
-3.164755	VBP EX	-0.2671446
-4.094174	VBP FW
-0.9359624	VBP IN	-0.02800345
-0.9322074	VBP JJ	-0.5847442
-2.011389	VBP JJR	-0.3819141
-3.219113	VBP JJS	-0.4816948
-2.87669	VBP MD	0.1154393
-1.3642	VBP NN	0.2817323
-2.027848	VBP NNP	-0.3840221
-3.116451	VBP NNPS	-0.198864
-1.589024	VBP NNS	0.3160946
-3.249076	VBP PDT	0.5672224
-1.617777	VBP PRP	0.2110646
-1.867574	VBP PRP$	0.02901816
-0.7936873	VBP RB	-1.102024
-2.029716	VBP RBR	-0.4346873
-3.014993	VBP RBS	0.4364403
-2.239868	VBP RP	0.5322261
-1.158667	VBP TO	-0.7254647
-3.789377	VBP UH
-2.36178	VBP VB	-0.2224406
-3.249076	VBP VBD	-0.1860552
-1.304946	VBP VBG	-0.1671934
-0.8036942	VBP VBN	-0.1520829
-2.948046	VBP VBP	-0.2487722
-2.455685	VBP VBZ	-0.2104261
-3.696234	VBP WDT	-0.2918545
-2.713963	VBP WP	0.4139716
-2.713963	VBP WRB	-0.1049562
-3.316023	VBP ``	-0.06815349
-3.297256	VBZ $	0.7978059
-4.357954	VBZ ''
-1.751572	VBZ ,	0.09108174
-3.428535	VBZ -LRB-	-0.5097688
-3.336765	VBZ -RRB-	-0.08823541
-2.044087	VBZ .	-0.2674762
-2.783923	VBZ :	-0.03121775
-3.755894	VBZ </s>
-2.423455	VBZ CC	-0.3125611
-1.978648	VBZ CD	-0.5630938
-0.8555267	VBZ DT	-0.9522884
-3.067919	VBZ EX	-0.6518052
-3.960014	VBZ FW	-0.2095971
-1.028149	VBZ IN	0.2269633
-0.8325204	VBZ JJ	-0.2412798
-2.14047	VBZ JJR	-0.2078749
-2.280586	VBZ JJS	-0.7696629
-3.14047	VBZ MD	0.0291183
-1.014742	VBZ NN	-0.2878461
-1.662035	VBZ NNP	-0.3807218
-3.181863	VBZ NNPS	-0.008740574
-1.520365	VBZ NNS	-0.3985338
-2.960014	VBZ PDT	0.04434359
-1.938825	VBZ PRP	0.03318846
-2.048324	VBZ PRP$	-0.08842206
-0.8314854	VBZ RB	-1.13382
-2.214939	VBZ RBR	-0.09162462
-2.460327	VBZ RBS	-0.0596453
-2.471463	VBZ RP	0.006361127
-1.314199	VBZ TO	-0.4035664
-2.500621	VBZ VB	-0.07090867
-3.297256	VBZ VBD	-0.1657692
-1.409297	VBZ VBG	-0.05706954
-0.8959305	VBZ VBN	0.2219107
-3.38023	VBZ VBP	-0.05338871
-2.807725	VBZ VBZ	-0.3074489
-3.718508	VBZ WDT	-0.2228558
-2.565562	VBZ WP	-0.7596452
-2.166224	VBZ WRB	-0.8228586
-3.579803	VBZ ``	-0.01020427
-1.979867	WDT ,	-1.055909
-3.678837	WDT -LRB-
-3.377807	WDT .	0.9101577
-3.076777	WDT CC	-0.2230255
-2.474717	WDT CD	-0.09031391
-1.438288	WDT DT	-0.2856326
-2.865924	WDT EX	0.1073601
-3.37404	WDT FW	-0.3068198
-1.930649	WDT IN	-0.616946
-1.495567	WDT JJ	-0.5671582
-2.657648	WDT JJR	-0.07452029
-3.025625	WDT JJS	-0.3368086
-0.9341528	WDT MD	-0.2507669
-1.433324	WDT NN	-0.373233
-1.351478	WDT NNP	-1.051422
-2.599656	WDT NNPS	-0.4141246
-1.510045	WDT NNS	-0.09022403
-3.134769	WDT PDT	0.8402237
-1.49986	WDT PRP	-1.41324
-2.255591	WDT PRP$	-0.3710568
-1.395536	WDT RB	-1.025382
-3.37404	WDT RBR
-3.37404	WDT RBS	-0.335575
-2.448388	WDT TO	-1.503881
-3.025625	WDT VB	-0.1969965
-0.8365398	WDT VBD	-0.0664134
-2.400083	WDT VBG	-0.1158467
-3.377807	WDT VBN
-0.7435817	WDT VBP	-0.1374841
-0.5964106	WDT VBZ	-0.2713578
-3.377807	WDT WDT	-0.5594927
-3.678837	WDT WP
-3.37404	WDT WRB
-1.868328	WP ,	-0.4793095
-3.283301	WP -LRB-
-3.584331	WP -RRB-
-2.643855	WP .	0.6166219
-2.982271	WP CC
-2.50515	WP CD	-0.3471617
-1.281135	WP DT	-0.3221967
-3.283301	WP EX
-1.660052	WP IN	-0.2649853
-1.828456	WP JJ	-0.4676328
-2.978505	WP JJR	-0.2045736
-2.885361	WP JJS	-0.3222087
-1.09297	WP MD	0.003905416
-1.62529	WP NN	0.05253828
-1.639849	WP NNP	-0.7057437
-2.681241	WP NNPS	-0.1349508
-1.660052	WP NNS	0.02369487
-2.978505	WP PDT	0.9282292
-1.012622	WP PRP	-1.11738
-2.152967	WP PRP$	-0.5873928
-1.519873	WP RB	-1.087566
-3.584331	WP RBS
-2.079181	WP TO	-1.092584
-2.739233	WP VB	-0.1869888
-0.7373759	WP VBD	-0.07493591
-2.978505	WP VBG
-2.681241	WP VBN	-0.1126357
-0.6513504	WP VBP	-0.3087143
-0.746112	WP VBZ	0.04714251
-2.982271	WP WDT
-3.584331	WP ``
-2.220108	WP$ IN	-0.6954459
-0.6180481	WP$ JJ	-0.8473651
-2.521138	WP$ JJS
-0.4207675	WP$ NN	-0.6427286
-1.67604	WP$ NNP	-0.08694647
-2.521138	WP$ NNPS
-0.5255029	WP$ NNS	-0.5692943
-1.822168	WP$ RB	-0.3021826
-2.521138	WP$ RBS
-1.822168	WP$ VBG	-0.1264907
-2.521138	WP$ VBN
-2.521138	WP$ VBP
-2.521138	WP$ VBZ
-2.521138	WP$ ``
-1.645738	WRB ,	-0.5048779
-3.694956	WRB -LRB-
-3.694956	WRB -RRB-
-2.126754	WRB .	-0.2201097
-3.393926	WRB :	-0.7150238
-2.393926	WRB CC	-0.5994638
-2.051503	WRB CD	-0.3053114
-0.6559387	WRB DT	-0.6065993
-2.150888	WRB EX	-0.3288106
-3.694956	WRB FW
-2.464507	WRB IN	-0.4774282
-0.8780522	WRB JJ	-0.1867417
-2.518865	WRB JJR	-0.05375391
-2.694956	WRB JJS	-0.5093629
-1.446983	WRB MD	-1.114853
-1.173818	WRB NN	-0.8066511
-1.110625	WRB NNP	-1.064252
-2.314745	WRB NNPS	-0.5560571
-1.184411	WRB NNS	-0.913685
-2.849858	WRB PDT	0.8402237
-0.7727497	WRB PRP	-1.254303
-1.750473	WRB PRP$	-0.2854279
-1.496299	WRB RB	-0.1597525
-3.089129	WRB RBR	-0.3380115
-2.740714	WRB RBS	0.3900405
-1.432505	WRB TO	-1.511354
-2.694956	WRB VB	-0.2335839
-2.247798	WRB VBD	-0.429251
-1.786471	WRB VBG	0.005372226
-1.708184	WRB VBN	-0.3330346
-1.791866	WRB VBP	-0.8631881
-1.797329	WRB VBZ	-0.9967927
-3.393926	WRB WDT
-3.089129	WRB WP
-3.694956	WRB ``
-2.345511	`` CC	-0.3324508
-1.837394	`` CD	-0.4509047
-1.360273	`` DT	0.1845887
-2.951338	`` EX
-2.650307	`` FW
-1.80521	`` IN	0.01335496
-0.5135869	`` JJ	-0.5931539
-2.650307	`` JJR
-2.345511	`` JJS	-0.6879855
-2.650307	`` MD
-0.6395836	`` NN	-0.6068536
-1.016839	`` NNP	-0.3971772
-2.650307	`` NNPS
-1.112488	`` NNS	-0.6832685
-2.951338	`` PDT
-1.459976	`` PRP	-0.3724236
-2.345511	`` PRP$	-0.1195022
-1.519974	`` RB	-0.1975786
-2.650307	`` RBR	-0.4504999
-2.951338	`` RBS
-2.650307	`` TO
-1.872156	`` UH	-0.4490846
-1.48894	`` VB	-0.1550889
-2.010862	`` VBD	-0.1220765
-1.58961	`` VBG	-0.1927876
-1.80521	`` VBN	-0.4655247
-2.345511	`` VBP
-2.345511	`` VBZ	-0.2823164
-2.252367	`` WP	-0.3098834
-2.010862	`` WRB	-0.3379766

\3-grams:
-0.07215707	-LRB- # CD	-0.3370018
-0.04139268	, $ CD	-0.09204668
-0.01378828	-LRB- $ CD	-0.48579
-0.03778856	: $ CD	0.2859575
-0.2590151	<s> $ DT
-0.0234811	CC $ CD	0.04946131
-0.004237053	DT $ CD	-0.4390672
-0.001235547	IN $ CD	0.005490422
-0.00914338	JJ $ CD	-0.1329286
-0.07215707	JJS $ CD	-0.03824812
-0.05799195	NN $ CD	0.1092919
-0.08915128	NNP $ CD	-0.08284372
-0.1111343	NNS $ CD	0.3359463
-0.08292382	PRP $ CD
-0.05799195	PRP$ $ CD	0.1092919
-0.004364805	RB $ CD	-0.3385891
-0.00914338	TO $ CD	-0.1907667
-0.01099538	VB $ CD	-0.3620783
-0.01189922	VBD $ CD	0.002065539
-0.01424044	VBG $ CD	-0.04662961
-0.02482358	VBN $ CD	-0.6483492
-0.08915128	VBP $ CD	0.4894415
-0.01848341	VBZ $ CD	-0.2417277
-0.7814289	, '' CC	0.1199636
-0.8228216	, '' DT	-0.09392422
-0.9197317	, '' IN	0.04486743
-1.905746	, '' JJ
-1.169609	, '' NNP	-0.1891821
-1.718887	, '' NNS
-1.220762	, '' PRP	-0.2275367
-1.434852	, '' RB	-0.1335159
-1.536016	, '' VBD	-0.5208862
-1.434852	, '' VBG	-0.04679087
-1.718887	, '' VBN	0.2949986
-1.434852	, '' VBZ	-0.09528823
-1.04467	, '' WDT	0.1734218
-1.905746	, '' WP
-1.220762	, '' ``	-0.2735452
-1.90679	. '' -RRB-	-0.1130747
-0.02619655	. '' </s>
-0.5600451	CD '' VBG	-0.4250912
-1.581807	JJ '' -LRB-
-1.768666	JJ '' -RRB-
-1.768666	JJ '' :
-1.141674	JJ '' CC	-0.006141365
-1.032529	JJ '' IN	-0.01946897
-1.032529	JJ '' JJ	-0.3460692
-0.4069881	JJ '' NN	0.01610845
-1.032529	JJ '' NNP	-0.1305685
-0.8728284	JJ '' NNS	0.02688232
-1.487845	NN '' -LRB-	-0.03656013
-1.487845	NN '' .	0.1918855
-1.068716	NN '' :	-0.0434514
-1.276992	NN '' CC	0.002056435
-0.545837	NN '' IN	0.007870257
-1.985971	NN '' JJ	-0.2372151
-1.436693	NN '' MD	0.4572464
-1.135663	NN '' NN	0.01186877
-1.311754	NN '' NNS	0.01369786
-2.172829	NN '' PRP
-1.985971	NN '' RB
-1.436693	NN '' TO	0.02487203
-1.985971	NN '' VB
-1.276992	NN '' VBD	-0.09513479
-2.172829	NN '' VBN	0.03487861
-2.172829	NN '' VBP
-0.8857851	NN '' VBZ	-0.02254498
-1.390935	NN '' WDT	-0.1887992
-1.276277	NNP '' -LRB-
-1.463135	NNP '' .
-1.093405	NNP '' CC	-0.102185
-1.093405	NNP '' IN
-0.9922413	NNP '' NN	-0.2143674
-1.276277	NNP '' NNP
-1.463135	NNP '' RB
-1.093405	NNP '' TO	-0.02793898
-1.276277	NNP '' VBD	-0.229989
-0.9922413	NNP '' VBZ	-0.06113903
-0.8702087	NNS '' :	-0.05674121
-1.104292	NNS '' CC	-0.2821794
-0.6271707	NNS '' IN	-0.03884631
-1.731284	NNS '' JJ	-0.4973351
-1.544426	NNS '' MD	-0.01678252
-1.544426	NNS '' NN	-0.2505584
-1.361554	NNS '' RB	-0.1035202
-1.544426	NNS '' TO	-0.03599469
-1.473724	NNS '' VBD
-1.731284	NNS '' VBG
-1.0463	NNS '' VBN	0.1795653
-1.731284	NNS '' VBP
-1.544426	NNS '' VBZ	-0.1947118
-1.104292	NNS '' WDT	-0.00159055
-0.6849838	RB '' NN
-0.6849838	RB '' VBD
-0.2590151	UH '' TO
-0.5492783	VB '' IN	-0.03841867
-0.7361363	VB '' NN
-0.1970958	VBD '' IN	-0.2663017
-0.5600451	VBG '' DT	-0.2381227
-0.5492783	VBN '' DT
-0.7361363	VBN '' IN
-0.7361363	VBN '' JJ
-0.4808638	VBP '' NN
-0.615424	-RRB- , CC	0.03129947
-1.995635	-RRB- , CD	-0.07688197
-0.8769454	-RRB- , DT	-0.01724207
-2.252898	-RRB- , EX	-0.02466238
-1.177975	-RRB- , IN	0.1025903
-1.272532	-RRB- , JJ	-0.1853414
-2.151733	-RRB- , MD	-0.1875834
-1.309254	-RRB- , NN	-0.1466008
-1.272532	-RRB- , NNP	0.06759578
-1.840733	-RRB- , NNS	0.02125131
-1.409369	-RRB- , PRP	0.3814754
-2.435769	-RRB- , PRP$	-0.1601343
-1.187521	-RRB- , RB	-0.1262761
-2.622627	-RRB- , TO
-2.622627	-RRB- , VB
-1.664642	-RRB- , VBD	-0.112025
-1.460522	-RRB- , VBG	0.1222365
-1.518514	-RRB- , VBN	-0.3644341
-1.937643	-RRB- , VBP	-0.2009863
-1.498311	-RRB- , VBZ	-0.04481652
-1.108339	-RRB- , WDT	0.01259387
-1.840733	-RRB- , WP	-0.09538758
-2.365067	-RRB- , WP$	-0.2422784
-2.151733	-RRB- , WRB	-0.06044333
-2.622627	-RRB- , ``
-0.3839538	: , NNP
-0.9172551	<s> , DT
-1.104113	<s> , RB
-1.104113	<s> , VBD
-0.9172551	<s> , VBZ
-0.9172551	<s> , WDT	-0.2164688
-2.699864	CC , CC	-0.2057227
-2.201738	CC , CD	-0.3307369
-2.25973	CC , DT	-0.07862061
-0.2257325	CC , IN	-0.5311003
-2.104828	CC , JJ	-0.1738877
-2.25973	CC , JJR	-0.4700502
-2.201738	CC , JJS	-0.2740706
-2.415828	CC , NN	0.05197351
-2.516993	CC , NNS	-0.4508626
-2.516993	CC , PRP	-0.1681797
-0.7282515	CC , RB	-0.6666588
-1.548526	CC , RBR	-1.4024
-2.063436	CC , RBS	0.0919593
-1.548526	CC , TO	-0.4001006
-2.516993	CC , UH	-0.4672078
-2.886722	CC , VBD
-1.548526	CC , VBG	-0.7950782
-1.397258	CC , VBN	-0.3133107
-2.25973	CC , WDT	-0.1289128
-1.627707	CC , WRB	-0.2052923
-0.91394	CD , CC	-0.07652879
-1.153973	CD , CD	-0.4258299
-0.7626722	CD , DT	-0.2155921
-2.139249	CD , EX	-0.2746698
-0.9951942	CD , IN	-0.1450741
-1.423246	CD , JJ	-0.3871822
-2.139249	CD , JJR	-1.011408
-2.62634	CD , JJS	-0.02666855
-1.972918	CD , MD	-0.3225843
-1.643243	CD , NN	-0.5927917
-0.9333234	CD , NNP	0.1309849
-2.839674	CD , NNPS	-0.4287139
-1.771272	CD , NNS	-0.2888708
-2.910376	CD , PDT	1.110703
-1.298307	CD , PRP	0.4105181
-2.236159	CD , PRP$	-0.03156778
-1.285957	CD , RB	0.1023647
-2.014311	CD , TO	-0.01061648
-2.62634	CD , VB	-0.1630995
-1.692091	CD , VBD	0.05993003
-1.470242	CD , VBG	0.1619568
-1.81019	CD , VBN	-0.2651784
-2.139249	CD , VBP	-0.1194901
-1.582947	CD , VBZ	-0.1389839
-1.625144	CD , WDT	-0.463407
-2.727505	CD , WP	-0.1107895
-1.239794	CD , WRB	-0.3547363
-1.217776	DT , CC	-0.1354263
-2.283153	DT , CD	-0.08160874
-0.7570454	DT , DT	-0.1423013
-1.791808	DT , EX	0.2654018
-0.7918076	DT , IN	-0.2404346
-1.258205	DT , JJ	0.08419186
-2.283153	DT , JJR	0.01934542
-2.466025	DT , JJS	-0.154094
-1.870989	DT , MD	0.3081605
-1.352475	DT , NN	-0.2013577
-1.122801	DT , NNP	-0.1771168
-2.395323	DT , NNPS	-0.05276984
-1.379627	DT , NNS	-0.1606384
-0.9519107	DT , PRP	0.3103981
-2.652883	DT , PRP$	-0.4202543
-1.078597	DT , RB	-0.3584359
-2.652883	DT , RBR
-2.652883	DT , TO	-0.07135603
-2.395323	DT , VB
-1.829596	DT , VBD	-0.3016029
-1.490778	DT , VBG	-0.175308
-1.967899	DT , VBN	0.1276677
-2.181989	DT , VBP	-0.1462282
-1.615716	DT , VBZ	-0.08725107
-1.916746	DT , WDT	0.05844253
-1.916746	DT , WP	-0.523836
-1.967899	DT , WRB	-0.2880713
-1.281396	FW , CC
-1.651126	FW , CD
-0.5904781	FW , DT	0.2030732
-0.827839	FW , IN	-0.05940234
-1.024134	FW , JJ	0.1518869
-1.281396	FW , NN	-0.08918548
-1.651126	FW , NNS	-0.5381106
-1.281396	FW , PRP	-0.339399
-1.651126	FW , PRP$
-1.651126	FW , RB
-1.464267	FW , TO	0.1887639
-1.651126	FW , VB
-1.651126	FW , ``	-0.463432
-1.097553	IN , CC	-0.05597907
-1.984849	IN , CD	-0.4335799
-1.186494	IN , DT	-0.236935
-2.61184	IN , EX	-0.217007
-0.3428083	IN , IN	-0.1242597
-1.551193	IN , JJ	-0.2488016
-2.424983	IN , MD	-0.2676093
-1.829947	IN , NN	-0.007172599
-1.716003	IN , NNP	-0.08378903
-1.984849	IN , NNS	-0.1657281
-1.653855	IN , PRP	0.5387419
-2.242111	IN , PRP$	0.1479058
-1.044617	IN , RB	-0.6027248
-2.424983	IN , TO	-0.1773748
-1.097553	IN , VB	-0.8832778
-1.432007	IN , VBG	0.0757224
-1.788554	IN , VBN	-0.002702922
-2.354281	IN , VBZ	-0.1145988
-1.984849	IN , WDT	-0.08870108
-2.242111	IN , WP	-0.3580628
-1.716003	IN , WRB	-0.3242364
-2.61184	IN , ``
-2.648005	JJ , ''	-0.02438807
-0.5949265	JJ , CC	0.02054977
-2.485278	JJ , CD	-0.05100058
-1.170884	JJ , DT	-0.09328401
-2.227	JJ , EX	1.176028
-0.9388893	JJ , IN	-0.1860234
-0.6719469	JJ , JJ	-0.4739654
-2.648005	JJ , JJR	-0.2088123
-2.786308	JJ , JJS	0.1201132
-2.008157	JJ , MD	0.2412987
-1.417556	JJ , NN	0.1148258
-1.613851	JJ , NNP	-0.2691576
-3.101562	JJ , NNPS	-0.1949047
-1.744915	JJ , NNS	0.2690623
-3.471292	JJ , PDT	1.216722
-1.458949	JJ , PRP	-0.2174262
-2.274424	JJ , PRP$	-0.01994109
-1.109614	JJ , RB	0.1133949
-2.121196	JJ , RBR	-0.7157163
-2.045945	JJ , TO	-0.1514203
-2.212276	JJ , VB	-0.09498826
-2.109614	JJ , VBD	-0.02620363
-1.40384	JJ , VBG	-0.008058906
-1.754899	JJ , VBN	0.5664805
-2.388368	JJ , VBP	-0.1931534
-1.780913	JJ , VBZ	-0.0002111197
-2.055929	JJ , WDT	-0.5675722
-2.458949	JJ , WP	0.0691756
-3.471292	JJ , WP$
-2.367178	JJ , WRB	-0.1351474
-0.6789734	JJR , CC	-0.183875
-1.00228	JJR , DT	-0.06958324
-0.8186353	JJR , IN	-0.1482108
-1.134905	JJR , JJ	-0.07712632
-1.377943	JJR , JJR	-0.2398612
-1.326791	JJR , NN	-0.1677687
-1.876069	JJR , NNP
-1.876069	JJR , NNS	-0.2337247
-1.805367	JJR , PRP	-0.0879911
-1.025761	JJR , RB	-0.08914852
-1.076913	JJR , RBR	-0.9302423
-1.876069	JJR , TO	0.1887639
-1.201852	JJR , VBG	-0.002704591
-2.062927	JJR , VBN
-1.876069	JJR , VBZ
-2.062927	JJR , WDT
-1.389888	JJS , CC	-0.277386
-0.6555043	JJS , DT	0.04712608
-0.9363309	JJS , IN	-0.1908408
-1.389888	JJS , JJ	0.01297519
-1.389888	JJS , NN	-0.06643803
-0.8985423	JJS , NNP	-0.1371588
-1.759617	JJS , NNS
-1.023481	JJS , PRP	-0.01926479
-1.389888	JJS , RB	-0.166903
-1.502058	JJS , RBS	-0.5716792
-1.759617	JJS , TO	-0.07135603
-1.572759	JJS , VB
-1.572759	JJS , VBG	-0.2287136
-1.759617	JJS , VBZ
-1.759617	JJS , WDT
-1.09691	MD , CC	-0.2250276
-1.771127	MD , CD	-0.2153037
-1.588256	MD , DT	-0.07445523
-0.2952777	MD , IN	-0.4905292
-1.957985	MD , NNP
-1.588256	MD , PRP	-0.02002408
-0.6847296	MD , RB	-0.7879862
-1.771127	MD , VB
-1.771127	MD , VBG	-0.2282638
-1.957985	MD , VBN
-4.19289	NN , $	0.50224
-2.7208	NN , ''	0.04678422
-4.006032	NN , -LRB-	-0.1517271
-4.006032	NN , </s>
-0.7022357	NN , CC	0.2143939
-2.060748	NN , CD	-0.8728482
-0.9044914	NN , DT	-0.09196949
-2.105645	NN , EX	0.565341
-2.933875	NN , FW	0.1180176
-0.976747	NN , IN	0.4974391
-1.243384	NN , JJ	-0.219219
-2.424225	NN , JJR	-0.5420138
-2.694993	NN , JJS	-0.1799778
-1.8938	NN , MD	0.195807
-1.130646	NN , NN	-0.02349734
-1.222912	NN , NNP	0.1082835
-2.678603	NN , NNPS	-0.1168455
-1.634295	NN , NNS	-0.09215319
-3.132243	NN , PDT	0.4548448
-1.26892	NN , PRP	-0.2052057
-2.240735	NN , PRP$	0.110762
-1.115209	NN , RB	-0.1701443
-3.721997	NN , RBR	-0.070508
-3.93533	NN , RBS	-0.03607544
-2.139155	NN , TO	0.2395468
-2.167958	NN , VB	0.03945065
-1.769522	NN , VBD	0.1189073
-1.357918	NN , VBG	-0.06444335
-1.734303	NN , VBN	-0.04458499
-1.921038	NN , VBP	0.1196485
-1.613729	NN , VBZ	0.1383536
-1.431903	NN , WDT	0.02940679
-2.547673	NN , WP	0.3570634
-3.013057	NN , WP$	0.008021533
-2.078558	NN , WRB	0.02727628
-3.410996	NN , ``	-0.03613873
-3.82913	NNP , $	0.50224
-2.746206	NNP , ''	-0.1118908
-0.740168	NNP , CC	-0.3285381
-1.960876	NNP , CD	-0.07481873
-0.8425734	NNP , DT	-0.1550467
-2.365995	NNP , EX	0.900442
-3.005843	NNP , FW	-0.2918753
-1.052479	NNP , IN	-0.2985485
-1.651037	NNP , JJ	0.1714029
-3.005843	NNP , JJR	-0.1147577
-2.901108	NNP , JJS	-0.02113083
-1.994157	NNP , MD	-0.3958023
-1.714797	NNP , NN	-0.03977537
-0.6628825	NNP , NNP	0.1121008
-2.816787	NNP , NNPS	0.08276525
-2.038636	NNP , NNS	-0.06124967
-1.550306	NNP , PRP	-0.05194128
-2.375138	NNP , PRP$	-0.2086089
-1.275648	NNP , RB	-0.3686656
-3.4594	NNP , RBR
-3.642272	NNP , RBS	0.06186876
-2.276384	NNP , TO	-0.1956146
-2.901108	NNP , VB	-0.02479118
-1.500693	NNP , VBD	0.005850911
-1.600078	NNP , VBG	-0.372416
-1.871145	NNP , VBN	-0.4616378
-1.843116	NNP , VBP	0.008909702
-1.612667	NNP , VBZ	0.03693831
-1.405762	NNP , WDT	0.03447723
-1.777723	NNP , WP	-0.2957829
-2.172175	NNP , WP$	0.07596052
-1.685508	NNP , WRB	-0.4017137
-3.4594	NNP , ``	-0.388992
-2.627612	NNPS , ''
-0.7419143	NNPS , CC	0.2533218
-1.69959	NNPS , CD	-0.201323
-0.8043253	NNPS , DT	-0.3027811
-1.891476	NNPS , EX	-0.09905821
-1.053326	NNPS , IN	-0.1149032
-1.641598	NNPS , JJ	0.1134433
-2.00062	NNPS , MD	0.004874706
-1.845718	NNPS , NN	-0.3467579
-1.032805	NNPS , NNP	-0.8310558
-1.38332	NNPS , NNPS	-1.056426
-1.845718	NNPS , NNS	0.175765
-1.48399	NNPS , PRP	-0.3784363
-2.440754	NNPS , PRP$	-0.1492005
-1.164477	NNPS , RB	-0.004936039
-2.370052	NNPS , TO	-0.2799738
-2.370052	NNPS , VB	-0.3362455
-1.566964	NNPS , VBD	-0.05786046
-1.503295	NNPS , VBG	-0.05145451
-1.590446	NNPS , VBN	-0.6869887
-1.615269	NNPS , VBP	0.0001216531
-1.669627	NNPS , VBZ	-0.0493803
-1.641598	NNPS , WDT	-0.1369241
-1.414354	NNPS , WP	-0.1931027
-1.69959	NNPS , WP$	0.08003306
-1.942628	NNPS , WRB	-0.1075261
-2.567615	NNS , ''	-0.1172408
-3.718953	NNS , -LRB-
-3.648251	NNS , </s>
-0.6574942	NNS , CC	-0.1446569
-2.194498	NNS , CD	-0.3163866
-1.027007	NNS , DT	0.1998346
-2.317737	NNS , EX	0.4808176
-2.947826	NNS , FW	0.1055132
-1.006977	NNS , IN	-0.09662223
-1.160129	NNS , JJ	-0.2353708
-2.416347	NNS , JJR	-0.1931946
-2.661519	NNS , JJS	0.02211362
-1.878404	NNS , MD	-0.3675008
-1.290133	NNS , NN	-0.2019056
-1.495528	NNS , NNP	-0.2319463
-2.692553	NNS , NNPS	-0.0433917
-1.263579	NNS , NNS	-0.2458037
-3.044736	NNS , PDT	0.6419315
-1.371868	NNS , PRP	-0.2811263
-2.248856	NNS , PRP$	-0.2254833
-1.022514	NNS , RB	0.1192234
-3.905811	NNS , RBR
-3.169674	NNS , RBS	-0.6590985
-2.174527	NNS , TO	-0.02379477
-3.905811	NNS , UH	0.3359086
-2.204839	NNS , VB	-0.279127
-1.836115	NNS , VBD	-0.00767529
-1.19043	NNS , VBG	0.1157882
-1.779525	NNS , VBN	-0.2683752
-1.751005	NNS , VBP	0.1166375
-1.745519	NNS , VBZ	0.04684925
-1.460216	NNS , WDT	0.4495672
-2.052035	NNS , WP	-0.5004444
-2.676759	NNS , WP$	0.09883744
-2.063219	NNS , WRB	-0.1496351
-3.905811	NNS , ``
-1.035414	POS , CC	-0.07202784
-0.9342493	POS , DT	-0.01588491
-1.218285	POS , IN
-1.147583	POS , JJ	-0.0410639
-1.405143	POS , NN
-1.218285	POS , NNP
-1.218285	POS , PRP	-0.5522353
-1.405143	POS , PRP$
-1.218285	POS , RB
-1.405143	POS , VBD
-1.405143	POS , VBZ	-0.4973415
-1.405143	POS , WRB
-0.6916708	PRP , CC	0.2433138
-2.40728	PRP , CD
-0.8931666	PRP , DT	-0.08180118
-2.224409	PRP , EX	0.05116868
-0.8879654	PRP , IN	0.2432491
-1.698301	PRP , JJ	0.01858699
-1.733063	PRP , MD	0.01321471
-1.733063	PRP , NN	-0.3842956
-1.490025	PRP , NNP	-0.2081613
-2.594139	PRP , NNPS
-1.733063	PRP , NNS	0.0134355
-2.594139	PRP , PDT	1.216722
-1.178776	PRP , PRP	0.66903
-1.967147	PRP , PRP$	0.2608387
-0.8580022	PRP , RB	-0.3057464
-1.770852	PRP , TO	-0.1696811
-1.666117	PRP , VB	-0.1888268
-1.698301	PRP , VBD	-0.1494889
-1.293731	PRP , VBG	0.3400083
-2.40728	PRP , VBN
-1.556972	PRP , VBP	-0.09266108
-1.490025	PRP , VBZ	0.1930488
-2.123245	PRP , WDT	-0.01244128
-2.40728	PRP , WRB
-2.594139	PRP , ``
-3.720664	RB , $	0.50224
-3.463104	RB , ''	-0.1638468
-3.533806	RB , </s>
-1.273189	RB , CC	-0.0612433
-2.03568	RB , CD	-0.6187449
-0.6586469	RB , DT	0.1599722
-1.751249	RB , EX	0.1062098
-3.720664	RB , FW
-0.8224942	RB , IN	0.120795
-1.187491	RB , JJ	0.2579378
-2.394702	RB , JJR	-0.06002092
-2.596347	RB , JJS	-0.3637537
-1.798891	RB , MD	0.1200862
-1.384887	RB , NN	-0.0713104
-1.088124	RB , NNP	-0.233958
-2.43362	RB , NNPS	-0.3284574
-1.507406	RB , NNS	-0.2135336
-2.708321	RB , PDT	0.5006024
-1.074259	RB , PRP	-0.1546135
-1.979728	RB , PRP$	0.04885519
-1.154866	RB , RB	0.2300345
-3.533806	RB , RBR	-0.2500691
-2.660016	RB , RBS	0.4707304
-2.004271	RB , TO	0.1392487
-3.24977	RB , UH	0.1858795
-2.347705	RB , VB	-0.1238888
-1.947544	RB , VBD	0.2728446
-1.53223	RB , VBG	-0.07459486
-2.106261	RB , VBN	-0.07135975
-1.729255	RB , VBP	-0.1527052
-1.491612	RB , VBZ	-0.1196426
-2.2312	RB , WDT	-0.1340967
-2.61655	RB , WP	-0.07138908
-1.961046	RB , WRB	0.1719685
-3.533806	RB , ``
-0.9294189	RBR , CC	-0.1006267
-0.7745169	RBR , DT	0.04712528
-0.7745169	RBR , IN	-0.06823498
-1.487711	RBR , JJ	0.004386678
-1.599881	RBR , JJR	-0.7205117
-1.857441	RBR , NN
-1.857441	RBR , NNP	-0.5166579
-1.599881	RBR , NNS	-0.1769383
-1.121304	RBR , PRP	-0.2882587
-0.871427	RBR , RB	-0.06934053
-1.857441	RBR , VB
-1.857441	RBR , VBD
-1.172457	RBR , VBG	-0.1357985
-1.599881	RBR , VBN	-0.1536029
-1.599881	RBR , VBP
-0.771127	RBS , IN
-0.9579851	RBS , RB
-0.9579851	RBS , VBZ
-0.6488034	RP , CC	-0.006427437
-0.9631974	RP , DT	0.4913373
-1.949211	RP , EX
-0.8885638	RP , IN	-0.02913448
-1.478317	RP , JJ	0.03120678
-1.264227	RP , NN	-0.1294449
-1.949211	RP , NNP
-1.691651	RP , NNPS	-0.09444647
-1.579482	RP , NNS	-0.258964
-1.167317	RP , PRP	-0.2053344
-1.762353	RP , PRP$
-1.053374	RP , RB	-0.02302547
-1.691651	RP , VBD	-0.0912695
-1.125925	RP , VBG	-0.06269725
-1.762353	RP , VBZ	-0.1836579
-1.949211	RP , WDT
-0.4259687	TO , CC	-0.2567982
-0.9045453	TO , IN	-0.1219454
-1.162105	TO , RB	-0.4079149
-0.6912113	TO , VBP	-0.6688074
-1.330514	UH , CC	-0.1618716
-0.6600519	UH , DT	0.005334914
-1.218344	UH , EX	-0.1685109
-1.401216	UH , IN	-0.1284027
-1.330514	UH , JJ	-0.04209979
-1.330514	UH , NN	-0.1857144
-0.9610819	UH , NNP	-0.5562735
-1.401216	UH , NNS	-0.1998089
-0.8519375	UH , PRP	-0.378345
-1.588074	UH , RB
-1.588074	UH , VB
-0.6570559	VB , CC	-0.07144761
-1.850876	VB , CD	-0.1758503
-1.059361	VB , DT	-0.1808805
-2.151906	VB , EX	-0.3707802
-0.7539659	VB , IN	-0.02066314
-1.463931	VB , JJ	0.1244557
-2.650032	VB , JJR	-0.2748168
-1.850876	VB , MD	0.5418618
-1.475212	VB , NN	0.4247976
-1.382898	VB , NNP	0.3136046
-2.650032	VB , NNPS
-1.732777	VB , NNS	-0.197229
-1.203737	VB , PRP	-0.1414281
-2.209898	VB , PRP$	0.04074597
-0.934422	VB , RB	-0.1400206
-2.650032	VB , RBR
-2.054996	VB , TO	-0.5322033
-1.356026	VB , VB	-0.5477704
-2.57933	VB , VBD	-0.1249589
-1.262604	VB , VBG	-0.236053
-1.975815	VB , VBN	0.2847322
-2.365996	VB , VBP
-2.054996	VB , VBZ	-0.02310216
-1.941053	VB , WDT	-0.03886631
-2.83689	VB , WP
-2.151906	VB , WRB	-0.113702
-2.57933	VB , ``	-0.164009
-0.7663597	VBD , CC	-0.1105586
-2.410614	VBD , CD	-0.1809813
-0.9124877	VBD , DT	-0.007660091
-2.227742	VBD , EX	0.05116868
-0.7363965	VBD , IN	-0.1804948
-1.66945	VBD , JJ	-0.05542821
-2.597471	VBD , JJS
-1.774185	VBD , MD	0.1557894
-1.493358	VBD , NN	-0.1581725
-1.235794	VBD , NNP	-0.5454428
-1.815578	VBD , NNS	-0.1909138
-1.059703	VBD , PRP	0.615564
-1.97048	VBD , PRP$	0.1809815
-1.037426	VBD , RB	-0.3807794
-2.339912	VBD , TO	0.09081972
-1.97048	VBD , VB	-0.09126197
-1.473155	VBD , VBD	0.007683873
-1.284099	VBD , VBG	-0.206395
-2.339912	VBD , VBN	0.1664901
-1.912488	VBD , VBP	-0.3231709
-1.774185	VBD , VBZ	0.04579276
-2.339912	VBD , WDT
-2.410614	VBD , WP
-2.339912	VBD , WRB
-1.861335	VBD , ``	-0.1596533
-0.6253313	VBG , CC	0.07996899
-1.144244	VBG , DT	-0.4045617
-2.444652	VBG , EX
-0.8239087	VBG , IN	-0.0662123
-1.486667	VBG , JJ	-0.01812991
-1.973758	VBG , JJS	-0.02532005
-2.444652	VBG , MD	-0.03696901
-1.247784	VBG , NN	-0.2120804
-1.548815	VBG , NNP	-0.3327347
-1.583577	VBG , NNS	-0.2330429
-1.20036	VBG , PRP	0.9861981
-2.187092	VBG , PRP$	-0.1291223
-0.9551877	VBG , RB	-0.01275176
-2.257794	VBG , RBS	-0.30427
-2.257794	VBG , TO
-1.973758	VBG , VB	-0.1065925
-1	VBG , VBG	0.03269166
-1.708515	VBG , VBZ	-0.3408042
-1.759668	VBG , WDT	-0.2065006
-2.187092	VBG , WP	-0.08413845
-2.444652	VBG , WRB
-2.80988	VBN , ''	-0.2662045
-0.5988938	VBN , CC	-0.002364874
-2.311754	VBN , CD	-0.1315594
-0.9767978	VBN , DT	-0.1376071
-2.173451	VBN , EX	0.08163163
-0.8032241	VBN , IN	0.2766047
-1.280345	VBN , JJ	0.1832063
-2.739178	VBN , JJR	-0.2122937
-2.739178	VBN , JJS
-1.767686	VBN , MD	-1.070619
-1.581375	VBN , NN	-0.3052239
-1.709694	VBN , NNP	-0.3044014
-2.80988	VBN , NNPS	-0.5488296
-1.612784	VBN , NNS	-0.4991797
-1.241716	VBN , PRP	-0.409767
-2.068716	VBN , PRP$	0.5079129
-1.018944	VBN , RB	0.04802322
-2.1009	VBN , TO	-0.206063
-2.369746	VBN , VB	-0.1028744
-1.892624	VBN , VBD	0.04336217
-1.375995	VBN , VBG	-0.2460082
-1.422452	VBN , VBN	-0.1057445
-1.913814	VBN , VBP	-0.09179506
-1.646642	VBN , VBZ	0.3605388
-1.853116	VBN , WDT	-0.4881801
-2.739178	VBN , WP	-0.08413845
-2.369746	VBN , WRB	-0.2576124
-2.996738	VBN , ``
-2.376791	VBP , $	0.3962212
-2.563649	VBP , ''
-0.8732703	VBP , CC	-0.1826392
-2.306089	VBP , CD	-0.1270593
-0.822714	VBP , DT	-0.1951771
-2.19392	VBP , EX	0.05116868
-0.6514216	VBP , IN	-0.08343565
-1.383815	VBP , JJ	-0.09683329
-1.551306	VBP , MD	-0.1216409
-1.781755	VBP , NN	-0.1971378
-1.439333	VBP , NNP	0.2373074
-1.605664	VBP , NNS	-0.290574
-1.304634	VBP , PRP	0.7426298
-2.092755	VBP , PRP$	-0.2145535
-0.9304971	VBP , RB	-0.2960495
-1.878665	VBP , TO	0.07333064
-2.306089	VBP , VBD
-1.667812	VBP , VBG	-0.06970035
-2.19392	VBP , VBN	0.2119407
-1.439333	VBP , VBP	-0.3219145
-1.605664	VBP , VBZ	-0.1113945
-1.936657	VBP , WDT	-0.07725257
-1.878665	VBP , WRB	0.02710138
-1.009784	VBZ , CC	0.1827453
-2.502447	VBZ , CD
-0.8581933	VBZ , DT	-0.04451084
-2.319576	VBZ , EX	-0.142567
-0.6355698	VBZ , IN	-0.2364968
-1.375932	VBZ , JJ	-0.3642894
-2.431745	VBZ , JJR	-0.02610517
-1.676962	VBZ , MD	0.4399281
-1.492438	VBZ , NN	-0.07958469
-1.545684	VBZ , NNP	-0.5224748
-2.689305	VBZ , NNPS
-1.509471	VBZ , NNS	-0.2511824
-1.175018	VBZ , PRP	-0.7693106
-1.953169	VBZ , PRP$	-0.1607565
-0.8945742	VBZ , RB	-0.204861
-2.689305	VBZ , RBR
-2.004321	VBZ , TO	0.02707911
-1.866019	VBZ , VB	-0.2675716
-2.431745	VBZ , VBD
-1.492438	VBZ , VBG	0.01948431
-2.689305	VBZ , VBN
-1.82823	VBZ , VBP	-0.07111324
-1.402261	VBZ , VBZ	0.04621446
-1.907411	VBZ , WDT	-0.131206
-2.004321	VBZ , WP	-0.2558769
-2.431745	VBZ , WRB	-0.120488
-2.431745	VBZ , ``
-0.2676062	WDT , IN	-0.1242367
-1.781894	WDT , JJ	-0.5298706
-0.5850267	WDT , RB	-0.5191065
-1.154902	WDT , VBG	-0.4468625
-1.595036	WDT , VBN
-1.524334	WDT , WRB	-0.1781993
-1.497897	WP , CC
-0.2246417	WP , IN	0.0798772
-1.311039	WP , JJ
-1.027003	WP , RB	-0.2619576
-1.497897	WP , VBG
-1.497897	WP , WRB
-1.573552	WRB , CC	-0.3739317
-1.831112	WRB , DT
-0.350248	WRB , IN	-0.3094369
-1.831112	WRB , JJ
-1.644254	WRB , NNS	-0.5659476
-1.644254	WRB , PRP	-0.1345434
-0.544068	WRB , RB	-0.3784908
-1.461382	WRB , VB	-0.06961711
-1.573552	WRB , VBG	-0.478675
-1.831112	WRB , WRB	-0.529989
-0.8254848	'' -LRB- FW
-0.8254848	'' -LRB- JJ	-0.1921476
-0.8254848	'' -LRB- NN
-1.012343	'' -LRB- NNP
-0.7818938	, -LRB- DT
-0.5950358	, -LRB- NN	-0.1811719
-0.6332193	. -LRB- DT
-1.104113	. -LRB- IN
-0.8465533	. -LRB- NN	0.2732112
-1.104113	. -LRB- NNP
-0.9172551	. -LRB- RB
-1.104113	. -LRB- TO	-0.0272693
-0.2108534	: -LRB- LS	0.2218488
-0.8958372	: -LRB- RB	-0.5027888
-0.6347291	<s> -LRB- DT	0.3097172
-1.433885	<s> -LRB- EX	0.02913693
-0.7974564	<s> -LRB- IN	-0.2079906
-1.251013	<s> -LRB- JJ	-0.4141564
-1.363183	<s> -LRB- NN
-0.8846066	<s> -LRB- NNP	-0.2523338
-1.620743	<s> -LRB- NNPS
-1.149849	<s> -LRB- PRP	0.04682085
-1.149849	<s> -LRB- RB	-0.3117984
-0.8254848	CC -LRB- IN	-0.174787
-0.6426132	CC -LRB- LS	-0.1661777
-0.754783	CC -LRB- RB	-0.3406131
-0.6879746	CD -LRB- $	0.274701
-1.203095	CD -LRB- CC	-0.2955394
-0.6616457	CD -LRB- CD	-0.02410299
-0.9890046	CD -LRB- DT	0.2974693
-0.9890046	CD -LRB- IN	-0.2127434
-1.416429	CD -LRB- NN	-0.3480592
-1.416429	CD -LRB- NNP	-0.1457859
-1.673988	CD -LRB- PRP
-1.416429	CD -LRB- RB
-1.673988	CD -LRB- WDT	-0.2913682
-1.673988	CD -LRB- WRB
-1.060647	DT -LRB- CD	-0.3298931
-0.6909178	DT -LRB- JJ	-1.209302
-0.6909178	DT -LRB- NN	-0.8782695
-1.060647	DT -LRB- NNP
-1.060647	DT -LRB- RB
-0.2940058	FW -LRB- JJ	-0.1921476
-0.980366	IN -LRB- CC	-0.2413851
-1.163238	IN -LRB- DT	-0.2699848
-1.163238	IN -LRB- IN
-0.8792018	IN -LRB- JJ	-0.5568005
-0.980366	IN -LRB- NN	-0.8782695
-0.8792018	IN -LRB- NNP	-0.2213031
-1.350096	IN -LRB- NNS
-0.980366	IN -LRB- RB	-0.1489355
-0.5362427	JJ -LRB- CC	-0.5732191
-1.629648	JJ -LRB- CD	-0.3411371
-1.629648	JJ -LRB- DT	0.1229093
-1.629648	JJ -LRB- FW	0.3311673
-0.7861202	JJ -LRB- IN	-0.1308151
-0.7703259	JJ -LRB- JJ	-0.3600235
-1.999378	JJ -LRB- JJR
-1.138303	JJ -LRB- NN	0.2305676
-1.81252	JJ -LRB- NNS	0.2763752
-1.999378	JJ -LRB- PRP
-0.987035	JJ -LRB- RB	-0.2241229
-1.629648	JJ -LRB- VBG
-1.999378	JJ -LRB- VBN
-1.999378	JJ -LRB- WDT
-0.5492783	JJR -LRB- IN
-0.2590151	JJS -LRB- IN
-0.4981258	MD -LRB- CC	-0.2726319
-0.6849838	MD -LRB- IN
-0.6849838	MD -LRB- RB
-2.757326	NN -LRB- #	0.2759318
-2.387596	NN -LRB- $	1.040437
-2.757326	NN -LRB- </s>
-0.9931605	NN -LRB- CC	-0.2418498
-1.352183	NN -LRB- CD	-0.1238747
-0.9886601	NN -LRB- DT	-0.1260725
-2.130334	NN -LRB- FW	-0.06944942
-0.7795321	NN -LRB- IN	0.1234998
-1.276462	NN -LRB- JJ	-0.1430436
-2.757326	NN -LRB- JJR
-0.710614	NN -LRB- NN	-0.0278554
-1.294191	NN -LRB- NNP	0.0819124
-2.757326	NN -LRB- NNPS
-1.720159	NN -LRB- NNS	0.3943713
-1.975432	NN -LRB- PRP	0.06810895
-2.757326	NN -LRB- PRP$
-1.046013	NN -LRB- RB	-0.070427
-2.757326	NN -LRB- RBS
-1.861488	NN -LRB- VB	-0.06517029
-1.470282	NN -LRB- VBG	-0.0405311
-1.560458	NN -LRB- VBN	0.1076514
-1.40723	NN -LRB- WDT	-0.1795855
-2.499766	NN -LRB- WP
-2.757326	NN -LRB- WP$
-1.934039	NN -LRB- WRB	-0.08281614
-2.570468	NN -LRB- ``	-0.1391345
-1.956991	NNP -LRB- $	0.6398205
-1.086086	NNP -LRB- CC	-0.07785857
-1.189305	NNP -LRB- CD	-0.1657856
-1.222306	NNP -LRB- DT	-0.2510646
-2.583983	NNP -LRB- FW
-1.245787	NNP -LRB- IN	-0.06929219
-1.625998	NNP -LRB- JJ	-0.1606812
-2.583983	NNP -LRB- MD
-1.200029	NNP -LRB- NN	-0.3522958
-0.3337419	NNP -LRB- NNP	-0.361423
-1.802089	NNP -LRB- NNS	-0.4859847
-2.397125	NNP -LRB- PRP	-0.1377036
-1.310728	NNP -LRB- RB	-0.007266432
-2.397125	NNP -LRB- TO	0.2328506
-2.583983	NNP -LRB- UH
-1.760697	NNP -LRB- VBG	-0.08793005
-1.898999	NNP -LRB- VBN	0.05805418
-1.57164	NNP -LRB- WDT	-0.1905271
-1.956991	NNP -LRB- WP	-0.1039516
-2.397125	NNP -LRB- WP$
-2.113089	NNP -LRB- WRB	-0.1397042
-0.975247	NNPS -LRB- CC
-1.162105	NNPS -LRB- DT
-1.162105	NNPS -LRB- IN	-0.5282402
-0.7923755	NNPS -LRB- NN	-0.0007131696
-0.7923755	NNPS -LRB- RB	-0.1202063
-1.162105	NNPS -LRB- TO
-1.162105	NNPS -LRB- VBG
-2.380366	NNS -LRB- $	0.8599785
-1.014478	NNS -LRB- CC	-0.2881848
-1.463111	NNS -LRB- CD	0.6121432
-1.141877	NNS -LRB- DT	-0.1814269
-2.197494	NNS -LRB- FW	-0.546389
-0.8408471	NNS -LRB- IN	-0.3014821
-1.07776	NNS -LRB- JJ	0.1735834
-2.197494	NNS -LRB- JJR	-0.9620578
-1.162081	NNS -LRB- NN	0.04182315
-0.9657859	NNS -LRB- NNP	0.2364611
-1.014478	NNS -LRB- NNS	-0.1902509
-2.309664	NNS -LRB- PRP	-0.06584968
-2.380366	NNS -LRB- PRP$	-0.124753
-1.044967	NNS -LRB- RB	-0.1174586
-2.567224	NNS -LRB- TO	-0.0272693
-1.706149	NNS -LRB- VB	0.1366548
-2.567224	NNS -LRB- VBD
-1.266816	NNS -LRB- VBG	0.1439723
-1.743937	NNS -LRB- VBN	-0.288065
-1.293968	NNS -LRB- WDT	0.3966597
-2.380366	NNS -LRB- WP
-2.197494	NNS -LRB- WP$	-0.05835871
-2.380366	NNS -LRB- WRB	-0.2059694
-0.3839538	POS -LRB- NN	-0.07515311
-0.7991558	PRP -LRB- CC
-0.7284541	PRP -LRB- IN	-0.1686821
-0.7991558	PRP -LRB- JJ
-0.427424	PRP$ -LRB- JJ	-0.6148039
-0.6849838	PRP$ -LRB- NN	-0.07515311
-0.60206	RB -LRB- CC	-0.257594
-1.126394	RB -LRB- CD	-0.5385109
-1.383954	RB -LRB- DT
-0.6478175	RB -LRB- IN	-0.09298255
-1.383954	RB -LRB- NNP
-1.014224	RB -LRB- RB	-0.1127505
-1.383954	RB -LRB- VBG
-1.197096	RB -LRB- WDT	-0.2553303
-0.3839538	RP -LRB- IN
-0.5600451	TO -LRB- DT	-0.5301047
-0.5600451	TO -LRB- RB
-0.60206	VB -LRB- CC	-0.1737005
-1.287044	VB -LRB- DT	-0.3074191
-0.60206	VB -LRB- IN	-0.03726979
-1.100186	VB -LRB- JJ
-1.100186	VB -LRB- NN	-0.1811719
-1.287044	VB -LRB- VBG	-0.5268545
-0.4336556	VBD -LRB- CC	-0.06903289
-0.8737894	VBD -LRB- DT	-0.04729919
-0.6909178	VBD -LRB- IN	-0.114064
-1.060647	VBD -LRB- NN
-0.5882555	VBG -LRB- CC	-0.02299189
-0.9579851	VBG -LRB- IN
-0.9579851	VBG -LRB- NN
-0.9579851	VBG -LRB- NNP
-0.4873404	VBN -LRB- CC	-0.3151609
-1.415362	VBN -LRB- DT	-0.3074191
-0.5195251	VBN -LRB- IN	-0.0241051
-1.228504	VBN -LRB- NNP	0.1894312
-1.415362	VBN -LRB- NNS
-1.228504	VBN -LRB- PRP
-1.228504	VBN -LRB- RB	-0.2426689
-0.4913455	VBP -LRB- CC	-0.02299189
-0.861075	VBP -LRB- IN
-0.6035153	VBP -LRB- RB	-0.3717304
-1.012343	VBZ -LRB- CC
-0.3273589	VBZ -LRB- IN	-0.04456275
-0.6426132	VBZ -LRB- RB	-0.4283489
-0.6849838	'' -RRB- ,
-0.4981258	'' -RRB- .	0.6195033
-1.568164	. -RRB- ,
-1.385292	. -RRB- .	0.799962
-0.1406189	. -RRB- </s>
-1.568164	. -RRB- CC
-1.755022	. -RRB- DT	-0.2472661
-1.755022	. -RRB- IN
-1.755022	. -RRB- JJ
-1.755022	. -RRB- MD
-0.4910869	CD -RRB- ,	-0.01110464
-0.6423546	CD -RRB- .	-0.2916276
-1.022566	CD -RRB- CC	-0.1284452
-1.084714	CD -RRB- IN	-0.06126726
-1.980551	CD -RRB- JJ
-1.980551	CD -RRB- JJR	0.1071665
-1.722991	CD -RRB- MD	-0.2449533
-1.610821	CD -RRB- NN	-0.3855315
-1.610821	CD -RRB- TO
-1.295567	CD -RRB- VBD	-0.04254021
-1.610821	CD -RRB- VBP	0.002949104
-1.610821	CD -RRB- VBZ	-0.2169285
-1.980551	CD -RRB- WDT
-0.9172551	DT -RRB- ,
-1.104113	DT -RRB- .	0.7255221
-0.9172551	DT -RRB- IN	-0.2721724
-0.7343836	DT -RRB- JJ	-0.1846414
-1.104113	DT -RRB- NN
-1.104113	DT -RRB- VBD	-0.4328843
-0.5261076	FW -RRB- ,	-0.1161796
-0.8958372	FW -RRB- .
-0.8737894	IN -RRB- ,
-0.8030877	IN -RRB- .	0.5169043
-0.8030877	IN -RRB- DT	0.1010982
-0.8737894	IN -RRB- NN	-0.1998515
-0.8920946	JJ -RRB- ,	-0.2606957
-0.7459666	JJ -RRB- .	0.02163672
-1.386945	JJ -RRB- CC	-0.05936754
-1.335792	JJ -RRB- IN	-0.07801332
-1.210853	JJ -RRB- JJ	-0.1110278
-1.88507	JJ -RRB- MD	0.2566833
-0.5910646	JJ -RRB- NN	0.01786405
-1.814369	JJ -RRB- NNP	-0.1617343
-0.8920946	JJ -RRB- NNS	-0.122209
-2.071929	JJ -RRB- TO	-0.480286
-2.071929	JJ -RRB- VBD
-1.601035	JJ -RRB- VBP	-0.06411977
-1.386945	JJ -RRB- VBZ	-0.0006218255
-2.071929	JJ -RRB- WDT
-0.61203	JJR -RRB- .	0.5749077
-0.8253641	JJR -RRB- IN	-0.4206136
-0.7131943	JJR -RRB- NNS
-0.3024853	JJS -RRB- IN	-0.539765
-0.4336556	LS -RRB- DT	-0.1673351
-1.060647	LS -RRB- EX
-1.060647	LS -RRB- IN	-0.3311472
-1.060647	LS -RRB- JJ
-1.060647	LS -RRB- VB
-0.3694321	MD -RRB- ,
-0.6269919	MD -RRB- VB
-0.5660847	NN -RRB- ,	-0.05768621
-0.665729	NN -RRB- .	-0.214723
-1.768391	NN -RRB- :	-0.03651804
-2.539519	NN -RRB- </s>
-1.196295	NN -RRB- CC	-0.1762075
-2.726377	NN -RRB- CD
-1.865301	NN -RRB- DT	0.1953955
-1.041393	NN -RRB- IN	-0.06560564
-2.356647	NN -RRB- JJ	-0.1112762
-2.726377	NN -RRB- JJR	0.1071665
-1.482085	NN -RRB- MD	0.161702
-1.30103	NN -RRB- NN	0.2226126
-2.255483	NN -RRB- NNP	-0.1752433
-1.944483	NN -RRB- NNS	0.05462934
-2.539519	NN -RRB- PRP	-0.2199947
-1.665729	NN -RRB- RB	-0.1161132
-1.68921	NN -RRB- TO	-0.248015
-1.482085	NN -RRB- VBD	0.09811413
-2.255483	NN -RRB- VBG	-0.04238228
-2.726377	NN -RRB- VBN	-0.06203142
-1.497325	NN -RRB- VBP	-0.1538585
-1.152091	NN -RRB- VBZ	-0.1749563
-1.90309	NN -RRB- WDT	0.2496141
-2.255483	NN -RRB- WP	-0.08030443
-2.726377	NN -RRB- WRB
-0.5466455	NNP -RRB- ,	0.07040381
-0.7471613	NNP -RRB- .	-0.34714
-2.140947	NNP -RRB- :	-0.1178677
-1.105671	NNP -RRB- CC	-0.164933
-2.242111	NNP -RRB- DT	-0.2767484
-1.122377	NNP -RRB- IN	0.01153874
-2.140947	NNP -RRB- JJ	-0.05270585
-1.468219	NNP -RRB- MD	0.1739883
-1.683819	NNP -RRB- NN	-0.005679071
-1.716003	NNP -RRB- NNP	0.09621584
-1.829947	NNP -RRB- NNS	0.1285399
-2.61184	NNP -RRB- PRP
-1.788554	NNP -RRB- RB	0.004414007
-1.574674	NNP -RRB- TO	-0.1472822
-1.089584	NNP -RRB- VBD	0.2276138
-2.354281	NNP -RRB- VBG
-2.242111	NNP -RRB- VBN	0.3317834
-1.311433	NNP -RRB- VBP	-0.0004639626
-1.227887	NNP -RRB- VBZ	0.02889007
-1.829947	NNP -RRB- WDT	0.1954288
-0.4973246	NNPS -RRB- ,	0.02194916
-0.7545869	NNPS -RRB- .	0.799962
-0.9374585	NNPS -RRB- CC	-0.2567563
-1.124316	NNPS -RRB- IN
-1.124316	NNPS -RRB- VBD
-1.124316	NNPS -RRB- VBP
-0.6242908	NNS -RRB- ,	-0.01011956
-0.5825664	NNS -RRB- .	0.2154826
-1.745595	NNS -RRB- :	-0.03471511
-1.208476	NNS -RRB- CC	0.08319277
-2.112002	NNS -RRB- DT	-0.04146028
-1.056385	NNS -RRB- IN	0.2266642
-2.112002	NNS -RRB- JJ	-0.1196195
-1.25268	NNS -RRB- MD	0.313641
-1.85474	NNS -RRB- NN	-0.2492983
-2.224172	NNS -RRB- NNS	-0.2652749
-2.294873	NNS -RRB- PRP
-1.620656	NNS -RRB- RB	-0.09684328
-1.523746	NNS -RRB- TO	0.01161087
-1.444565	NNS -RRB- VBD	0.3057699
-2.224172	NNS -RRB- VBN	0.1001443
-1.208476	NNS -RRB- VBP	0.2087499
-1.357415	NNS -RRB- VBZ	0.1419474
-1.85474	NNS -RRB- WDT	-0.1253534
-2.481732	NNS -RRB- WP
-0.5740313	PRP -RRB- ,	-0.06117116
-0.7881213	PRP -RRB- .	0.5749077
-1.259015	PRP -RRB- CC
-1.259015	PRP -RRB- IN
-1.259015	PRP -RRB- MD
-1.001455	PRP -RRB- VBD	-0.1095825
-1.259015	PRP -RRB- VBP
-1.259015	PRP -RRB- VBZ
-0.8653014	RB -RRB- ,	-0.06915662
-0.7983546	RB -RRB- .	0.08858347
-1.726377	RB -RRB- CC
-1.468817	RB -RRB- DT	0.01900178
-0.90309	RB -RRB- IN	0.05663675
-1.099385	RB -RRB- JJ	-0.02907923
-1.468817	RB -RRB- MD	-0.6157469
-1.726377	RB -RRB- NN
-1.539518	RB -RRB- NNP
-1.726377	RB -RRB- NNS	-0.3802294
-1.726377	RB -RRB- PRP
-1.726377	RB -RRB- RB
-1.539518	RB -RRB- TO	-0.2252769
-1.726377	RB -RRB- VB
-1.356647	RB -RRB- VBD
-1.726377	RB -RRB- VBN	-0.06203142
-1.356647	RB -RRB- VBP	-0.2335146
-1.726377	RB -RRB- VBZ
-1.042194	VB -RRB- ,
-0.4057654	VB -RRB- .	0.3275821
-1.042194	VB -RRB- DT	-0.3532849
-0.9714921	VB -RRB- IN
-0.7991558	VBD -RRB- ,	-0.1584588
-0.51512	VBD -RRB- .	0.575493
-0.861075	VBG -RRB- JJ
-0.674217	VBG -RRB- NN	-0.5096138
-1.074922	VBN -RRB- ,	-0.0247639
-0.4866666	VBN -RRB- .	0.06055474
-1.444652	VBN -RRB- CC	-0.4628571
-1.444652	VBN -RRB- DT	-0.2472661
-0.7596679	VBN -RRB- IN	-0.186238
-1.444652	VBN -RRB- MD	-0.003436685
-1.444652	VBN -RRB- NNS
-1.187092	VBN -RRB- TO
-1.444652	VBN -RRB- VBZ
-0.5492783	VBP -RRB- .	0.6195033
-0.7361363	VBP -RRB- IN	-0.3311472
-0.8465533	VBZ -RRB- ,	-0.07021448
-0.6332193	VBZ -RRB- .	0.5749077
-1.104113	VBZ -RRB- MD	-0.003436685
-1.104113	VBZ -RRB- VBP
-0.9172551	VBZ -RRB- VBZ	-0.1940992
-0.03218468	'' . </s>
-2.565083	-RRB- . ''	0.6934199
-0.0242768	-RRB- . </s>
-1.527916	-RRB- . CC	-0.04068741
-2.094189	-RRB- . DT	-0.2320022
-2.307523	-RRB- . RB	-0.04397774
-0.2940058	. . </s>
-0.2808266	<s> . </s>
-0.8465533	<s> . DT	-0.3082982
-1.104113	<s> . VBG
-0.01472326	CC . </s>
-2.842214	CD . -RRB-	0.01900184
-0.02529075	CD . </s>
-1.66238	CD . CC	0.01472622
-2.842214	CD . CD
-2.215222	CD . DT	-0.1700533
-2.37132	CD . IN
-2.655356	CD . NN
-2.842214	CD . NNP
-2.215222	CD . RB	0.0578568
-2.584654	CD . VB
-2.335777	DT . ''	0.6934199
-0.02496633	DT . </s>
-1.650793	DT . CC	-0.1335254
-2.148919	DT . DT	-0.210354
-2.335777	DT . PRP
-2.335777	DT . WRB
-0.126394	EX . </s>
-0.1856366	FW . </s>
-1.143622	FW . IN	-0.4981511
-1.143622	FW . RB	-0.2061535
-2.069252	IN . -RRB-
-0.01482378	IN . </s>
-2.25611	IN . RB	-0.2061535
-2.592954	JJ . ''	0.1911799
-3.187989	JJ . -RRB-
-0.01718859	JJ . </s>
-1.800562	JJ . CC	-0.02353054
-2.446826	JJ . DT	0.2033846
-2.446826	JJ . IN	-0.1252043
-2.747855	JJ . JJ	0.02748682
-3.117288	JJ . NN	-0.1518636
-3.187989	JJ . NNP
-3.117288	JJ . NNS	-0.1162914
-2.446826	JJ . PRP	-0.2355999
-2.689864	JJ . RB	0.166212
-0.005417465	JJR . </s>
-1.978851	JJR . CC	-0.1399546
-0.0255541	JJS . </s>
-0.2552725	LS . </s>
-1.080637	LS . CD	-0.6442299
-1.338196	LS . NN
-0.8673025	LS . VB	0.0407882
-1.151338	LS . VBG
-0.007825337	MD . </s>
-2.357318	NN . ''	-0.0896467
-3.475417	NN . -LRB-	-0.1119628
-2.745039	NN . -RRB-	-0.289503
-0.02055302	NN . </s>
-1.716694	NN . CC	0.3002281
-3.299326	NN . CD	-0.2006253
-2.226218	NN . DT	0.1458167
-3.902841	NN . EX	-0.004344463
-2.396236	NN . IN	0.07673401
-3.202416	NN . JJ	0.160321
-3.902841	NN . MD	-0.02483034
-2.998296	NN . NN	0.05775043
-2.916109	NN . NNP	-0.304686
-3.973543	NN . NNPS
-3.337114	NN . NNS	0.0213947
-2.679537	NN . PRP	0.4188931
-3.533409	NN . PRP$	0.3467535
-2.607655	NN . RB	0.0681802
-3.902841	NN . RBR	-0.3980624
-4.160401	NN . TO
-4.160401	NN . VBD
-3.337114	NN . VBG	-0.2504597
-4.160401	NN . WP	-0.3992544
-3.973543	NN . WRB
-2.361161	NNP . ''	0.2325726
-3.186525	NNP . -LRB-
-2.973191	NNP . -RRB-	0.1782055
-0.02290376	NNP . </s>
-1.712801	NNP . CC	-0.1120946
-3.186525	NNP . CD
-2.215033	NNP . DT	0.1873575
-2.361161	NNP . IN	-0.1461779
-3.074355	NNP . NN
-2.973191	NNP . NNP	-0.05166455
-2.548248	NNP . PRP	-0.02528095
-3.074355	NNP . PRP$	-0.2094402
-2.247218	NNP . RB	-0.06851685
-0.0170892	NNPS . </s>
-2.017094	NNPS . CC
-2.274654	NNPS . IN
-2.61356	NNS . ''	0.0568651
-3.872575	NNS . -LRB-	-0.472448
-2.768462	NNS . -RRB-	-0.2827795
-3.872575	NNS . .	-0.230983
-0.01846808	NNS . </s>
-1.742376	NNS . CC	-0.05520046
-3.685717	NNS . CD	-0.2248427
-2.271137	NNS . DT	0.1235008
-3.685717	NNS . EX
-2.40944	NNS . IN	0.1099941
-3.090681	NNS . JJ	-0.07943533
-3.872575	NNS . MD
-3.136439	NNS . NN	-0.09053437
-2.886561	NNS . NNP	-0.1637173
-3.187591	NNS . NNS	0.0001304597
-2.692741	NNS . PRP	0.6776497
-3.685717	NNS . PRP$	-0.1414781
-2.692741	NNS . RB	-0.08333594
-3.615015	NNS . VB	-0.03251837
-3.872575	NNS . VBG
-3.872575	NNS . VBZ
-0.01579427	POS . </s>
-2.586916	PRP . ''	0.8555956
-0.01765044	PRP . </s>
-1.761552	PRP . CC	-0.05905646
-2.474746	PRP . DT	-0.04024877
-2.844476	PRP . IN
-2.844476	PRP . JJ
-2.657618	PRP . NN	-0.1952557
-2.844476	PRP . PRP
-2.657618	PRP . RB	0.05396646
-2.969003	RB . ''	0.4848021
-3.039705	RB . -LRB-
-3.226563	RB . -RRB-
-3.226563	RB . :
-0.01702086	RB . </s>
-1.754473	RB . CC	-0.07992268
-2.240549	RB . DT	0.006142825
-2.444669	RB . IN	-0.1301646
-3.226563	RB . JJ
-3.226563	RB . NN
-3.226563	RB . NNP
-3.226563	RB . NNS
-3.226563	RB . PRP	-0.4118342
-3.039705	RB . RB
-0.003488328	RBR . </s>
-0.08292382	RBS . </s>
-2.106176	RP . ''	0.6934199
-0.03202638	RP . </s>
-1.736447	RP . CC	-0.1977873
-1.848616	RP . DT	-0.1221096
-2.106176	RP . RB
-0.04139268	TO . </s>
-0.7361363	UH . ''	0.6934199
-0.1091445	UH . </s>
-2.528221	VB . ''	0.5433908
-0.02104447	VB . </s>
-1.740099	VB . CC	0.3086486
-2.071093	VB . DT	-0.09956807
-2.528221	VB . IN	0.01667498
-2.999115	VB . JJ
-2.812257	VB . PRP	-0.1564607
-2.812257	VB . RB	0.05396646
-2.999115	VB . VBG
-2.999115	VB . WDT
-2.999115	VB . WP
-2.812257	VB . WRB
-0.01549372	VBD . </s>
-2.413338	VBD . DT
-2.155778	VBD . IN
-2.413338	VBD . PRP	-0.4118342
-2.422375	VBG . ''	0.6934199
-2.422375	VBG . ,
-0.01826741	VBG . </s>
-2.164815	VBG . CC
-2.422375	VBG . PRP
-2.381616	VBN . ''	0.2325726
-2.490761	VBN . -RRB-	0.06084555
-0.01821337	VBN . </s>
-1.80438	VBN . CC	-0.1345435
-2.131739	VBN . DT	0.07550746
-2.930895	VBN . EX	-0.0925888
-2.860193	VBN . IN	0.03829327
-2.646859	VBN . JJ	-0.5379141
-3.117753	VBN . NNS
-3.117753	VBN . PRP
-2.860193	VBN . RB	0.1422108
-2.460412	VBP . ''	0.6934199
-2.460412	VBP . -RRB-	0.01900184
-0.01670569	VBP . </s>
-2.090683	VBP . CC
-2.273554	VBP . DT	-0.1536617
-2.460412	VBP . IN
-2.460412	VBP . RB	-0.2061535
-0.01175284	VBZ . </s>
-2.027061	VBZ . CC	-0.1193703
-2.396791	VBZ . PRP	-0.4165807
-0.1970958	WDT . </s>
-0.08915128	WP . </s>
-0.01189922	WRB . </s>
-1.372958	'' : CC
-0.6368221	'' : DT	0.07260656
-1.003229	'' : IN	-0.09488577
-1.372958	'' : JJ
-1.372958	'' : MD
-1.1861	'' : NN
-1.372958	'' : TO
-1.115399	'' : VBD
-1.372958	'' : VBZ
-1.055813	-RRB- : </s>
-0.6283889	-RRB- : CC	-0.1496349
-1.055813	-RRB- : IN
-0.9436432	-RRB- : JJ	0.04295352
-1.313373	-RRB- : NN
-1.126515	-RRB- : NNP	-0.5492845
-1.313373	-RRB- : VBN
-1.313373	-RRB- : VBP
-0.4808638	. : </s>
-0.4808638	. : PRP	-0.3915499
-0.01158187	: : FW	-0.1774377
-0.223304	<s> : VB	-0.4565383
-0.5600451	CC : RB	-0.4921197
-1.48035	CD : $	-0.2630879
-0.9542425	CD : CC	-0.1406088
-1.59252	CD : CD
-0.706458	CD : DT	-0.1473213
-1.85008	CD : EX
-1.068186	CD : IN	-0.1934926
-1.59252	CD : JJ	-0.03640172
-0.6702458	CD : NN	-0.2426467
-1.48035	CD : NNP	-1.267977
-1.85008	CD : PRP
-1.223088	CD : RB	-0.2002699
-1.663222	CD : TO	-0.07114017
-1.85008	CD : VB
-1.85008	CD : VBG
-1.663222	CD : WRB
-1.292978	DT : CC	-0.09665935
-0.7668703	DT : DT	-0.07961541
-1.405148	DT : IN	-0.2008857
-1.405148	DT : JJ
-1.405148	DT : MD	-0.1816083
-0.8808136	DT : NNP	-0.3768755
-1.662707	DT : NNS
-1.405148	DT : PRP
-1.662707	DT : RB
-1.475849	DT : VB	-0.1795504
-1.475849	DT : VBG
-1.662707	DT : VBP
-1.475849	DT : VBZ
-0.9265711	DT : WRB	-0.1392298
-1.475849	DT : ``
-0.03385827	FW : :	0
-1.365888	IN : </s>
-0.6569086	IN : CC	-0.1967086
-0.6569086	IN : DT	0.07611272
-1.552746	IN : IN
-1.081852	IN : JJ	-0.05802001
-1.552746	IN : NN
-1.552746	IN : NNP
-1.552746	IN : NNS
-1.081852	IN : PRP	-0.0747024
-1.365888	IN : RB
-1.552746	IN : ``
-2.352432	JJ : $	0.4340097
-2.16956	JJ : </s>
-1.0672	JJ : CC	-0.1724281
-1.803154	JJ : CD	-0.005737901
-0.712073	JJ : DT	-0.1390278
-1.912298	JJ : EX	0.1072754
-2.53929	JJ : FW
-0.9061377	JJ : IN	-0.01846528
-1.252246	JJ : JJ	-0.1635507
-2.068396	JJ : JJR	-0.0540442
-1.854306	JJ : MD	0.1503886
-1.252246	JJ : NN	-0.04419357
-1.252246	JJ : NNP	0.169024
-2.53929	JJ : NNPS
-1.213328	JJ : NNS	0.3452036
-1.001521	JJ : PRP	-0.2333608
-1.854306	JJ : PRP$	0.01014954
-1.189194	JJ : RB	0.01650238
-1.912298	JJ : TO	0.3007635
-1.678215	JJ : VB	-0.01759359
-2.352432	JJ : VBD
-1.611268	JJ : VBG	0.007114798
-2.53929	JJ : VBN
-2.28173	JJ : VBP	-0.1518636
-2.16956	JJ : VBZ	-0.2198245
-2.352432	JJ : WDT
-2.53929	JJ : WP
-1.912298	JJ : WRB	-0.05011234
-2.53929	JJ : ``
-1.012343	JJR : CC
-1.012343	JJR : IN
-1.012343	JJR : JJ
-1.012343	JJR : NNP
-1.012343	JJR : NNS
-0.754783	JJR : RB
-0.2590151	JJS : DT
-0.674217	MD : CC	-0.2303543
-0.861075	MD : DT
-2.6359	NN : -LRB-	0.07058761
-1.643658	NN : </s>
-0.9985636	NN : CC	0.05328763
-2.069627	NN : CD	-0.07954532
-0.7327228	NN : DT	0.1112852
-2.148808	NN : EX	0.4854904
-2.737064	NN : FW	-1.270576
-0.9631717	NN : IN	-0.03038418
-1.17568	NN : JJ	0.03209651
-2.283507	NN : JJR	-0.368026
-2.919935	NN : JJS	0.02913693
-1.963172	NN : MD	0.01859283
-1.169563	NN : NN	-0.03483891
-1.267995	NN : NNP	0.08464813
-2.919935	NN : NNPS
-1.438409	NN : NNS	-0.2260029
-1.09959	NN : PRP	-0.4704275
-1.833538	NN : PRP$	0.1974292
-1.231478	NN : RB	-0.1112835
-3.106793	NN : RBR	-0.1012185
-1.768597	NN : TO	-0.1904668
-1.712116	NN : VB	0.1003379
-2.046146	NN : VBD	-0.0981825
-1.42181	NN : VBG	0.03322089
-1.944688	NN : VBN	-0.218854
-2.069627	NN : VBP	-0.05844408
-1.862502	NN : VBZ	-0.1196508
-2.02387	NN : WDT	0.1731973
-2.02387	NN : WP	-0.04302695
-1.662142	NN : WRB	0.1914334
-2.245718	NN : ``	-0.1428555
-1.617	NNP : </s>
-0.8766376	NNP : CC	0.01585996
-2.029165	NNP : CD	0.02002957
-0.8461483	NNP : DT	-0.03525054
-2.212036	NNP : EX
-0.9180303	NNP : IN	0.1449912
-1.386551	NNP : JJ	-0.3102731
-1.71391	NNP : MD	-0.2826326
-1.386551	NNP : NN	-0.09096923
-1.037217	NNP : NNP	-0.1947147
-1.771902	NNP : NNS
-1.169842	NNP : PRP	0.09917259
-2.212036	NNP : PRP$	-0.1584588
-1.202027	NNP : RB	-0.140785
-2.398894	NNP : RBS
-1.771902	NNP : TO	0.2988889
-2.141334	NNP : VB
-1.71391	NNP : VBD	-0.05963767
-1.617	NNP : VBG	-0.07584403
-2.029165	NNP : VBN	0.1267285
-1.575608	NNP : VBP	0.008183405
-1.617	NNP : VBZ	-0.05057201
-1.771902	NNP : WDT	-0.3486222
-1.928	NNP : WP	-0.2574991
-2.029165	NNP : WRB
-2.141334	NNP : ``	-0.3954017
-1.035414	NNPS : CC	-0.06821597
-1.035414	NNPS : DT	0.09121893
-1.218285	NNPS : IN
-1.405143	NNPS : JJ
-1.218285	NNPS : MD
-1.147583	NNPS : NN	-0.1547318
-1.147583	NNPS : NNP
-1.405143	NNPS : NNS
-1.218285	NNPS : RB
-1.405143	NNPS : WP	-0.5080431
-2.80679	NNS : $	0.5400285
-2.80679	NNS : -LRB-
-1.352798	NNS : </s>
-0.979573	NNS : CC	0.06124932
-1.820776	NNS : CD	-0.01228875
-0.8180701	NNS : DT	0.2154208
-2.619932	NNS : EX	-0.02146843
-1.020575	NNS : IN	0.2416379
-1.056413	NNS : JJ	-0.6365547
-1.983503	NNS : JJR	0.1542383
-1.848805	NNS : MD	-0.5427737
-1.144082	NNS : NN	-0.09260458
-1.254044	NNS : NNP	-0.2301708
-1.352798	NNS : NNS	0.1267481
-1.254044	NNS : PRP	0.2593083
-1.910953	NNS : PRP$	0.1685627
-1.192387	NNS : RB	-0.1358017
-2.80679	NNS : RBS
-2.070653	NNS : TO	-0.3802112
-1.480828	NNS : VB	-0.1244881
-2.335896	NNS : VBD	-0.0110265
-1.480828	NNS : VBG	-0.05946028
-1.878768	NNS : VBN	0.02940774
-1.945715	NNS : VBP	-0.03792772
-1.878768	NNS : VBZ	0.04970667
-1.983503	NNS : WDT	0.02352136
-2.024896	NNS : WP	-0.07798024
-1.769623	NNS : WRB	-0.124621
-2.619932	NNS : ``
-1.549278	PRP : </s>
-0.8750613	PRP : CC	-0.06993707
-0.8750613	PRP : DT	0.01269597
-1.051152	PRP : IN	-0.0258496
-1	PRP : JJ	0.00658986
-1.549278	PRP : JJR
-1.366407	PRP : MD	0.170551
-1.366407	PRP : NN
-1.478577	PRP : NNP	-0.09490146
-1.736136	PRP : NNS	-0.4303008
-1.109144	PRP : PRP	-0.006357104
-1.051152	PRP : RB	0.05858774
-1.549278	PRP : VB	-0.2166217
-1.736136	PRP : WRB
-1.823187	RB : </s>
-1.453755	RB : CC	-0.1262549
-0.6860692	RB : DT	-0.1120202
-1.893889	RB : EX	-0.1306129
-0.8674893	RB : IN	-0.2779359
-1.18491	RB : JJ	-0.2288137
-2.080747	RB : JJR
-1.711017	RB : MD	0.1840875
-1.152725	RB : NN	-0.04036748
-1.395763	RB : NNP	-0.04956275
-1.609853	RB : NNS	-0.1035548
-0.9766338	RB : PRP	0.2493924
-2.080747	RB : PRP$
-1.344611	RB : RB	-0.1495343
-2.080747	RB : TO
-1.453755	RB : VB	-0.1503109
-1.711017	RB : VBG
-2.080747	RB : VBP	-0.4167463
-1.823187	RB : VBZ	-0.1396359
-2.080747	RB : WP
-1.453755	RB : WRB	-0.118452
-0.6364285	RBR : DT	-0.1477017
-0.8232865	RBR : IN
-0.7004253	RP : DT	-0.2456459
-0.9579851	RP : IN
-0.9579851	RP : RB
-0.07215707	TO : </s>
-1.702246	VB : </s>
-1.028029	VB : CC	-0.2434506
-0.7849907	VB : DT	-0.08562058
-0.9610819	VB : IN	-0.3443651
-1.519374	VB : JJ	0.09178835
-1.10721	VB : NN	0.007345647
-1.10721	VB : NNP	-0.07777965
-1.41821	VB : NNS
-1.20412	VB : PRP	0.05193505
-1.065817	VB : RB	-0.1036162
-1.631544	VB : VB
-1.262112	VB : VBG	-0.08083464
-1.702246	VB : VBZ	-0.148699
-1.702246	VB : WP
-1.262112	VB : WRB	-0.1938375
-0.7103994	VBD : DT	0.09978551
-1.668385	VBD : EX	-0.2815884
-0.9834008	VBD : IN	-0.05351953
-1.481526	VBD : NN
-1.197491	VBD : NNP	-0.08634643
-1.298655	VBD : NNS
-0.6823707	VBD : PRP	0.09389925
-1.041393	VBD : RB
-1.481526	VBD : TO	0.2949986
-1.668385	VBD : VBZ	-0.4502116
-1.197491	VBD : ``
-1.560045	VBG : </s>
-1.190315	VBG : CC	-0.1241882
-0.6320232	VBG : DT	-0.1988563
-1.560045	VBG : EX
-1.089151	VBG : IN	-0.2084726
-1.560045	VBG : JJ
-1.373187	VBG : NN
-1.560045	VBG : NNP
-1.373187	VBG : NNS
-1.560045	VBG : PRP
-1.190315	VBG : RB	-0.00174953
-1.373187	VBG : VB	-0.2166217
-1.560045	VBG : WRB
-1.598802	VBN : </s>
-0.9867718	VBN : CC	-0.07722519
-1.882838	VBN : CD
-0.6345892	VBN : DT	-0.01148885
-0.9867718	VBN : IN	0.05590057
-1.11171	VBN : JJ	-0.08348221
-1.882838	VBN : MD	-0.194319
-1.20862	VBN : NN	-0.09903559
-1.333559	VBN : NNP	-0.1558528
-1.384712	VBN : NNS	0.07108946
-0.9867718	VBN : PRP	0.1254221
-2.069695	VBN : PRP$
-1.384712	VBN : RB	-0.0860225
-1.882838	VBN : VB
-1.882838	VBN : VBG
-1.699966	VBN : VBN	-0.08087984
-2.069695	VBN : VBZ
-1.882838	VBN : WRB
-1.425346	VBP : </s>
-1.055617	VBP : CC	-0.06821597
-0.5642715	VBP : DT	0.1517389
-1.425346	VBP : IN	-0.3630614
-1.425346	VBP : JJ
-1.425346	VBP : NNP
-1.167787	VBP : PRP	-0.2293742
-1.055617	VBP : RB
-1.425346	VBP : TO	0.03487861
-1.399395	VBZ : </s>
-1.656955	VBZ : CC
-0.6446123	VBZ : DT	-0.1082557
-1.029963	VBZ : IN	-0.6870144
-1.470097	VBZ : JJ	-0.4568801
-1.029963	VBZ : NN	-0.09527462
-1.656955	VBZ : NNP
-1.656955	VBZ : NNS
-1.470097	VBZ : PRP	-0.1600123
-1.186061	VBZ : RB	-0.07044888
-1.399395	VBZ : WP	-0.07606883
-0.9208187	VBZ : WRB	-0.1645445
-0.08292382	WRB : CC
-1.081852	'' CC DT	-0.0833188
-1.295186	'' CC IN	-0.1903819
-1.552746	'' CC JJ
-1.552746	'' CC NN
-1.295186	'' CC NNS
-1.552746	'' CC PRP
-1.183016	'' CC RB	-0.121971
-1.552746	'' CC TO	-0.0437701
-1.552746	'' CC VBD
-1.365888	'' CC VBG
-0.4920984	'' CC ``	-0.01600167
-3.550119	, CC $	-0.06351542
-1.765043	, CC ,	-0.0551461
-3.550119	, CC -LRB-	-0.1597184
-2.882683	, CC .	0.1983676
-3.732991	, CC :
-3.448955	, CC CC
-2.004416	, CC CD	-0.1281549
-0.8087607	, CC DT	0.07835722
-2.092632	, CC EX	0.01966941
-1.012799	, CC IN	0.1054049
-0.9544006	, CC JJ	-0.1739593
-2.286697	, CC JJR	-0.2471254
-2.606476	, CC JJS	0.3759593
-1.766887	, CC MD	-0.1960109
-1.022345	, CC NN	0.1222699
-1.132775	, CC NNP	0.3965282
-2.690797	, CC NNPS	0.08421344
-1.363438	, CC NNS	0.17863
-3.058774	, CC PDT	0.3912066
-1.191012	, CC PRP	0.1138546
-1.716351	, CC PRP$	-0.2139504
-0.9247031	, CC RB	-0.3417492
-2.318411	, CC RBR	-0.01883954
-3.292857	, CC RBS	0.04312325
-1.828325	, CC TO	-0.02542961
-3.919849	, CC UH
-1.614209	, CC VB	-0.0265305
-1.606476	, CC VBD	-0.01951039
-1.611616	, CC VBG	0.1855329
-2.116766	, CC VBN	-0.05119467
-1.801495	, CC VBP	-0.3305179
-1.598879	, CC VBZ	-0.2768402
-2.836925	, CC WDT	-0.1137559
-2.345563	, CC WP	0.04338062
-3.448955	, CC WP$	0.5220565
-2.155684	, CC WRB	-0.3799014
-3.292857	, CC ``	-0.09905115
-1.293298	-LRB- CC ,	0.08502463
-2.118782	-LRB- CC -RRB-
-2.30564	-LRB- CC CD
-0.9216865	-LRB- CC DT	-0.153316
-1.181324	-LRB- CC IN	0.001708537
-0.890278	-LRB- CC JJ	-0.1269421
-1.935911	-LRB- CC JJR	-1.332929
-1.834746	-LRB- CC MD	0.0994938
-1.108773	-LRB- CC NN	-0.5312147
-1.319626	-LRB- CC NNP	-0.6794295
-1.293298	-LRB- CC NNS	-0.4242919
-2.04808	-LRB- CC PRP
-1.620656	-LRB- CC PRP$	0.7192364
-0.6099326	-LRB- CC RB	-0.1541866
-1.935911	-LRB- CC RBR	-0.1524567
-2.04808	-LRB- CC TO
-1.620656	-LRB- CC VB	-0.05088609
-1.834746	-LRB- CC VBD	-0.3429385
-1.935911	-LRB- CC VBG
-1.935911	-LRB- CC VBN	-0.1433478
-2.118782	-LRB- CC VBP
-2.30564	-LRB- CC VBZ
-2.30564	-LRB- CC WDT
-1.850308	-RRB- CC ,
-1.850308	-RRB- CC CD
-0.69897	-RRB- CC DT	-0.2835447
-1.21388	-RRB- CC IN	-0.07242319
-0.7928745	-RRB- CC JJ	-0.2458538
-1.779607	-RRB- CC JJR	-0.3599703
-0.9765189	-RRB- CC NN	-0.1012886
-0.9765189	-RRB- CC NNP	-0.1572104
-1.566272	-RRB- CC NNS	-0.1143948
-1.850308	-RRB- CC PRP	-0.2297831
-1.779607	-RRB- CC PRP$	0.002034649
-1.30103	-RRB- CC RB	-0.0716285
-2.037166	-RRB- CC RBR
-1.566272	-RRB- CC TO	0.05379856
-1.255273	-RRB- CC VB	-0.04338674
-1.779607	-RRB- CC VBD	-0.0950258
-1.779607	-RRB- CC VBG	-0.1186849
-2.037166	-RRB- CC VBN
-1.779607	-RRB- CC VBZ
-2.037166	-RRB- CC WRB
-0.8094151	. CC ,	-0.2216643
-2.332603	. CC CD	-0.4038462
-0.5622102	. CC DT	-0.08140957
-1.659875	. CC EX	-0.2584211
-1.236273	. CC IN	-0.1358798
-1.331407	. CC JJ	-0.3571922
-2.616638	. CC JJR	-0.5073818
-2.616638	. CC JJS
-2.06736	. CC MD	-0.3609517
-1.4653	. CC NN	-0.4679336
-1.236273	. CC NNP	-0.5241112
-1.503089	. CC NNS	-0.3756073
-2.545937	. CC PDT	0.7573795
-0.8257031	. CC PRP	-0.7634811
-1.942421	. CC PRP$	-0.4678019
-1.358845	. CC RB	-0.2265849
-2.118513	. CC TO	-0.1166753
-2.176505	. CC VB	-0.058124
-2.545937	. CC VBD	-0.1632802
-1.817483	. CC VBG	-0.06571704
-2.803497	. CC VBN
-2.803497	. CC VBP
-2.021603	. CC VBZ	-0.2264704
-1.791154	. CC WP	0.02296972
-1.590239	. CC WRB	-0.02582654
-1.158204	: CC ,	-0.04368699
-2.333023	: CC -LRB-	-0.5329505
-2.262321	: CC </s>
-2.262321	: CC CC
-2.333023	: CC CD
-0.7885973	: CC DT	-0.01214635
-2.333023	: CC EX	0.03336263
-1.005594	: CC IN	0.06522918
-0.7741995	: CC JJ	0.1393827
-2.150151	: CC JJR
-2.048987	: CC MD	-0.07933998
-1.482715	: CC NN	-0.2528461
-1.482715	: CC NNP	-0.2962878
-1.696595	: CC NNS	-0.05671754
-1.158204	: CC PRP	0.1823002
-1.892889	: CC PRP$	0.5832437
-0.9745593	: CC RB	-0.07506949
-2.519881	: CC RBS
-2.048987	: CC TO	-0.1937992
-1.561896	: CC VB	-0.01383835
-1.783745	: CC VBD	-0.18338
-1.323014	: CC VBG	0.1050042
-2.333023	: CC VBN
-1.783745	: CC VBP	-0.03994885
-1.892889	: CC VBZ	-0.3975293
-2.519881	: CC WDT
-2.333023	: CC WP
-1.696595	: CC WRB	-0.1438814
-0.8402351	<s> CC ,	-0.343456
-3.402446	<s> CC </s>
-3.402446	<s> CC CC
-2.189189	<s> CC CD	-0.2637866
-0.5659394	<s> CC DT	-0.1324725
-1.537767	<s> CC EX	0.1309848
-3.215588	<s> CC FW	-0.1391345
-1.185984	<s> CC IN	-0.4852657
-1.315201	<s> CC JJ	-0.5225496
-2.506609	<s> CC JJR	-0.03759158
-2.620553	<s> CC JJS	0.1566341
-1.8497	<s> CC MD	-0.8481098
-1.302489	<s> CC NN	-0.5861694
-1.195671	<s> CC NNP	-1.138936
-2.474424	<s> CC NNPS	-0.2240306
-1.638281	<s> CC NNS	-0.5238439
-2.57916	<s> CC PDT	0.4259688
-0.9983384	<s> CC PRP	-0.4063288
-1.88019	<s> CC PRP$	0.3347769
-1.272248	<s> CC RB	-0.6712018
-2.717463	<s> CC RBR	-0.1764269
-2.36528	<s> CC TO	-0.1578299
-2.029488	<s> CC VB	-0.4266098
-2.222612	<s> CC VBD	-0.4036562
-1.814372	<s> CC VBG	-0.2339963
-2.931552	<s> CC VBN	-0.1760572
-2.076484	<s> CC VBP	-0.6468855
-1.681033	<s> CC VBZ	-0.7385927
-1.75723	<s> CC WP	-0.3645986
-1.734062	<s> CC WRB	-0.2522179
-1.124316	CC CC DT
-0.9374585	CC CC MD	-0.2777471
-1.124316	CC CC VBN	-0.3670276
-1.124316	CC CC VBP
-1.124316	CC CC VBZ
-1.735827	CD CC $	0.4134242
-1.891925	CD CC ,	0.04779297
-0.3354123	CD CC CD	-0.07860529
-0.9277124	CD CC DT	-0.4986488
-1.279895	CD CC IN	0.06112552
-1.325652	CD CC JJ	0.5059584
-1.103804	CD CC JJR	-0.4897698
-2.362819	CD CC MD
-2.105259	CD CC NN
-1.539532	CD CC NNP	-0.436459
-2.362819	CD CC PRP$	-0.3463296
-1.165952	CD CC RB	-0.142558
-2.175961	CD CC TO	0.2163498
-1.891925	CD CC VB	-0.08493971
-1.677835	CD CC VBD	-0.1677803
-2.105259	CD CC VBG	-0.1542284
-2.105259	CD CC VBN	-0.2048519
-2.362819	CD CC VBP
-1.891925	CD CC VBZ	-0.2778567
-0.607455	DT CC DT	-0.1219933
-1.320649	DT CC IN	-0.2224748
-0.6532125	DT CC JJ	-0.3937986
-0.908485	DT CC NN	-0.04331014
-1.503521	DT CC NNP	-0.2682073
-1.432819	DT CC RB
-1.503521	DT CC VB
-1.690379	DT CC VBD
-1.690379	DT CC VBG
-1.432819	DT CC VBN
-1.690379	DT CC VBP	-0.4504867
-1.432819	DT CC VBZ	-0.1519957
-0.3731871	FW CC DT	-0.08381169
-2.431229	IN CC ,	-0.146974
-2.244371	IN CC .	0.8319498
-0.6950923	IN CC DT	-0.5879758
-0.6950923	IN CC IN	-0.2887812
-1.117856	IN CC JJ	-0.06200409
-2.244371	IN CC MD	0.008986592
-1.026086	IN CC NN	-0.1676916
-1.327116	IN CC NNP	-0.7984453
-2.431229	IN CC NNPS	-0.5212147
-1.117856	IN CC NNS	-0.2586473
-2.173669	IN CC PRP	-0.1884145
-2.244371	IN CC PRP$	-0.4523484
-1.005882	IN CC RB	-0.2665194
-2.173669	IN CC TO	-0.1847862
-1.287607	IN CC VB	0.00330615
-2.061499	IN CC VBD	-0.1143887
-1.535391	IN CC VBG	0.08174069
-1.960335	IN CC VBN	-0.04028162
-1.960335	IN CC VBZ	-0.09377779
-2.431229	IN CC WP
-1.570154	IN CC WRB	-0.1687676
-2.410988	JJ CC ,	0.2185461
-2.712018	JJ CC CD	-0.100188
-1.478387	JJ CC DT	-0.2588384
-3.397002	JJ CC EX	-0.2267573
-1.859233	JJ CC IN	-0.02645093
-0.1588938	JJ CC JJ	0.2125266
-2.359835	JJ CC JJR	-0.3181006
-2.615108	JJ CC JJS	-0.4461109
-2.384659	JJ CC MD	-1.243607
-1.218909	JJ CC NN	-0.187709
-2.058805	JJ CC NNP	-0.4299585
-2.77001	JJ CC NNPS	-0.02194666
-2.292889	JJ CC NNS	-0.3160103
-2.712018	JJ CC PRP	-0.01021808
-2.410988	JJ CC PRP$	0.1860023
-1.118178	JJ CC RB	-0.3845769
-2.002324	JJ CC RBR	-0.4508872
-2.712018	JJ CC RBS	-0.07694471
-2.573715	JJ CC TO	0.3894961
-2.013048	JJ CC VB	0.3160543
-1.95235	JJ CC VBD	0.03383183
-1.685689	JJ CC VBG	-0.3520872
-1.924912	JJ CC VBN	-0.1213374
-2.16795	JJ CC VBP	0.1157487
-2.16795	JJ CC VBZ	0.09308845
-3.397002	JJ CC WP
-3.397002	JJ CC WP$	-0.4269317
-3.210144	JJ CC WRB	-0.1888561
-1.635283	JJR CC ,	0.04779297
-1.919318	JJR CC DT	-0.2474956
-1.635283	JJR CC IN	-0.1054129
-1.245101	JJR CC JJ	0.02781177
-0.4730241	JJR CC JJR	-0.01325989
-2.106176	JJR CC MD
-1.324282	JJR CC RB	-0.3430848
-0.4917735	JJR CC RBR	-0.4336408
-1.245101	JJR CC VB	-0.187279
-1.919318	JJR CC VBD	-0.2431202
-1.736447	JJR CC VBG	-0.1385179
-1.736447	JJR CC VBP
-2.106176	JJR CC VBZ
-1.223304	JJS CC DT	-0.535147
-1.294006	JJS CC JJ	-0.2310643
-0.552842	JJS CC JJS	0.06096247
-1.480864	JJS CC RB	-0.538561
-0.3187588	JJS CC RBS	-0.1998515
-1.480864	JJS CC VB
-0.09056983	MD CC MD	-0.6066487
-0.9294189	MD CC VB	-0.2268549
-3.4982	NN CC $	0.5309832
-2.122608	NN CC ,	-0.2043267
-3.75576	NN CC -LRB-
-3.4982	NN CC .	0.7293507
-3.4982	NN CC CC
-2.019624	NN CC CD	-0.1140865
-0.9289349	NN CC DT	-0.1040196
-3.75576	NN CC EX
-1.436047	NN CC IN	-0.158739
-0.8200516	NN CC JJ	-0.5716313
-1.944483	NN CC JJR	-0.1881008
-3.386031	NN CC JJS	-0.3192693
-2.249591	NN CC MD	-0.6170141
-0.4158783	NN CC NN	-0.3864861
-1.833987	NN CC NNP	-0.0465818
-3.568902	NN CC NNPS
-1.431041	NN CC NNS	-0.0794785
-2.468716	NN CC PRP	0.7184134
-1.75115	NN CC PRP$	-0.126109
-1.412765	NN CC RB	-0.4533876
-1.873496	NN CC TO	-0.1773121
-1.291721	NN CC VB	-0.1827888
-1.637407	NN CC VBD	-0.06539655
-1.446236	NN CC VBG	-0.002813101
-2.110543	NN CC VBN	-0.272981
-2.070776	NN CC VBP	0.166012
-1.764351	NN CC VBZ	0.02910566
-3.75576	NN CC WDT
-2.542503	NN CC WP	-0.1318142
-2.859923	NN CC WRB	-0.3454762
-3.4982	NN CC ``	-0.121189
-2.127712	NNP CC ,	0.08466244
-3.414756	NNP CC -LRB-
-2.354108	NNP CC CD	-0.4742291
-0.711696	NNP CC DT	-0.8726177
-1.53944	NNP CC IN	-0.2493698
-1.157191	NNP CC JJ	-0.4350765
-3.045026	NNP CC JJR	-0.1331874
-3.227898	NNP CC JJS	-0.1286469
-2.729772	NNP CC MD	-0.3240386
-1.673821	NNP CC NN	0.1142788
-0.281259	NNP CC NNP	0.2776401
-2.632862	NNP CC NNPS	-0.2050401
-1.884674	NNP CC NNS	-0.142135
-3.414756	NNP CC PDT	0.9659973
-2.201498	NNP CC PRP	-0.361934
-1.323232	NNP CC PRP$	-0.4471184
-1.477526	NNP CC RB	-0.2076927
-3.414756	NNP CC RBR
-2.486734	NNP CC TO	0.3876482
-1.989409	NNP CC VB	-0.06791538
-2.088794	NNP CC VBD	0.03042495
-2.185704	NNP CC VBG	0.2754548
-2.354108	NNP CC VBN	-0.4880406
-2.632862	NNP CC VBP	-0.1578754
-2.271134	NNP CC VBZ	0.08169216
-3.414756	NNP CC WDT
-3.045026	NNP CC WP	-0.08474097
-3.227898	NNP CC WRB	-0.1888561
-2.353603	NNPS CC ,
-2.096043	NNPS CC CD	-0.1888651
-0.7723683	NNPS CC DT	-0.3396386
-1.983873	NNPS CC IN
-1.109311	NNPS CC JJ	-0.1377624
-2.353603	NNPS CC JJR
-2.096043	NNPS CC NN
-0.5717089	NNPS CC NNP	-0.1303651
-0.5588716	NNPS CC NNPS	-0.1114435
-1.24949	NNPS CC NNS	0.08760655
-1.530316	NNPS CC PRP$	-0.2033395
-1.668619	NNPS CC RB	-0.07829364
-2.096043	NNPS CC TO
-1.882709	NNPS CC VB	-0.3652621
-2.096043	NNPS CC VBD
-2.353603	NNPS CC VBG	-0.4412419
-2.353603	NNPS CC VBP
-3.539897	NNS CC $	0.739601
-3.539897	NNS CC ''
-2.076762	NNS CC ,	-0.08211607
-1.882942	NNS CC CD	-0.9225138
-1.065156	NNS CC DT	-0.6151632
-3.282337	NNS CC EX	0.121607
-1.527554	NNS CC IN	-0.1472728
-0.8047267	NNS CC JJ	-0.7691648
-1.912905	NNS CC JJR	-0.4335387
-3.539897	NNS CC JJS
-2.310845	NNS CC MD	-0.2199277
-0.8994658	NNS CC NN	-0.5313282
-1.925494	NNS CC NNP	-0.6800073
-3.282337	NNS CC NNPS	-0.1541394
-0.5032133	NNS CC NNS	0.06708622
-2.396275	NNS CC PRP	1.098863
-1.587741	NNS CC PRP$	-0.3119951
-1.497932	NNS CC RB	-0.3315971
-1.994575	NNS CC TO	-0.3261296
-1.27656	NNS CC VB	-0.2908151
-1.736814	NNS CC VBD	-0.156096
-1.351463	NNS CC VBG	-0.3787864
-1.888771	NNS CC VBN	-0.3002689
-1.78952	NNS CC VBP	-0.1045748
-1.833724	NNS CC VBZ	-0.1312171
-3.539897	NNS CC WDT
-3.539897	NNS CC WP	-0.4241982
-3.353039	NNS CC WP$	-0.2598206
-2.854913	NNS CC WRB	-0.06808783
-0.51512	POS CC CD	-0.6844475
-0.7284541	POS CC JJ	-0.7467601
-0.7284541	POS CC NNP	-0.3731108
-1.848616	PRP CC ,	0.2013903
-1.919318	PRP CC CD	-0.230328
-1.023252	PRP CC DT	-0.04883283
-1.178154	PRP CC IN	-0.005989477
-1.635283	PRP CC JJ	-0.02696444
-2.106176	PRP CC MD
-1.919318	PRP CC NN
-1.245101	PRP CC NNP	-0.2462662
-2.106176	PRP CC NNS
-0.8471612	PRP CC PRP	0.03831518
-0.76798	PRP CC PRP$	0.03646684
-0.9093091	PRP CC RB	-0.1052195
-1.421193	PRP CC TO	0.05242604
-0.9818598	PRP CC VB	-0.3008603
-1.479184	PRP CC VBD	-0.1425422
-1.736447	PRP CC VBG
-1.736447	PRP CC WRB	-0.06796237
-1.060647	PRP$ CC NNP
-0.07463362	PRP$ CC PRP$	0.2942095
-1.854306	RB CC ,	-0.284949
-2.352432	RB CC CD	-0.2452765
-1.502123	RB CC DT	-0.09266251
-1.03312	RB CC IN	-0.3433729
-1.526947	RB CC JJ	0.0667994
-1.377185	RB CC MD	-0.9881933
-1.803154	RB CC NN	-0.248697
-2.068396	RB CC NNP	-0.1665542
-2.28173	RB CC NNS
-2.352432	RB CC PRP
-2.53929	RB CC PRP$
-0.3276438	RB CC RB	-0.5838576
-2.352432	RB CC RBR	-0.2158789
-1.757396	RB CC TO	0.2135271
-0.8823348	RB CC VB	0.147634
-1.581305	RB CC VBD	0.007767454
-1.456366	RB CC VBG	-0.07956794
-1.912298	RB CC VBN	-0.1817108
-2.068396	RB CC VBP	-0.05405162
-1.757396	RB CC VBZ	-0.05454808
-2.53929	RB CC WP
-2.53929	RB CC WRB
-1.656955	RBR CC JJR
-1.656955	RBR CC NN
-1.656955	RBR CC RB
-0.08973143	RBR CC RBR	0.3405952
-1.656955	RBR CC VB
-1.656955	RBR CC VBD
-1.656955	RBR CC VBG
-1.537769	RP CC EX
-1.537769	RP CC JJ
-1.066875	RP CC NN	-0.1089327
-1.537769	RP CC NNP
-1.537769	RP CC NNS
-1.350911	RP CC RP	0.06851646
-0.4548449	RP CC VB	-0.2787099
-1.280209	RP CC VBD	-0.1380821
-1.168039	RP CC VBN	0.02678725
-1.537769	RP CC VBP
-1.280209	RP CC VBZ
-0.829514	TO CC DT	-0.09039496
-1.042848	TO CC IN	-0.02403036
-1.300408	TO CC JJ
-1.042848	TO CC JJR	-0.6477694
-0.9306782	TO CC NN	-1.250435
-1.300408	TO CC NNS	-0.4289683
-1.042848	TO CC VB
-0.07215707	UH CC DT	-0.278067
-2.213568	VB CC ,	-0.05544977
-1.199344	VB CC DT	-0.1935712
-1.625312	VB CC IN	-0.01726443
-1.296254	VB CC JJ	0.08104074
-2.39644	VB CC JJR
-1.956306	VB CC MD	-0.07066429
-1.439676	VB CC NN	0.1169957
-2.213568	VB CC NNP	-0.1345124
-1.847161	VB CC NNS	-0.346624
-1.956306	VB CC PRP	-0.146753
-1.956306	VB CC PRP$	0.5832437
-1.129306	VB CC RB	-0.3071635
-1.68746	VB CC TO	-0.6185608
-0.215943	VB CC VB	0.2127484
-2.213568	VB CC VBD	-0.04957522
-2.325738	VB CC VBG
-2.325738	VB CC VBP	-0.1325802
-1.898314	VB CC VBZ	-0.1420115
-2.39644	VB CC WDT	-0.2616015
-2.583297	VB CC WP
-2.325738	VB CC WRB
-0.9444827	VBD CC DT	0.1329517
-1.556513	VBD CC IN	-0.1059777
-1.342423	VBD CC JJ	0.1611441
-2.027406	VBD CC JJR
-2.027406	VBD CC MD	-0.2511334
-1.29127	VBD CC NN	-0.1997977
-2.027406	VBD CC NNP	-0.5153091
-1.657677	VBD CC NNS
-1.29127	VBD CC RB	-0.3103897
-0.3370276	VBD CC VBD	-0.04678541
-1.657677	VBD CC VBG	-0.2024896
-1.657677	VBD CC VBN	-0.2925877
-1.245513	VBD CC VBZ	-0.3250277
-2.027406	VBD CC WP
-1.840549	VBD CC WRB	-0.1888561
-2.058929	VBG CC ,	-0.1891447
-1.233444	VBG CC DT	0.1846955
-1.774893	VBG CC IN	-0.08581345
-0.9867718	VBG CC JJ	-0.06705916
-2.245787	VBG CC MD
-1.141674	VBG CC NN	-0.1258325
-2.058929	VBG CC NNP	-0.634346
-1.774893	VBG CC NNS	-0.007297426
-2.245787	VBG CC PRP	-0.440001
-2.058929	VBG CC PRP$	-0.4523484
-1.4225	VBG CC RB	-0.4709716
-2.245787	VBG CC TO	-0.0437701
-1.988227	VBG CC VB
-2.245787	VBG CC VBD	-0.5169972
-0.2385837	VBG CC VBG	0.1934111
-1.876057	VBG CC VBZ
-2.245787	VBG CC WP
-2.077413	VBN CC ,	0.179772
-2.077413	VBN CC CD	-0.1005391
-1.198211	VBN CC DT	0.1393301
-1.465383	VBN CC IN	-0.3968528
-0.9090803	VBN CC JJ	0.37996
-2.361449	VBN CC JJR
