
\data\
ngram 1=51
ngram 2=978
ngram 3=4670
ngram 4=13269

\1-grams:
-1.45207	</s>
-99	<s>	-2.343938
-1.641399	a	-1.363523
-2.343807	ad	-2.719389
-2.369615	ag	-1.393887
-2.917839	an	-1.430634
-2.097599	b	-1.001362
-4.059811	bg	-0.7572762
-1.503267	c	-2.292614
-1.706215	d	-2.25347
-3.390804	dg	-1.229748
-5.235902	e	-0.2065119
-1.522832	ew	-2.280618
-1.730074	f	-1.576037
-3.36667	g	-1.190927
-3.059811	h	-1.613034
-4.390804	i	-0.6397517
-3.327417	j	-1.118096
-2.474726	k	-1.549487
-3.717388	l	-0.9107693
-1.37869	m	-1.017626
-3.623118	mg	-1.390704
-0.6099211	n	-1.043568
-4.28166	nd	-0.6745195
-1.519148	ng	-1.251056
-3.528332	nh	-1.033742
-4.19451	ni	-0.5750695
-4.934872	nl	-0.2244575
-1.974877	nr	-0.9928925
-3.623118	ns	-1.042351
-4.235902	nt	-0.6175814
-3.056925	nx	-1.671984
-3.874174	nz	-0.9244248
-3.691834	o	-0.9235663
-1.44351	p	-2.357414
-1.639525	q	-0.5647128
-1.581533	r	-1.335519
-4.121959	rg	-0.9159984
-3.327417	s	-1.145343
-2.804538	t	-0.9184639
-4.089774	tg	-0.745615
-1.119759	u	-1.808109
-0.7086717	v	-0.7964046
-2.850296	vd	-1.45744
-1.822938	vg	-0.8352127
-1.353662	vn	-1.333849
-1.176831	w	-3.051737
-4.633842	wp	-0.5515726
-2.77802	x	-1.271856
-5.235902	y	-0.2711196
-3.837962	z	-0.9434043

\2-grams:
-1.704722	<s> a	-0.5188373
-2.461684	<s> ad	-0.4477634
-2.742511	<s> ag	-0.08608219
-2.938806	<s> an	-0.02941516
-1.977724	<s> b	-0.02366197
-3.783904	<s> bg
-1.514391	<s> c	-0.3118888
-1.726999	<s> d	-0.2111485
-3.181844	<s> dg
-1.582506	<s> ew	-0.8429251
-1.75048	<s> f	-0.1702439
-3.783904	<s> g
-3.181844	<s> h	0.1038055
-3.783904	<s> i
-3.783904	<s> j
-2.704722	<s> k	-0.01997395
-1.084066	<s> m	-0.4371352
-3.482874	<s> mg
-0.6478175	<s> n	-0.8273121
-1.607812	<s> ng	0.1103915
-3.783904	<s> nh
-2.05151	<s> nr	-0.2646405
-3.783904	<s> ns
-2.938806	<s> nx	-0.6512809
-3.783904	<s> o
-1.335197	<s> p	-0.3167502
-1.844384	<s> q	-0.1989534
-0.9388055	<s> r	-0.394231
-3.783904	<s> rg
-2.783904	<s> t	-0.2959286
-3.783904	<s> tg
-1.212195	<s> u	-0.2560956
-0.7488743	<s> v	-0.6560822
-3.084934	<s> vd
-2.020476	<s> vg	-0.007750154
-1.459621	<s> vn	-0.374795
-1.228809	<s> w	-0.2902789
-3.783904	<s> wp
-2.880814	<s> x	-0.01892918
-3.783904	<s> z
-1.557187	a </s>
-1.838739	a a	-0.03274393
-3.293584	a ad	0.3784495
-2.214402	a ag	-0.1826942
-2.895643	a an	-0.4169663
-2.063135	a b	-0.468298
-1.749515	a c	-0.3551614
-2.390494	a d	-0.2909645
-3.293584	a dg
-1.598978	a ew	0.1015942
-2.816462	a f	-0.04336549
-2.895643	a g	-0.01458791
-3.293584	a j
-2.16325	a k	0.1200317
-3.293584	a l
-2.232886	a m	-0.2829955
-0.5528262	a n	0.3834398
-1.174658	a ng	-0.02120054
-2.147455	a nr	-0.05515277
-3.594614	a ns
-3.594614	a nx
-2.515432	a p	-0.4204067
-2.063135	a q	-0.1257834
-2.816462	a r	0.0488587
-3.594614	a rg
-0.4760181	a u	-0.3052616
-1.41277	a v	-0.3345363
-2.691524	a vd	-0.1100451
-2.272394	a vg	-0.2137044
-1.364165	a vn	-0.2621256
-1.070867	a w	-0.263276
-3.594614	a y
-3.594614	a z
-1.570432	ad </s>
-2.41553	ad a	-0.3395253
-2.892651	ad ad
-2.591621	ad d
-1.662202	ad p	-0.2362514
-0.02695497	ad v	-0.2919143
-2.591621	ad vg
-1.588124	ag </s>
-1.825485	ag a	0.06779572
-2.389756	ag ad	0.704384
-1.690787	ag ag	-0.959521
-2.389756	ag b	-0.2612121
-1.825485	ag c	-0.2584067
-1.544659	ag d	-0.4672652
-1.866878	ag ew	-0.1153221
-1.963788	ag f	-0.3412785
-2.167908	ag k	-0.4274711
-2.02178	ag m	-0.1448251
-2.866878	ag mg
-0.40598	ag n	-0.1257666
-1.111003	ag ng	-0.2439772
-2.389756	ag nr	-0.2430842
-1.72075	ag o	-0.2770545
-2.866878	ag p
-2.264818	ag q	-0.1481831
-2.565848	ag s	-0.7412032
-1.963788	ag t	-0.276312
-1.361728	ag u	-0.2642374
-0.7699678	ag v	-0.2870446
-2.866878	ag vd
-1.565848	ag vg	-0.3664132
-1.19478	ag vn	-0.3540565
-1.611605	ag w	-0.002716094
-1.541995	an </s>
-2.320146	an a
-2.320146	an ag
-1.621176	an c	-0.0896986
-2.019116	an d	-0.7698676
-0.9051729	an ew	-0.1894704
-1.621176	an f	-0.1762931
-2.019116	an h	-0.4956356
-1.206203	an k	-0.6214954
-0.604143	an n	-0.06495231
-2.019116	an ng	-0.8302739
-2.320146	an nr
-2.320146	an p
-1.320146	an u	-0.0631088
-0.9222063	an v	-0.3576315
-0.997927	an vn	-0.1583734
-0.7760782	an w	-0.2276309
-1.620105	b </s>
-1.99249	b a	-0.3044844
-2.837589	b ad	0.3784495
-1.558835	b ag	-0.4767671
-2.439648	b b	-0.1699167
-2.059437	b c	0.01537862
-1.723645	b d	-0.5713704
-2.097226	b ew	-0.1782997
-1.796196	b f	-0.3220155
-2.837589	b g
-1.883346	b k	-0.2347913
-2.439648	b m	-0.1207563
-0.3525772	b n	0.1073276
-2.661497	b nd
-1.121585	b ng	-0.2822529
-3.138618	b nl
-1.837588	b nr	-0.5606081
-2.29352	b p	0.05105352
-1.99249	b q	-0.05908361
-2.661497	b r	0.01787639
-3.138618	b s
-1.252128	b u	-0.0084548
-0.9625272	b v	-0.3542264
-3.138618	b vd
-2.184376	b vg	-0.1768183
-0.9567748	b vn	-0.445462
-1.620105	b w	-0.1056435
-3.138618	b x
-0.60206	bg n	-0.1445462
-1.20412	bg ng
-0.7269987	bg p
-0.90309	bg u	-0.8108256
-0.7269987	bg v	-0.3926469
-1.20412	bg vg
-1.20412	bg vn
-1.664529	c </s>
-1.687392	c a	-0.1850836
-2.227565	c ad	-0.2845968
-2.586587	c ag	0.02059817
-2.618772	c an	-0.07296687
-2.060617	c b	-0.2715404
-2.618772	c c	-0.583409
-1.374781	c d	-0.05789435
-3.431685	c dg	-0.5929053
-2.069957	c f	-0.1813853
-3.431685	c g
-2.618772	c h	-0.1504691
-3.033745	c j	0.07852234
-3.732715	c l
-1.311111	c m	0.3549097
-0.4951716	c n	-0.03268075
-1.881457	c ng	-0.6354135
-2.334775	c nr	-0.2542886
-1.881457	c nx	-1.578579
-3.431685	c nz
-3.732715	c o
-1.22621	c p	0.2883598
-3.255594	c q
-1.672017	c r	0.1748602
-3.130655	c s	-0.1417621
-3.732715	c t
-2.732715	c u	-0.667692
-0.5474566	c v	0.05509639
-2.778473	c vd	0.09663658
-2.152932	c vg	-0.2710899
-1.106375	c vn	-0.1706336
-1.586587	c w	-0.1295196
-3.732715	c z
-1.643324	d </s>
-0.8146479	d a	-0.4204777
-2.187392	d ad	0.1791605
-2.684717	d ag	-0.2624331
-3.529815	d b
-2.529815	d c	-0.04671529
-1.454268	d d	-0.02518928
-2.830845	d dg	-0.1961336
-3.052694	d ew	-0.2068234
-2.626725	d f	-0.1364702
-3.529815	d i
-3.228785	d j
-3.529815	d k
-1.274543	d m	0.3429338
-1.690966	d n	-0.03318328
-2.187392	d ng	-0.1530089
-3.052694	d nh
-2.830845	d nr
-1.226619	d p	0.2834221
-2.383687	d q	-0.1677616
-2.684717	d r	-0.04966941
-3.052694	d rg	-0.4114338
-1.616001	d u	-0.2581058
-0.2357901	d v	-0.1762745
-2.927755	d vd	-0.07011662
-1.886363	d vg	-0.2906412
-2.575573	d w	0.007347763
-1.374137	dg </s>
-1.851258	dg a
-1.851258	dg c
-1.550228	dg d
-1.152288	dg k	-0.1419618
-1.073107	dg m	-0.3154023
-0.3598967	dg n	-0.1321748
-1.152288	dg ng	-0.1499969
-1.851258	dg u
-0.8512583	dg v	-0.1619733
-1.851258	dg vg
-1.249198	dg vn	-0.2872379
-0.30103	e v
-0.6275071	ew </s>
-2.457882	ew a	-0.2209237
-2.671762	ew ad	0.141372
-3.713154	ew an
-2.434401	ew b	-0.1690404
-1.388872	ew c	-0.5762234
-1.927825	ew d	-0.1430982
-3.014184	ew dg
-3.713154	ew ew
-2.567026	ew f	-0.01446903
-3.412124	ew g	-0.8058915
-3.412124	ew h	-0.4956356
-1.127694	ew m	-0.8806748
-1.052289	ew n	-0.7545845
-2.457882	ew ng	-0.3091237
-3.713154	ew ni
-1.900241	ew nr	-0.7539877
-3.412124	ew ns	-0.497608
-0.962646	ew p	-0.1123811
-0.5101215	ew r	-0.2584697
-3.111094	ew t	-0.1862703
-3.713154	ew u
-1.058978	ew v	-0.383716
-3.412124	ew vg
-2.208004	ew vn	-0.2530617
-2.390935	ew w	-0.5175124
-3.412124	ew wp
-3.713154	ew z
-1.750089	f </s>
-1.961895	f a	-0.2165108
-2.426782	f ad	0.1066098
-3.505964	f an
-2.39202	f b	-0.006252855
-1.872495	f c	0.1996579
-1.597479	f d	-0.4317515
-1.426782	f ew	0.039379
-2.275515	f f	-0.259681
-3.505964	f j
-2.000813	f m	-0.04521668
-0.9744846	f n	-0.07610297
-1.241146	f ng	-0.4968962
-2.359835	f nr	-0.4022014
-2.903903	f nx	-1.342964
-1.532836	f p	-0.2409922
-2.426782	f q	-0.2453095
-2.183744	f r	0.07157844
-3.028842	f t	-0.4828736
-0.7213462	f u	-0.3530402
-0.5541405	f v	0.1273091
-2.903903	f vd	-0.1795552
-1.636732	f vg	-0.7193118
-1.388692	f vn	0.1944544
-0.9017375	f w	0.2924103
-2.727812	f x	-0.3721993
-1.273001	g </s>
-1.875061	g b
-1.574031	g c	-0.6973237
-1.875061	g d
-1.875061	g ew
-1.574031	g f
-1.875061	g g
-1.09691	g m	-0.3665007
-0.49485	g n	-0.02469563
-1.39794	g ng
-0.9719713	g nr	-0.6164155
-0.9208187	g v	0.00900986
-1.875061	g vg
-1.39794	g vn
-0.9719713	g w	-0.1095359
-1.701856	h </s>
-1.032849	h a	-0.3798968
-1.480007	h ad	0.5910609
-1.877947	h d
-2.178977	h k
-2.178977	h m
-0.2598988	h n	-0.2244989
-1.701856	h ng	-0.2828279
-1.137584	h p	-0.2656925
-1.877947	h q	-0.6701715
-2.178977	h r
-0.8567576	h v	-0.1969033
-1.701856	h vn
-0.60206	i </s>
-0.90309	i c
-0.90309	i n
-0.60206	i u	-0.5990739
-0.90309	i w
-1.913814	j </s>
-1.612784	j a
-1.436693	j c
-1.913814	j ew
-1.612784	j k	-0.6400825
-0.3456121	j n	-0.3115444
-1.135663	j ng	-0.07362709
-1.913814	j p
-1.913814	j q
-1.135663	j u	-0.1339235
-0.8346326	j v	-0.08577088
-1.214844	j vn	-0.6246412
-1.311754	j w	-0.6267879
-1.807685	k </s>
-1.6158	k a	-0.432042
-2.460898	k ad	0.3784495
-2.761928	k an
-2.761928	k b
-1.557808	k c	0.02302063
-1.193726	k ew	-0.1033166
-1.647985	k f	-0.05030829
-2.761928	k g
-1.91683	k m	-0.1093475
-0.4294894	k n	-0.1457832
-1.284807	k ng	-0.1885667
-2.159868	k nr
-2.159868	k p	-1.154643
-2.460898	k q	-0.8347839
-2.460898	k s
-1.054358	k u	-0.4372575
-0.8698332	k v	-0.4276815
-2.460898	k vd
-2.761928	k vg
-1.21786	k vn	-0.1751757
-1.045925	k w	-0.1817132
-1.531479	l </s>
-1.531479	l c
-1.531479	l d
-1.531479	l f
-0.6863809	l n	-0.07930031
-1.230449	l ng
-1.531479	l r
-1.230449	l s
-0.6283889	l u	-0.1522593
-0.8325089	l v	-0.1356781
-1.531479	l vg
-1.054358	l w
-1.637164	m </s>
-1.606852	m a	-0.1800539
-3.158302	m ad	0.5910609
-2.514849	m ag	0.06063494
-3.857272	m an
-2.514849	m b	0.1637864
-3.857272	m bg
-1.695904	m c	-0.9468068
-2.167076	m d	0.007412851
-3.857272	m dg
-2.006014	m ew	0.3995757
-1.753468	m f	-0.03527498
-3.556242	m h	-0.77707
-3.556242	m j
-3.380151	m k
-3.255212	m l	-0.2200001
-1.39939	m m	-0.002148271
-3.012174	m mg	-0.4150182
-0.8804638	m n	0.1457787
-2.012174	m ng	-0.4691259
-2.626823	m nr	-0.5502461
-2.857272	m nx	-0.4382451
-3.857272	m nz
-3.857272	m o
-1.647757	m p	-0.02296042
-0.4165205	m q	0.2824259
-3.079121	m r	-0.1318445
-3.857272	m s
-3.012174	m t	-0.4407519
-3.857272	m tg
-1.547642	m u	-0.6712786
-1.074083	m v	0.06936252
-3.255212	m vd	-1.273296
-2.495544	m vg	-0.4538017
-1.970781	m vn	-0.08398741
-0.8162745	m w	-0.08860898
-1.823848	m x	-0.434736
-1.021189	mg a	-0.2315879
-1.146128	mg ag
-1.146128	mg k	-0.3141479
-0.9242793	mg m	-0.628163
-0.7201593	mg n	-0.5068047
-0.3928004	mg ng	-0.7098029
-1.623249	mg w
-1.349989	n </s>
-1.956674	n a	-0.03876662
-2.75093	n ad	-0.100134
-2.657508	n ag	-0.3254669
-2.963233	n an	0.081267
-2.565293	n b	-0.1401103
-1.239136	n c	-0.9300178
-1.783382	n d	-0.04386306
-3.324961	n dg	-0.2647368
-1.129892	n ew	-0.0640738
-1.447878	n f	-0.3843577
-3.283568	n g	-0.1300155
-4.324961	n h
-4.625991	n i
-3.479863	n j	0.09894264
-2.452805	n k	-0.1912885
-3.927021	n l	-0.1129981
-1.666473	n m	-0.1692181
-3.84784	n mg	-0.1343624
-0.6941774	n n	-0.2118473
-1.543206	n ng	0.3573678
-3.54681	n nh	-0.02299941
-4.324961	n ni
-2.569086	n nr	-0.01371574
-4.625991	n ns
-4.14887	n nt	-0.2801594
-3.4499	n nx	-0.617497
-4.324961	n nz	-0.7841117
-3.671749	n o	0.1140856
-1.603563	n p	0.1516088
-2.15032	n q	-0.5308081
-3.002742	n r	-0.1314649
-3.54681	n s	-0.1858895
-2.840661	n t	-0.07625574
-3.927021	n tg
-1.030164	n u	-0.289716
-0.7904908	n v	0.132755
-2.826651	n vd	-0.2877631
-1.756759	n vg	0.2067798
-1.311281	n vn	0.04254389
-0.8783463	n w	-0.0180099
-3.046208	n x	-0.09212309
-4.324961	n z
-1	nd d
-0.5228788	nd n
-1	nd nd
-0.5228788	nd v	-0.268509
-1	nd w
-1.57071	ng </s>
-2.073385	ng a	0.2280242
-2.813748	ng ad	0.7630461
-2.57071	ng ag	-0.4495234
-3.114778	ng an	-0.7066487
-2.512718	ng b	-0.05992404
-1.318898	ng c	0.361837
-1.841776	ng d	-0.2528327
-1.426803	ng ew	-0.09626412
-1.44268	ng f	-0.148603
-2.762595	ng g	-0.175949
-3.415808	ng h	-0.4956356
-3.114778	ng j	0.01793873
-2.225476	ng k	-0.04099429
-3.415808	ng l	-0.7255981
-1.704	ng m	-0.1683956
-3.716838	ng mg
-0.7525781	ng n	-0.1020743
-1.217151	ng ng	-0.1295547
-3.415808	ng ni
-3.716838	ng nl
-1.890763	ng nr	-0.4211693
-2.716838	ng nx	-0.2320047
-1.526506	ng p	0.1051356
-1.730066	ng q	-0.3514802
-3.239717	ng r	0.01787639
-3.114778	ng s	-0.6917177
-1.132506	ng u	-0.03678012
-0.68786	ng v	0.04425764
-2.813748	ng vd	-0.0499967
-1.877989	ng vg	-0.3374556
-1.380378	ng vn	0.08071971
-0.8142909	ng w	-0.07526422
-3.716838	ng x
-1.716003	nh a
-1.716003	nh ad
-1.716003	nh c
-1.716003	nh ew
-1.716003	nh f
-0.3357921	nh n	-0.3499949
-1.716003	nh ng
-1.716003	nh r
-1.716003	nh s
-0.8709053	nh u	-0.3204502
-1.017033	nh v	-0.05855679
-1.113943	nh vn	-0.5611061
-1.238882	nh w
-1.079181	ni c
-0.7781513	ni ew	-0.8024309
-1.079181	ni m
-0.60206	ni n	-0.2905547
-0.7781513	ni u	-0.5990739
-1.079181	ni v
-1.079181	ni w
-0.4771213	nl n
-0.4771213	nl v
-1.416165	nr </s>
-2.115135	nr a	-0.2179189
-2.562293	nr ad	0.5910609
-2.784142	nr ag
-2.562293	nr b	-0.3737466
-1.756113	nr c	-0.1001334
-1.881052	nr d	0.1530178
-2.960233	nr dg	-0.7761751
-2.14732	nr ew	-0.06460008
-2.115135	nr f	-0.0144234
-2.960233	nr g
-2.483112	nr k	0.01649216
-1.270037	nr m	0.3529999
-3.261263	nr mg
-0.800365	nr n	-0.2567781
-1.189381	nr ng	-0.1087289
-0.604207	nr nr	-0.2771686
-3.261263	nr nx
-3.261263	nr o
-1.428754	nr p	-0.204953
-2.358173	nr q	-0.04740366
-2.358173	nr r	0.2805872
-2.960233	nr s
-2.659203	nr t	-0.2162335
-3.261263	nr tg
-1.363636	nr u	-0.1468714
-0.7184374	nr v	-0.2196518
-2.115135	nr vg	-0.05300713
-2.960233	nr vn
-1.331844	nr w	-0.2647001
-1.545259	nr x	-0.2727938
-1.623249	ns </s>
-1.623249	ns a
-1.623249	ns c
-1.623249	ns d
-1.623249	ns j
-0.2615215	ns n	-0.5006087
-1.623249	ns u
-0.6232493	ns v	-0.1165845
-1.623249	ns vn
-1.623249	ns w
-1.041393	nt </s>
-0.7403627	nt ag
-0.7403627	nt n
-1.041393	nt u
-0.7403627	nt v
-0.7403627	nt w
-2.181844	nx </s>
-2.181844	nx a
-2.181844	nx ad
-0.3245111	nx c	-0.09684223
-1.482874	nx f	-0.6038232
-2.181844	nx g
-1.278754	nx m	-0.2512236
-0.7668703	nx n	-0.2224921
-1.482874	nx q	-0.6131414
-2.181844	nx r
-0.8808136	nx v	-0.1575478
-2.181844	nx vd
-1.227601	nx vn	0.02817169
-1.380211	nz </s>
-1.380211	nz d
-0.90309	nz k	-0.3401816
-0.6812412	nz n	-0.5305871
-0.5351132	nz ng	-0.1874038
-1.380211	nz u
-1.380211	nz v
-0.7781513	nz vn	-0.299532
-1.255273	o </s>
-1.255273	o a
-1.556303	o c
-1.556303	o d
-1.255273	o ew
-0.30103	o n	-0.1281269
-1.079181	o u	-0.1242798
-1.255273	o v	-0.7185814
-1.255273	o vn	-0.5817099
-1.255273	o w
-1.695552	p </s>
-1.438353	p a	-0.2955115
-2.377488	p ad	-0.1944202
-2.190402	p ag	-0.641703
-2.792462	p an	-0.9171461
-1.506904	p b	-0.07095909
-3.190402	p c	-0.07532278
-1.60777	p d	-0.4099
-3.190402	p dg
-1.78814	p f	-0.5241091
-3.190402	p g	-0.07517152
-2.537189	p h	0.1339767
-3.792462	p i
-2.889372	p j	0.04308468
-3.315341	p l
-1.264832	p m	0.2320535
-0.4280984	p n	0.3379836
-1.763078	p ng	-0.5421062
-3.190402	p nh	-0.05126992
-1.604941	p nr	-0.2184228
-2.792462	p ns	0.2806909
-3.190402	p nt	-0.1555124
-3.315341	p nz	-0.2881283
-1.646334	p p	0.07328784
-2.537189	p q	-0.2650813
-1.041183	p r	-0.3417411
-2.491432	p s	0.0272508
-2.169212	p t	-0.05580848
-2.71328	p u	-0.2340915
-0.7626722	p v	0.1608353
-2.792462	p vd	-0.01875626
-2.169212	p vg	-0.4721641
-1.172326	p vn	-0.1582383
-2.71328	p w	0.07896426
-3.792462	p wp
-3.491432	p z	-0.7058839
-1.727255	q </s>
-1.567103	q a	0.0391233
-2.482544	q ad	0.0744251
-2.392367	q ag	-0.19541
-2.818336	q an	-0.3167479
-1.652004	q b	-0.176231
-1.825635	q c	-0.1879631
-1.733164	q d	-0.133812
-3.119366	q dg	-0.2669708
-3.596487	q e
-1.790307	q ew	0.1992047
-1.506582	q f	-0.2804766
-2.693397	q g	-0.2039439
-2.555094	q h	-0.6949246
-2.751389	q j	-0.3570126
-2.642245	q k	0.06898606
-3.295457	q l	-0.7255981
-1.776943	q m	-0.3006883
-3.596487	q mg
-0.4855609	q n	-0.1514125
-3.596487	q nd
-1.482544	q ng	-0.1182629
-2.818336	q nh	-0.1717232
-1.994427	q nr	-0.0683133
-3.596487	q ns
-2.751389	q nx	-0.3287435
-1.371178	q p	-0.2552754
-2.751389	q q	-0.1713376
-2.897517	q r	-0.5247113
-3.596487	q s
-2.818336	q t	-0.07844646
-1.506582	q u	0.1284478
-0.6795071	q v	0.1505276
-2.596487	q vd	-0.03692359
-1.329315	q vg	-0.7675561
-1.166735	q vn	-0.351197
-1.453472	q w	0.05419004
-3.295457	q x	-0.8298692
-1.645865	r </s>
-1.855125	r a	-0.2274634
-2.508337	r ad	0.04446185
-2.809367	r ag
-3.654465	r an
-2.207307	r b	-0.1843249
-2.955495	r c	-0.3304471
-2.011013	r d	0.106261
-3.052405	r ew	-0.2029899
-2.207307	r f	0.04844087
-2.955495	r h	-0.2822355
-3.353435	r j
-3.177344	r k	-0.4752271
-1.629159	r m	-0.4915891
-0.671742	r n	-0.005639195
-2.041682	r ng	-0.7613786
-2.955495	r nr	-0.05785359
-3.654465	r nz
-1.938462	r p	-0.161036
-1.914103	r q	-0.2792515
-2.613073	r r	0.3392936
-3.353435	r s
-3.052405	r t
-1.496103	r u	-0.2296799
-0.2305644	r v	-0.3831003
-2.575284	r vg	-0.3436165
-2.207307	r vn	-0.08128116
-1.547255	r w	-0.4224199
-3.654465	r x
-3.654465	r z
-1.146128	rg b
-1.146128	rg c
-0.6690068	rg f	-0.225146
-1.146128	rg n
-0.6690068	rg ng
-0.6690068	rg u	-0.5145709
-1.146128	rg x
-1.311754	s </s>
-1.913814	s c
-1.436693	s d	0.01052323
-0.9138138	s ew	-0.1881375
-1.436693	s f	-0.225146
-0.6833649	s n	-0.3068756
-1.311754	s ng	-0.2267016
-1.135663	s p	-0.3582242
-1.913814	s s
-0.7676858	s u	-0.4492337
-1.010724	s v	-0.1835686
-1.214844	s vn	0.02591524
-1.214844	s w
-1.529879	t </s>
-1.733999	t a	-0.2281368
-2.131939	t b
-2.131939	t c
-1.955848	t d	-0.3407401
-1.587871	t ew	-0.1046959
-1.432969	t f	-0.04983035
-2.432969	t k
-2.432969	t m
-0.4984708	t n	-0.3332505
-1.587871	t ng	-0.1977204
-1.131939	t p	0.07150543
-2.432969	t q
-2.432969	t r
-0.8419047	t u	-0.3657196
-0.9144554	t v	-0.1458773
-1.830909	t vg	-0.246832
-1.071241	t vn	-0.03202561
-1.228849	t w	-0.03604212
-2.432969	t z
-1.176091	tg a
-1.176091	tg b
-1.176091	tg ew
-0.4771213	tg n	-0.1053241
-1.176091	tg p
-0.8750613	tg u
-0.8750613	tg v
-1.176091	tg vg
-1.741428	u </s>
-1.482707	u a	-0.2181915
-2.547974	u ad	-0.3476485
-2.434935	u ag	-0.00119108
-2.453418	u an	0.08244181
-1.767871	u b	0.224045
-2.970048	u c	-0.1721328
-1.830619	u d	-0.2986203
-3.639055	u dg
-2.611026	u ew	0.2664368
-2.051718	u f	0.1399
-3.116176	u g	-0.1706085
-2.559873	u h	0.09377021
-3.338025	u j	-0.1799672
-3.514116	u l	-0.1735817
-1.068123	u m	-0.7643807
-0.3679879	u n	-0.3387132
-3.639055	u nd	-0.2124076
-1.853725	u ng	-0.7282662
-3.271078	u nh	-0.003924787
-4.116176	u ni
-2.197098	u nr	-0.08194506
-3.338025	u ns	-0.09649885
-4.116176	u nt
-3.514116	u nz	-0.09290029
-1.898692	u p	-0.1513425
-2.453418	u q	-0.3805793
-1.96084	u r	0.06855714
-3.338025	u s	-0.340094
-3.338025	u t	-0.01973149
-4.116176	u tg
-2.653778	u u	-0.5533479
-0.8721463	u v	-0.1082256
-2.773753	u vd	-0.1239934
-1.15809	u vg	0.1486701
-0.9506348	u vn	0.09384727
-2.258843	u w	-0.2095354
-3.338025	u x	0.04086733
-3.514116	u z	-0.1064429
-1.53646	v </s>
-1.429292	v a	-0.1974292
-1.923017	v ad	-0.0001192093
-2.196829	v ag	-0.2623814
-2.837047	v an	0.2994142
-1.979468	v b	0.2256265
-1.957869	v c	-0.3743798
-1.675985	v d	-0.08569193
-3.749092	v dg	-0.1282021
-1.695373	v ew	0.1371374
-1.874997	v f	0.1873308
-4.226213	v g
-2.88379	v h	0.08412391
-4.226213	v i
-3.226213	v j	-0.8917869
-2.24849	v k	-0.2062846
-3.749092	v l	-0.0854139
-1.435225	v m	0.02706957
-3.682145	v mg	0.03044376
-0.6063375	v n	-0.1017001
-1.432423	v ng	-0.1503652
-3.4133	v nh	-0.3003303
-3.925183	v ni
-1.937294	v nr	0.1715399
-3.448062	v ns	-0.1981915
-4.527243	v nt
-3.351152	v nx	-0.974341
-3.749092	v nz	-0.04447011
-3.828273	v o	0.06655139
-1.310813	v p	0.2026398
-1.902961	v q	-0.7234467
-1.783733	v r	0.1753014
-3.682145	v rg	-0.09667885
-3.351152	v s	-0.1803046
-2.682145	v t	-0.02629864
-3.925183	v tg	-0.06657135
-0.9082542	v u	-0.1214972
-0.6914892	v v	-0.1166151
-2.675985	v vd	-0.02583045
-2.167408	v vg	-0.01142907
-1.499894	v vn	-0.185124
-1.340569	v w	-0.02459669
-2.947459	v x	-0.1619512
-3.749092	v z	-0.2560441
-1.211299	vd </s>
-2.08636	vd a
-2.08636	vd ag
-1.542292	vd c	-0.1349407
-1.609239	vd d	-0.06316173
-1.4843	vd ew	-0.007641658
-1.609239	vd f	-0.09403748
-2.38739	vd k
-0.4842998	vd n	-0.2535647
-1.542292	vd ng	-0.1846329
-1.68842	vd p	-0.2763436
-1.78533	vd q	-1.350952
-1.18327	vd u	-0.1629084
-0.8688759	vd v	-0.06606096
-0.7539214	vd vn	0.1706373
-1.4843	vd w	-0.09410885
-1.680738	vg </s>
-1.85683	vg a	-0.08837861
-2.714162	vg ad	0.5910609
-1.24287	vg ag	-0.4785035
-3.413132	vg an
-1.731891	vg b	-0.2087509
-2.510042	vg c	-0.05667645
-1.769679	vg d	-0.2638211
-3.413132	vg dg
-2.051404	vg ew	0.2040114
-1.894618	vg f	-0.3540381
-2.811072	vg h	-1.011022
-3.112102	vg j
-2.182683	vg k	-0.1018088
-1.375706	vg m	-0.3816535
-0.4377002	vg n	-0.108278
-3.413132	vg nd
-1.348674	vg ng	-0.1117342
-3.112102	vg nh
-3.413132	vg ni
-2.090913	vg nr	-0.1736885
-2.936011	vg o
-1.907982	vg p	-0.09285852
-2.237041	vg q	-0.3616698
-2.371739	vg r	0.3663006
-3.413132	vg s
-2.811072	vg t	-0.3087499
-0.9882504	vg u	-0.5512031
-0.808906	vg v	0.1426482
-3.112102	vg vd	-0.6695577
-1.92177	vg vg	-0.2342747
-1.2228	vg vn	-0.4506516
-1.750374	vg w	0.2347736
-3.413132	vg x
-1.428978	vn </s>
-2.166293	vn a	-0.3124366
-2.603543	vn ad	-0.3421494
-3.104146	vn ag	0.07064255
-3.037199	vn an	0.002414666
-2.484357	vn b	-0.137826
-1.594495	vn c	-0.4382463
-2.031039	vn d	-0.4029623
-1.231019	vn ew	0.02476037
-1.856991	vn f	0.09959811
-3.581267	vn g
-2.031039	vn k	-0.1376052
-3.882297	vn l
-2.539874	vn m	-0.2512212
-3.405175	vn mg	-0.312262
-0.3458646	vn n	-0.2332511
-1.100541	vn ng	-0.6405777
-3.581267	vn nh
-2.651848	vn nr	-0.03675684
-2.882297	vn nx	-0.2336771
-1.86946	vn p	0.07228804
-2.484357	vn q	-0.01718301
-2.840904	vn r	-0.1931672
-3.882297	vn s
-2.338229	vn t	-0.1325349
-1.074086	vn u	-0.3420008
-1.137222	vn v	-0.1703792
-3.405175	vn vd
-2.314095	vn vg	-0.2789603
-1.334522	vn vn	-0.4165815
-1.208355	vn w	-0.3108096
-3.882297	vn x
-3.882297	vn z
-1.682532	w </s>
-1.987227	w a	-0.02469862
-2.318746	w ad	0.589565
-3.280957	w ag	0.07064255
-3.104866	w an	-0.1527618
-2.239565	w b	0.03822815
-2.945165	w bg	0.01131171
-0.9813777	w c	-0.278954
-1.311697	w d	-0.1916609
-2.979928	w dg	0.002583385
-1.948519	w f	-0.3414689
-3.360139	w h	-0.1492301
-4.059109	w i
-3.581988	w j	-0.1067082
-3.360139	w k	-0.4901647
-3.581988	w l
-0.9297412	w m	-0.2543162
-2.979928	w mg	0.07112151
-0.7968951	w n	-0.1535966
-2.085981	w ng	-0.4848175
-4.059109	w nh
-1.699273	w nr	-1.350001
-3.214011	w ns	0.001225948
-4.059109	w nt
-3.457049	w nz	-0.1703529
-1.105349	w p	-0.1883558
-2.883018	w q	-0.1819688
-1.213391	w r	0.09224832
-3.581988	w s
-3.360139	w t	-0.06868103
-4.059109	w tg
-1.490907	w u	-0.3459014
-0.5428379	w v	-0.03197002
-2.883018	w vd	0.01784813
-2.780355	w vg	-0.09176335
-1.811136	w vn	-0.4087836
-2.697381	w x	-0.2710701
-3.457049	w z	-0.1355908
-0.69897	wp j
-0.69897	wp m
-0.39794	wp n	-0.841713
-1.50515	x </s>
-1.681241	x a	-0.362622
-2.459393	x ag
-2.459393	x b
-1.255273	x c	-0.1986386
-1.982271	x d	0.01052323
-2.459393	x ew
-1.681241	x f	-0.1603884
-2.459393	x k
-1.044419	x m	-0.2009737
-0.3912066	x n	-0.1643533
-1.556303	x ng	-0.1854553
-1.614294	x nr	-0.2193361
-1.556303	x p	-0.02237521
-2.459393	x rg
-0.9279135	x u	-0.1576517
-1.097665	x v	0.1035772
-2.459393	x vg
-1.760422	x vn	0.07831483
-1.345449	x w	-0.3087208
-0.30103	y w
-1.414973	z ad
-1.113943	z ew
-0.5698753	z n	-0.2464699
-0.4607309	z u	-0.3273179
-1.414973	z v
-0.9378521	z vn
-1.113943	z w

\3-grams:
-1.49662	<s> a a	-0.008562982
-1.845599	<s> a an	-0.2426098
-1.845599	<s> a b
-1.496378	<s> a ew	-0.1248404
-1.845599	<s> a k
-0.5351132	<s> a n	-0.04140019
-0.9652379	<s> a ng	-0.1420724
-0.4259687	<s> a u	0.03283429
-1.496378	<s> a v	-0.1249855
-1.49662	<s> a vn	-0.1594008
-1.522293	a a </s>
-1.522293	a a a	-0.270874
-1.522293	a a ew	-0.2679027
-0.7144822	a a n	-0.1147363
-1.173314	a a ng
-1.522293	a a p	-0.08219197
-1.522293	a a q
-0.5254259	a a u	-0.4430803
-1.522293	a a vn	-0.4148072
-0.8016323	a a w	0.1693187
-0.1578096	ad a u	-0.1571205
-0.8078105	ag a ew
-0.722081	ag a n
-0.8078105	ag a ng	-0.4044068
-0.8078105	ag a u
-0.1918855	b a n	-0.08732018
-1.46252	c a </s>
-1.462762	c a a
-0.4118545	c a n	-0.09112233
-1.045323	c a ng	0.009104431
-1.726011	c a nr	-0.157316
-0.647383	c a u	-0.3293664
-1.391442	c a v	0.05621479
-1.811741	c a vg
-1.46252	c a vn	-0.05800007
-1.760925	d a </s>
-2.132364	d a a
-1.601224	d a c	-0.1690002
-2.061287	d a d	-0.02806383
-1.372745	d a ew	-0.1483546
-1.812077	d a k	-0.06225869
-2.481585	d a m
-0.9827736	d a n	-0.01648527
-1.812077	d a ng	-0.04136118
-2.481585	d a nr
-2.481585	d a p	-0.08219197
-0.2680093	d a u	-0.135329
-1.392948	d a v	-0.4788448
-2.481585	d a vg
-1.459895	d a vn	-0.1083187
-0.9089874	d a w	-0.1206364
-0.6727113	ew a n	-0.09000644
-0.2552725	ew a u	-0.3851301
-0.39794	f a n	0.08314303
-0.5898255	f a u	-0.2792996
-1.310486	f a v
-0.9612647	f a vn	0.0804606
-0.243038	h a n	-0.08485017
-0.9125459	h a q	-0.3318095
-0.8268163	h a u	-0.1149388
-0.1918855	k a n	-0.3144294
-0.9125459	k a w
-0.7732987	m a </s>
-2.016838	m a ag
-1.34733	m a c	-0.2863762
-1.667859	m a d	0.06142488
-1.074329	m a m	-0.1502831
-0.4375066	m a n	0.06315428
-1.34733	m a ng	-0.01657996
-1.931108	m a r	-0.08760646
-0.9951475	m a u	-0.3128012
-1.25042	m a v	0.09045532
-1.667859	m a vn	0.0427652
-1.931108	m a w	-0.008640841
-0.3684779	mg a ew
-1.555374	n a </s>
-1.853315	n a a	-0.09579704
-2.015436	n a ag	0.02739507
-1.523189	n a c	-0.2736349
-1.222159	n a ew	-0.1213746
-2.086514	n a g	0.05739655
-2.086756	n a k	-0.09604542
-0.7662269	n a n	0.2265001
-0.9880756	n a ng	0.001021385
-2.350005	n a nr	-0.06512979
-2.086756	n a p	-0.07944606
-2.015436	n a q	0.01525027
-0.7662269	n a u	-0.6988686
-1.669317	n a v	-0.07103244
-2.435735	n a vg
-1.307589	n a vn	0.4344391
-0.5621069	n a w	-0.06249505
-1.060892	ng a c	-0.1516222
-1.324141	ng a ew	-0.1921415
-1.060649	ng a n	-0.1121725
-1.409871	ng a ng
-0.9895721	ng a u	-0.2031051
-1.409871	ng a v
-0.4673614	ng a w	0.02851272
-0.9125459	nr a c	-0.2328033
-0.5635668	nr a n	-0.1024091
-0.9125459	nr a ng
-0.8268163	nr a w
-1.451018	p a </s>
-2.034797	p a a	-0.5219384
-2.034797	p a ag	-0.1432033
-2.120526	p a c	-0.2328033
-2.120526	p a d
-0.2606868	p a n	-0.368304
-1.274927	p a ng	-0.02729872
-1.771547	p a nr
-1.771547	p a q
-0.8226295	p a u	-0.4457101
-1.312716	p a v	0.06773087
-2.034797	p a vg	-0.1880986
-1.312716	p a vn	-0.02865614
-2.120526	p a w
-1.44658	q a </s>
-1.710072	q a a	-0.07971935
-0.2811958	q a n	-0.0766896
-0.9879911	q a ng	-0.07590892
-1.710072	q a nr
-0.9154404	q a u	-0.1812035
-1.710072	q a v	-0.2070267
-1.795802	q a vg
-1.795802	q a vn
-1.710072	q a w	-0.1443567
-0.4569179	r a b	-0.5121073
-0.544068	r a n	0.1846958
-0.8962505	r a u	-0.3664527
-1.480029	r a vd	-0.3324643
-1.480029	r a w	-0.1443567
-0.3796583	t a a	-0.4612405
-2.050907	u a </s>
-2.050665	u a a	-0.03156543
-2.399886	u a b	-0.3081833
-1.979588	u a c	-0.1310646
-2.050665	u a ew	-0.08808865
-2.399886	u a k
-0.309186	u a n	-0.1289217
-0.9174651	u a ng	-0.1716409
-2.314157	u a nr
-0.8852804	u a u	-0.05873871
-1.202105	u a v	0.09385359
-2.050907	u a vd
-2.314157	u a vg	-0.02525827
-1.077166	u a vn	-0.1418334
-1.592076	u a w	0.144595
-1.682978	v a </s>
-1.92186	v a a	0.07731432
-2.28195	v a ag	0.09929857
-2.864369	v a b	-0.3081833
-2.143708	v a c	-0.3283685
-2.778639	v a d	-0.1149053
-1.755528	v a ew	0.08124623
-2.778639	v a f
-2.515148	v a k	-0.05831005
-2.864369	v a m
-0.6539063	v a n	-0.196214
-1.298611	v a ng	0.1508746
-2.28195	v a nr	-0.0175083
-2.864369	v a p	-0.08219197
-2.01877	v a q	-0.1817006
-0.2803857	v a u	-0.01778615
-1.62083	v a v	0.1378663
-2.778639	v a vg
-1.444739	v a vn	0.0512172
-1.3198	v a w	0.01683879
-0.30103	vg a n	0.02525061
-1.236991	vg a ng
-0.9737413	vg a u	-0.1570572
-0.9737413	vg a v	-0.1222195
-1.32272	vg a vn
-1.236991	vg a w
-0.5698753	vn a n	-0.05791694
-1.062123	vn a ng	-0.1687494
-0.9000017	vn a u	-0.2338534
-0.7617608	vn a v	-0.7119182
-0.60206	vn a w	-0.1713351
-1.8383	w a </s>
-1.8383	w a a
-1.8383	w a ag	-0.1906056
-1.8383	w a an
-1.75257	w a c	-0.1665874
-0.624724	w a n	0.03621578
-0.8957908	w a ng	0.0116262
-0.5404031	w a u	-0.3925052
-1.168792	w a v	-0.003490433
-1.8383	w a vg
-1.418001	w a vn	-0.1677825
-1.11764	w a w	0.1715722
-0.4588395	x a c	-0.5724137
-0.4588395	x a n
-1.088637	<s> ad p	-0.03933796
-0.04346569	<s> ad v	-0.1931333
-0.06744787	a ad v
-0.1578096	ag ad v
-0.06744787	b ad v
-0.01378828	c ad v	-0.1802956
-0.04139268	d ad v	0.1927633
-0.03778856	ew ad v	-0.1496701
-0.03476211	f ad v	-0.1773808
-0.1161666	h ad v	-0.4181616
-0.06744787	k ad v
-0.1161666	m ad v	-0.2110281
-1.641479	n ad p
-0.02380292	n ad v	-0.05786318
-0.6695079	ng ad p	-0.03933796
-0.2492094	ng ad v	-0.008613937
-0.1161666	nr ad v	0.04728667
-0.01703334	p ad v	-0.1658216
-0.03218468	q ad v	0.178561
-0.02996322	r ad v	0.1110364
-0.01189922	u ad v	-0.1609977
-1.458098	v ad </s>
-2.284914	v ad a	-0.09888625
-2.021423	v ad p	0.1222078
-0.02558684	v ad v	-0.02807689
-0.1161666	vg ad v	-0.1022192
-1.045171	vn ad </s>
-0.04830468	vn ad v	-0.6689405
-1.506781	w ad </s>
-1.157802	w ad p	0.222973
-0.06826483	w ad v	-0.1453496
-0.3875121	<s> ag n	-0.08596165
-0.8078105	<s> ag ng	-0.2002929
-1.146629	a ag n
-0.7263307	a ag ng	-0.3072467
-1.146629	a ag u
-0.3802112	a ag v	-0.1121717
-1.060899	a ag vn
-0.02996322	ag ag n	-0.0628666
-0.1173856	b ag n	-0.446963
-1.346201	b ag v
-1.260472	b ag vg	-0.06134318
-0.8268163	c ag d	0.6115638
-0.5635668	c ag n
-0.8268163	c ag v	-0.06090349
-0.2625368	d ag v
-1.023111	m ag n	-0.1859361
-0.4393327	m ag ng	-0.1599
-1.108841	m ag v	-0.2520581
-1.108841	m ag w
-1.734901	n ag </s>
-1.734901	n ag b	0.09148028
-1.152481	n ag c	-0.1102801
-0.5371192	n ag n	-0.07548222
-1.152481	n ag ng
-1.734901	n ag nr
-1.38568	n ag o	-0.06364492
-0.6067551	n ag v	-0.2717828
-1.152481	n ag vg	-0.1236224
-1.38568	n ag w	-0.08126947
-0.5635668	ng ag n	-0.06883594
-0.243038	ng ag v	-0.2224531
-1.282748	p ag </s>
-1.368478	p ag ag	0.7514025
-0.2596373	p ag n	-0.1907565
-1.368478	p ag q
-0.69897	p ag vn	-0.0364954
-0.9705378	q ag d	0.4204092
-0.5502394	q ag n	-0.1050748
-0.9705378	q ag ng	-0.2002929
-0.9705378	q ag o	0.02246916
-0.9705378	q ag vg
-1.027361	u ag a	-0.1228206
-1.098438	u ag ag	0.5221329
-1.098438	u ag d	0.1911396
-1.027361	u ag n	-0.1732036
-0.7269987	u ag ng	-0.1876648
-1.447659	u ag t
-1.36193	u ag u	-0.007137835
-0.8652396	u ag v	-0.1519339
-1.447659	u ag vg	-0.2028401
-1.74761	v ag </s>
-1.747853	v ag ag	0.8115475
-1.74761	v ag d	0.1911396
-2.011102	v ag ew	-0.02421467
-1.747853	v ag f	-0.1450242
-1.676533	v ag m	0.05240649
-0.30103	v ag n	0.07817292
-1.21647	v ag ng	-0.06706476
-1.747853	v ag o	0.2847801
-2.096832	v ag t
-1.330414	v ag u	0.2737708
-1.05166	v ag v	0.134305
-2.096832	v ag vg	-0.2028401
-0.9879911	v ag vn	-0.08624387
-1.514412	v ag w	-0.06663482
-1.516381	vg ag </s>
-1.93668	vg ag ad	0.09148028
-1.85095	vg ag ew
-1.5877	vg ag k	-0.2383332
-0.4626915	vg ag n	0.0668906
-1.587458	vg ag ng	-0.111436
-1.93668	vg ag s	0.4174148
-1.056318	vg ag u	-0.09427863
-0.5367932	vg ag v	-0.1357898
-1.056318	vg ag vn	-0.4118823
-1.93668	vg ag w	-0.320893
-0.5445691	vn ag n	-0.3311469
-0.5445691	w ag n
-0.5257863	<s> an n	-0.09731446
-0.4653879	a an h	0.4174148
-0.4653879	a an w
-0.8803613	c an k
-0.7946317	c an vn
-1.080197	n an ew
-1.429176	n an f
-1.429176	n an k	-0.1205485
-0.6627578	n an n	-0.04636574
-1.343446	n an u	0.02665046
-0.7596679	n an v	-0.02396601
-1.079955	n an vn	-0.01976472
-0.7085153	n an w	-0.03812957
-0.3684779	ng an vn	-0.337328
-0.3684779	ng an w
-0.04139268	p an n	-0.1491918
-0.1953479	q an n	-0.1269234
-1.343446	u an </s>
-0.7596679	u an ew	0.01628149
-1.079955	u an k	0.1654365
-0.6213651	u an n	-0.01161101
-1.008877	u an v	-0.09680259
-1.080197	u an vn	-0.07507093
-1.008877	u an w	-0.1905853
-0.7359536	v an ew	-0.1110308
-1.456614	v an f	-0.1902103
-1.370884	v an k
-1.107635	v an n	-0.02615809
-1.370884	v an u	0.02665046
-1.036316	v an v	0.02971891
-1.036316	v an vn	-0.01397352
-0.6488034	v an w	0.02987473
-0.6115159	vn an n
-0.7206604	w an ew
-0.7206604	w an n
-0.7206604	w an v
-0.7206604	w an w
-1.486868	<s> b ag	0.3920069
-1.572598	<s> b k
-0.3590219	<s> b n	0.1165695
-1.223377	<s> b ng	0.04725284
-1.486868	<s> b nr
-0.80618	<s> b v	0.01803175
-1.223619	<s> b vn	0.1869568
-0.6283889	a b n	-0.05576454
-1.297897	a b p
-0.9489177	a b u	0.1800448
-0.3273589	a b v	-0.3554541
-0.1578096	ag b n
-0.4653879	b b ag	0.2008522
-1.352786	c b ag	-0.2090145
-0.5581545	c b n	-0.00449875
-0.7178553	c b ng	-0.03276283
-1.438516	c b u	-0.3577421
-0.5259698	c b vn	-0.4957634
-1.045171	ew b ag
-0.6959502	ew b n	0.03914475
-1.045171	ew b ng	-0.2527536
-0.6961924	ew b vn	-0.0152092
-0.6959502	ew b w
-0.4600628	f b n	-0.04286094
-0.7946317	f b u	0.1088884
-1.108841	m b ag	0.2008522
-0.5264211	m b n	-0.09365941
-1.023111	m b ng	-0.4730833
-1.023111	m b v
-1.023111	m b vn
-1.406817	n b </s>
-1.827116	n b d	0.08719453
-1.741386	n b ew	-0.004591793
-1.478137	n b f
-1.741386	n b k
-0.4074853	n b n	0.04002136
-0.8302489	n b ng	-0.2398038
-1.244696	n b u	-0.05205536
-1.106455	n b v	-0.03266153
-1.019305	n b vn	-0.007006139
-1.478137	n b w
-0.6213166	ng b n	-0.06127515
-0.6213166	ng b u	-0.3115357
-0.9705378	ng b w	-0.2863862
-0.1164088	nr b n	-0.1252995
-1.966246	p b </s>
-1.702754	p b ag	0.1147382
-1.631677	p b f	-0.1116099
-1.702996	p b k	-0.06351388
-2.051975	p b m
-0.2602514	p b n	0.1365928
-1.244165	p b ng	-0.03960681
-2.051975	p b nr	-0.3858177
-1.702754	p b q	0.09238368
-1.331315	p b u	0.06379116
-0.9845273	p b v	0.1639235
-1.206376	p b vn	0.03673741
-2.051975	p b w
-1.710901	q b </s>
-1.128481	q b ag	-0.294089
-1.710901	q b c
-1.361679	q b d	-0.142075
-1.710901	q b f	-0.08226618
-0.3424227	q b n	-0.209897
-1.625171	q b ng	-0.4730833
-1.710901	q b nr	-0.1236589
-1.361679	q b v	-0.01626495
-0.7403627	q b vn	-0.5345642
-1.213576	r b f
-0.3679768	r b n	-0.161258
-0.8645968	r b nr	-0.06351388
-1.213576	r b u	-0.08226618
-1.127846	r b v	-0.06176433
-1.127846	r b vn	-0.2657207
-1.532303	u b </s>
-1.765744	u b a	0.08261415
-1.765744	u b ag	0.2609972
-2.114723	u b c
-1.765501	u b d	0.2487403
-2.114723	u b ew
-2.114723	u b f
-1.765744	u b k
-0.3570788	u b n	0.06322837
-1.694424	u b ng	0.04071678
-1.765744	u b nr	-0.2723175
-1.765501	u b q	0.04403879
-1.394062	u b u	0.1741955
-0.8297909	u b v	-0.1405378
-2.028993	u b vg
-0.8569432	u b vn	0.2308849
-2.028993	u b w
-1.644685	v b </s>
-2.314193	v b a
-2.314193	v b ag	0.2008522
-2.314193	v b b	-0.2426098
-1.965214	v b c	-0.09551451
-1.964971	v b d	0.3872009
-2.314193	v b ew	-0.1957464
-2.314193	v b f
-2.228463	v b k	0.06749576
-0.3518751	v b n	0.2070869
-1.085377	v b ng	-0.09112394
-1.965214	v b nr	-0.06351388
-1.964971	v b p	-0.002850488
-2.314193	v b q	-0.2559676
-1.100617	v b u	0.07276487
-0.9245254	v b v	-0.1571473
-2.314193	v b vg
-0.9349908	v b vn	0.1692088
-1.547775	v b w	0.03821948
-1.027361	vg b ag	0.1715085
-1.36193	vg b d	0.2783492
-0.2833012	vg b n	-0.2049848
-1.027361	vg b ng	-0.1873461
-1.447659	vg b v
-1.09868	vg b vn	-0.5184908
-0.2839966	vn b n	-0.1738124
-0.8151366	vn b ng	-0.1313747
-1.164358	vn b v
-1.164358	vn b vn
-1.236983	w b </s>
-1.500232	w b a	0.2136238
-0.314394	w b n	-0.1756349
-1.500232	w b nd
-1.165663	w b ng	0.1707153
-1.236983	w b u
-1.585962	w b v	-0.252919
-1.585962	w b vn	-0.07535419
-1.236983	w b w
-0.5313821	w bg n	0.08028476
-0.7946317	w bg p
-0.7946317	w bg v	-0.09888625
-1.269513	<s> c d	0.01404575
-1.68671	<s> c m	-0.06480636
-0.4434381	<s> c n	-0.4201106
-1.950201	<s> c ng	-0.1951608
-1.950201	<s> c nx	1.242277
-2.035931	<s> c p
-2.035931	<s> c r
-0.5136381	<s> c v	-0.130016
-1.22812	<s> c vn	-0.2517983
-0.9472936	<s> c w	0.07614696
-0.7311547	a c a	0.05007473
-1.611516	a c ag	-0.3546188
-1.029096	a c d	0.03970343
-0.845098	a c n	-0.09012353
-1.611516	a c nx	1.432644
-1.611516	a c p
-0.447158	a c v	0.1493715
-1.611516	a c vn
-1.262537	a c w	-0.1200535
-0.8078105	ag c m
-0.8078105	ag c n
-0.4588315	ag c nx	0.989507
-0.3796583	an c v
-0.8455991	b c a
-0.7598695	b c n
-0.8803613	c c d	-0.06238919
-0.1597008	c c v	-0.1085473
-0.7664179	d c v
-0.6806883	d c w
-1.421193	ew c </s>
-1.210339	ew c d	-0.2753678
-1.148191	ew c n	-0.2110472
-0.8329208	ew c p	0.1144727
-1.421193	ew c r	-0.4691259
-0.6808298	ew c v	-0.03797245
-2.0907	ew c vn
-0.4104686	ew c w	-0.04574955
-1.314157	f c d	-0.2527557
-0.9795879	f c f	-0.06355892
-1.314157	f c m	-0.1736581
-0.8174669	f c n	0.004913583
-1.050665	f c p	-0.1665712
-0.5920758	f c v	-0.06605692
-1.314157	f c vn	-0.2124989
-0.06744787	g c v
-0.6213166	k c m
-0.9705378	k c n
-0.6213166	k c v
-0.8848083	k c vn	0.07893893
-1.578565	m c </s>
-1.927786	m c a
-1.578807	m c f
-0.1975802	m c m	-0.1142625
-0.7463946	m c n	-0.3745167
-1.927786	m c nr
-1.927786	m c s
-1.207126	m c v	-0.1127207
-1.927786	m c vn
-1.654462	n c </s>
-1.646493	n c a	-0.04206467
-2.804052	n c ad	0.8511916
-2.732975	n c ag	0.03731193
-2.804294	n c an	-0.1010396
-1.971882	n c b	-0.1135952
-3.067544	n c c	0.2783492
-1.807072	n c d	-0.04680043
-3.153273	n c dg	0.4174148
-2.210764	n c f	-0.03410417
-2.432613	n c h	-0.08559892
-3.153273	n c j	-0.2426098
-1.517624	n c m	-0.2394897
-0.2779524	n c n	-0.009116769
-1.66258	n c ng	-0.1561629
-2.804294	n c nr	-0.1465198
-1.909734	n c nx	0.3659707
-1.714758	n c p	0.051597
-1.753387	n c r	-0.2394574
-0.7584666	n c v	-0.02787292
-3.153273	n c vd
-2.210764	n c vg	-0.2229713
-1.013944	n c vn	-0.1889298
-1.581938	ng c </s>
-1.744059	ng c a	-0.06025369
-1.815379	ng c b	-0.2565724
-1.815379	ng c d	0.1999218
-1.318759	ng c f	-0.3569525
-2.164358	ng c j
-1.39794	ng c m	-0.09779918
-0.49485	ng c n	-0.2721084
-1.815379	ng c ng	0.2575167
-2.164358	ng c nr	-0.3383559
-2.164358	ng c nx	1.432644
-1.581938	ng c p	-0.02141321
-1.744059	ng c r	-0.08656701
-1.815137	ng c u	0.1881671
-0.5850267	ng c v	-0.02994865
-1.815379	ng c vg
-1.036212	ng c vn	-0.233439
-2.164358	ng c w
-1.271568	nr c m	-0.3127151
-0.9223466	nr c n	-0.09745723
-0.5509075	nr c nr	-0.07839812
-0.9225888	nr c p	-0.6772908
-1.271568	nr c r
-0.9225888	nr c v	-0.01573923
-1.185838	nr c w
-1.62375	nx c a	-0.4164496
-1.62375	nx c f
-1.538021	nx c m	-0.0214453
-0.5563025	nx c n	0.06170052
-1.538021	nx c p	-0.2273934
-1.62375	nx c u	0.2742812
-0.60206	nx c v	-0.2044948
-1.041331	nx c vg	-0.1055739
-0.9542425	nx c vn	0.1944496
-1.62375	nx c w
-0.3684779	p c n
-1.53727	q c </s>
-0.9548504	q c d	-0.215084
-0.566732	q c m	-0.3970768
-1.116971	q c n	-0.1165115
-1.45154	q c ng	0.1863604
-1.53727	q c p	-0.2341542
-1.53727	q c r
-0.566732	q c v	-0.1523464
-1.53727	q c vg
-0.4653879	r c d
-0.4653879	r c v
-0.5635668	u c d	-0.002244204
-0.5635668	u c v
-1.915493	v c </s>
-2.250062	v c a	-0.02072015
-1.915493	v c ad	1.051117
-1.986813	v c an
-1.615131	v c b	-0.2584769
-1.154401	v c d	-0.1644878
-1.986813	v c m	-0.6557366
-0.9461246	v c n	-0.2156533
-2.335792	v c ng
-2.250062	v c nr	-0.5287225
-1.455431	v c nx	0.7112044
-1.338925	v c p	0.002007663
-2.250062	v c u	0.4654358
-0.3189539	v c v	0.2014427
-2.335792	v c vd
-0.8881327	v c vn	0.06666982
-0.5257863	vd c d
-0.6695079	vg c d
-0.5837783	vg c n
-0.6695079	vg c v	-0.2780502
-2.05422	vn c </s>
-1.70524	vn c a	-0.05155332
-1.96849	vn c ad	0.8900946
-2.05422	vn c an	-0.3487299
-2.05422	vn c b
-1.704998	vn c d	-0.2916587
-2.05422	vn c f
-0.7314993	vn c n	-0.482136
-1.4718	vn c p	-0.1052788
-1.70524	vn c r	0.01275975
-0.5096505	vn c v	0.05969018
-0.4954101	vn c vn	-0.1885351
-1.58637	w c </s>
-1.798978	w c a	-0.08571073
-1.90164	w c ad	0.3010299
-2.844149	w c ag
-2.844149	w c b
-2.174641	w c c	0.00409025
-1.082096	w c d	0.2085319
-2.844149	w c f
-2.844149	w c h
-1.521429	w c m	-0.1831092
-1.056542	w c n	0.09005678
-2.844149	w c ng	-0.00479427
-2.123489	w c nx	0.8573325
-0.7989776	w c p	0.00902617
-1.454482	w c r	0.081662
-0.3120626	w c v	-0.1922034
-2.75842	w c vd	-0.1418817
-2.75842	w c vg
-1.776701	w c vn	0.05413768
-1.822459	w c w	0.02759242
-0.6213166	x c m	-0.2568022
-0.6213166	x c n	-0.2340407
-0.8848083	x c nx	1.242277
-0.8016323	<s> d a	-0.0474419
-1.474101	<s> d d	0.1134338
-1.474344	<s> d m	-0.2899902
-1.474344	<s> d n	-0.004770011
-1.240903	<s> d p	0.01110714
-1.474344	<s> d u	-0.126244
-0.2180558	<s> d v	-0.1927854
-0.6215588	a d a	-0.3073879
-0.20412	a d v	-0.1480897
-0.06694679	ag d v	-0.2521355
-0.06744787	an d a
-0.8324121	b d ng	-0.2111512
-1.181391	b d p
-0.1597008	b d v	-0.08520392
-1.454845	c d </s>
-0.9429615	c d a	-0.2760421
-2.038623	c d d	-0.2384784
-1.153815	c d m	-0.1656031
-1.775131	c d n	0.03292539
-1.102662	c d p	-0.2641234
-1.316542	c d u	0.03708622
-0.2473451	c d v	0.002090335
-1.541933	c d vg
-1.841965	d d </s>
-0.7967933	d d a	-0.6184573
-1.841965	d d d
-1.756235	d d m	-0.2009782
-1.172457	d d n	-0.1157593
-1.492744	d d p	0.06457026
-1.259545	d d u	-0.03299275
-0.2366979	d d v	-0.08952492
-1.841965	d d w
-1.551748	ew d </s>
-0.8822398	ew d a	-0.1710237
-1.551748	ew d c
-1.551748	ew d d	-0.04811189
-1.202526	ew d p	0.06457026
-1.551748	ew d u	-0.4039345
-0.2171281	ew d v	0.01128155
-1.674903	f d </s>
-1.674903	f d ad	0.6167039
-1.325924	f d d
-1.674903	f d m
-1.325682	f d p	-0.07389042
-0.145057	f d v	-0.2011088
-1.674903	f d vg	-0.4074501
-1.674903	f d w
-1.456614	m d </s>
-0.8741944	m d a	-0.3366515
-1.370884	m d m	-0.2242023
-1.370884	m d p
-0.2277981	m d v	0.01319617
-1.456614	m d vg
-1.638489	n d </s>
-0.9081108	n d a	0.4540192
-2.260048	n d ad	0.6768488
-2.523298	n d c
-1.395451	n d d	0.08393973
-2.523298	n d dg	0.000944376
-2.609027	n d ew	-0.05737928
-1.666518	n d m	-0.02574813
-1.801217	n d n	-0.173399
-2.523298	n d ng
-2.523298	n d nr
-1.179851	n d p	0.1689485
-2.260048	n d q	-0.1958226
-2.260048	n d r	-0.008716062
-1.587337	n d u	-0.01766601
-0.20412	n d v	0.1763308
-1.763428	n d vg	-0.1289799
-2.609027	n d w
-0.9208187	ng d a	0.2104058
-1.641479	ng d ag
-1.641479	ng d c
-1.55575	ng d d	0.1430427
-1.292258	ng d p	-0.4144327
-1.641479	ng d u	-0.1640875
-0.1848652	ng d v	0.007906973
-1.060899	nr d a	-0.1858198
-1.146629	nr d m
-1.060899	nr d q	-0.1634642
-0.3388186	nr d v	-0.01248929
-1.951109	p d </s>
-1.038563	p d a	0.1210505
-0.7533277	p d m	-0.0697757
-1.60213	p d n	-0.3512118
-1.86538	p d ng	-0.5321219
-1.60213	p d p
-1.60213	p d u	-0.1039425
-0.2209036	p d v	-0.2630216
-1.544011	q d </s>
-1.209442	q d a	0.1300813
-1.280762	q d n	-0.004770011
-1.280762	q d p	-0.06600767
-0.1643528	q d v	-0.1659112
-1.060649	r d a	-0.05654854
-1.409871	r d d	-0.04811189
-0.7403627	r d m	-0.08464092
-1.060892	r d p
-0.3424227	r d v	0.05523556
-0.2435391	s d v	-0.3345122
-0.2435391	t d p
-1.702754	u d </s>
-0.6043161	u d a	-0.2054696
-2.051975	u d ad	0.6167039
-1.702996	u d d	0.2141991
-2.051975	u d f
-0.8541936	u d m	-0.09955987
-1.171614	u d n	-0.4439614
-1.631677	u d p	0.08799741
-0.3664792	u d v	-0.212989
-1.70513	v d </s>
-0.5567921	v d a	-0.3796323
-2.268455	v d ad	0.3874343
-2.531947	v d ag
-1.436285	v d d	0.03904194
-1.135255	v d m	-0.1336781
-2.268455	v d n
-2.268455	v d ng	-0.1097505
-1.4041	v d p	-0.1181576
-2.531947	v d q
-1.809866	v d u	-0.2365995
-0.3059512	v d v	0.1002085
-2.197378	v d vg	-0.167175
-0.1953479	vd d v	-0.1159896
-1.409871	vg d </s>
-0.8274511	vg d a	-0.1233497
-1.324141	vg d d	-0.2384784
-0.8274511	vg d m	-0.1201154
-1.060892	vg d n	-0.8245339
-1.324141	vg d rg	-0.09888625
-0.3881802	vg d v	-0.2766885
-0.529039	vn d a	-0.0746789
-1.197378	vn d d	-0.07745561
-1.531947	vn d f	-0.1289354
-0.2830566	vn d v	0.06837547
-1.492139	w d </s>
-1.17921	w d a	0.08476406
-2.164851	w d ad	0.1735672
-1.332438	w d d	-0.3027849
-1.747412	w d m	-0.08289868
-1.844322	w d n	-0.07489806
-2.51383	w d ng
-1.007049	w d p	-0.05431414
-1.492139	w d u	-0.3479322
-0.1839307	w d v	-0.04263282
-1.93141	w d vg	-0.5351183
-0.2435391	x d v
-0.06744787	c dg n	-0.3674725
-0.3796583	d dg m	-0.08760646
-0.2218488	n dg n	-0.1084149
-0.9817183	n dg ng	0.000944376
-0.9817183	n dg v	-0.3548707
-0.06744787	nr dg v
-0.1578096	q dg n	-0.1653049
-0.4588395	v dg k	-0.05145521
-0.5445691	v dg n
-0.8455991	w dg m
-0.4253007	w dg n	-0.03302594
-1.967815	<s> ew ad	0.6544924
-1.385396	<s> ew c	0.09135768
-1.967815	<s> ew f
-0.8791778	<s> ew m	0.06711376
-0.9972771	<s> ew n	0.1335747
-1.882085	<s> ew nr	-0.0833787
-0.8211859	<s> ew p	0.08770853
-0.4232459	<s> ew r	-0.4243778
-0.9461246	<s> ew v	0.1479167
-1.967815	<s> ew wp
-0.5185139	a ew </s>
-1.412832	a ew c	0.09460196
-1.179634	a ew m	-0.05700946
-1.092545	a ew n	0.1058675
-1.041393	a ew p	0.04895693
-0.5642715	a ew r	-0.1390613
-1.179634	a ew v	0.04774469
-1.762053	a ew w
-0.4174388	ag ew p	-0.01825081
-0.7664179	ag ew r
-0.30103	an ew </s>
-1.095662	an ew n	-0.01514852
-0.7610928	an ew r	-0.3132198
-1.181391	an ew v
-0.3875121	b ew </s>
-0.8078105	b ew p
-0.2435391	d ew r	0.2281157
-0.6167833	f ew </s>
-1.26318	f ew c	0.02955049
-1.845599	f ew d	-0.01957026
-1.037789	f ew m	0.01380563
-1.079181	f ew n	0.08628345
-1.49662	f ew nr	-0.01222233
-0.8487324	f ew p	-0.2449371
-0.7367586	f ew r	0.1242011
-0.9330532	f ew v	0.002047718
-1.845599	f ew vn
-0.3377528	k ew </s>
-1.33462	k ew c	-0.3231229
-1.24889	k ew n	-0.01514852
-1.33462	k ew p	-0.2493683
-0.6139592	k ew r	-0.3471954
-1.33462	k ew v
-1.268697	m ew </s>
-1.617676	m ew b
-1.268455	m ew c	-0.2871807
-0.7051303	m ew m	-0.3506176
-0.5725048	m ew n	0.1329056
-1.531947	m ew nr
-0.7720771	m ew p	-0.1145914
-1.268455	m ew r	0.3896614
-1.268455	m ew v	-0.03160729
-0.618152	n ew </s>
-2.541857	n ew a	0.1331829
-2.913296	n ew ad	0.4252228
-2.382156	n ew b	-0.02532232
-1.406194	n ew c	0.02425575
-1.916315	n ew d	-0.0384286
-3.176787	n ew dg
-2.593009	n ew f	-0.01698607
-1.208297	n ew m	0.1590556
-1.077798	n ew n	-0.1856524
-2.496099	n ew ng	-0.1291837
-1.842886	n ew nr	0.2313282
-0.9646201	n ew p	0.06426883
-0.4870732	n ew r	-0.008466482
-3.262517	n ew t
-1.06313	n ew v	0.11605
-2.26565	n ew vn	-0.1844653
-2.416918	n ew w	-0.08573467
-0.5998386	ng ew </s>
-1.474033	ng ew c	0.01630294
-0.8750613	ng ew m	0.9134486
-0.9678153	ng ew n	0.03060627
-2.056453	ng ew nr
-1.059586	ng ew p	0.08586019
-0.6087934	ng ew r	-0.05905354
-1.034762	ng ew v	0.03813845
-1.970723	ng ew vn
-0.06744787	ni ew v	-0.3582233
-0.5313821	nr ew </s>
-0.8803613	nr ew c
-0.7946317	nr ew r	0.4192703
-0.8803613	nr ew v
-0.8519375	q ew </s>
-1.223619	q ew c	0.05131489
-1.572598	q ew d
-0.9901783	q ew m	-0.00359299
-0.8519375	q ew n	0.2286742
-0.9901783	q ew p	-0.03808981
-0.6600519	q ew r	-0.1922935
-0.8519375	q ew v	-0.05989805
-0.3684779	r ew v
-0.4174388	s ew </s>
-0.7664179	s ew n
-0.6806883	s ew r	0.4192703
-0.6115159	t ew p	-0.399275
-0.5257863	t ew r	0.4192703
-0.60206	u ew </s>
-1.271568	u ew m
-0.9223466	u ew n	-0.184341
-0.5509075	u ew p	-0.06642592
-1.271568	u ew r	0.2281157
-1.185838	u ew v	-0.1404591
-0.5988737	v ew </s>
-2.598288	v ew a
-2.598288	v ew b
-1.32672	v ew c	-0.2052566
-1.877627	v ew d	-0.5491239
-1.061018	v ew m	0.2536891
-1.02569	v ew n	0.08231944
-2.249066	v ew ng	-0.1593473
-2.249309	v ew nr
-1.012326	v ew p	-0.0817408
-0.5418352	v ew r	0.1978637
-1.075995	v ew v	0.1229202
-2.249066	v ew vn	-0.1815946
-2.512558	v ew w	-0.07129136
-0.6695079	vd ew p
-0.6695079	vd ew r
-0.7791666	vg ew </s>
-0.7078472	vg ew m	-0.1209145
-1.128146	vg ew n	-0.2063031
-1.128146	vg ew p
-0.7078472	vg ew r	0.279879
-0.6059551	vn ew </s>
-2.417696	vn ew a	-0.07250634
-2.417696	vn ew b
-1.50515	vn ew c	0.003190637
-1.835276	vn ew d	0.1337589
-1.146128	vn ew m	0.01114959
-1.174157	vn ew n	-0.05197257
-2.417696	vn ew ng
-2.417696	vn ew nr
-1.007825	vn ew p	0.06540275
-0.4444521	vn ew r	-0.08173907
-1.119799	vn ew v	0.05717117
-2.331966	vn ew vn
-1.450863	<s> f c	-0.1407815
-1.799842	<s> f d
-1.45062	<s> f ew
-0.9542425	<s> f n	-0.2141531
-1.033424	<s> f ng	-0.5088888
-1.450863	<s> f p
-0.6354837	<s> f u	-0.2660741
-0.5710257	<s> f v	0.08056459
-1.450863	<s> f vn	-0.07041241
-1.130334	<s> f w	-0.2140427
-0.4588395	a f v	-0.2237192
-0.5837783	ag f u
-0.6695079	ag f w
-0.6695079	ag f x	-0.2787611
-0.3796583	an f w
-1.108841	b f n
-1.023111	b f v	-0.1305159
-0.2632414	b f vg	-0.659685
-1.429176	c f m
-1.008877	c f n	0.006977744
-0.5488145	c f ng	-0.214497
-1.080197	c f u	-0.1177457
-0.7085153	c f v	-0.03226393
-1.079955	c f vg	0.3405539
-0.6695079	d f u
-0.6695079	d f v
-0.6695079	d f vn
-0.9125459	ew f n
-0.9125459	ew f ng
-0.9125459	ew f p	-0.1328022
-0.9125459	ew f v	-0.3216705
-0.9968668	f f n
-0.2762064	f f v	-0.105006
-0.9968668	f f w
-0.8803613	k f u	-0.3748714
-0.4600628	k f v	-0.06710979
-0.7946317	k f w
-1.870222	m f c
-1.062411	m f ew	-0.1005535
-1.870222	m f m
-0.8250501	m f n	0.01062828
-1.870222	m f ng	-0.2390523
-1.449923	m f nr	-0.006874561
-1.870222	m f p
-1.784492	m f r
-0.6266825	m f u	0.001021147
-0.6724399	m f v	0.0009592175
-1.870222	m f vg
-1.521242	m f vn	-0.07041241
-1.024622	m f w	0.01912996
-1.646634	n f </s>
-1.816385	n f a	0.1063468
-2.59531	n f ad	0.459985
-2.223871	n f b	-0.297285
-2.098932	n f c	-0.05551729
-1.576053	n f d	-0.1241196
-1.429925	n f ew	0.2324184
-2.524233	n f f	-0.04556659
-2.223871	n f m	-0.1863563
-1.128895	n f n	-0.126104
-1.672963	n f ng	0.09881651
-2.595552	n f nx	0.4896644
-1.399962	n f p	0.04219371
-2.944531	n f q
-2.098932	n f r	0.1347453
-0.6479136	n f u	-0.1060967
-0.545656	n f v	-0.01636982
-2.858802	n f vd
-2.031985	n f vg	0.6027188
-1.291623	n f vn	0.04620087
-0.8201784	n f w	0.08110869
-1.691355	ng f </s>
-1.954846	ng f a	-0.01168546
-1.954846	ng f c
-1.274158	ng f d	0.1313487
-1.274158	ng f ew	-0.0729049
-1.691355	ng f f	0.2026765
-0.9519386	ng f n	-0.133392
-1.620277	ng f ng	-0.1562901
-0.6509085	ng f u	-0.05851156
-0.5259698	ng f v	-0.1374367
-1.620277	ng f vn	-0.09398651
-1.070038	ng f w	-0.1684955
-0.9125459	nr f c	-0.2963704
-0.9125459	nr f ew
-0.9125459	nr f n
-0.9125459	nr f u
-0.8268163	nr f v
-0.1161666	nx f ng	-0.04918984
-1.770739	p f m	-0.3587621
-0.589348	p f n	0.02188981
-0.9251401	p f ng	0.1065624
-1.350441	p f u	-0.1261273
-0.3810721	p f v	-0.06560957
-1.421518	p f vg	-0.1997
-1.68501	p f vn
-1.507344	q f </s>
-1.856323	q f a
-1.507344	q f c	-0.114292
-1.770593	q f d	0.3132229
-1.186815	q f ew	-0.06546784
-1.089905	q f n	-0.07307515
-1.089905	q f ng	-0.09702072
-0.7474824	q f u	-0.202832
-0.6127838	q f v	0.111665
-1.507102	q f vg	-0.1997
-1.089905	q f vn	-0.3079537
-0.9759617	q f w	-0.08761016
-1.127846	r f ew
-0.8645968	r f n	-0.08726496
-1.213576	r f ng
-0.8643547	r f u	-0.106478
-0.544068	r f v	-0.005516961
-1.213576	r f vn
-1.213576	r f w
-0.2435391	rg f v
-0.2435391	s f v	-0.2851105
-0.7664179	t f d	0.1220683
-0.6806883	t f v	-0.1826243
-1.830876	u f c
-1.481897	u f d	0.2010952
-1.830876	u f ew
-1.745146	u f f
-1.745146	u f m	-0.4109354
-0.7027302	u f n	0.2082759
-0.6173	u f ng	-0.1060408
-1.830876	u f p
-1.745146	u f u
-0.6494846	u f v	-0.2289744
-1.410577	u f vg	0.0002257824
-1.745146	u f vn
-1.161368	u f w	-0.3435727
-2.069443	v f </s>
-2.418664	v f a	-0.2955942
-2.332935	v f ad	0.498888
-1.836245	v f c	-0.03386471
-1.573065	v f d	-0.05530286
-2.069443	v f ew	-0.03672729
-1.836245	v f m	0.05153261
-0.8197374	v f n	-0.02816093
-1.147096	v f ng	-0.491024
-2.332935	v f nr	-0.1768765
-1.610854	v f p	-0.00398615
-2.332935	v f q	-0.06687358
-2.418664	v f r	-0.2164129
-0.7889235	v f u	-0.1271182
-0.5803643	v f v	-0.0008897781
-1.573065	v f vg	0.02756655
-1.652246	v f vn	-0.285975
-0.800988	v f w	0.03095692
-2.332935	v f x	-0.4295263
-0.4588395	vd f u
-0.5642715	vg f n	-0.01235442
-0.5642715	vg f ng	-0.3650559
-1.284932	vg f u
-0.7025123	vg f v	-0.1562351
-1.284932	vg f vg	0.02956951
-1.442745	vn f </s>
-1.705994	vn f d	0.3132229
-1.791724	vn f m
-1.442502	vn f n	-0.1379985
-1.442745	vn f ng	-0.196636
-1.705994	vn f p	0.05835238
-1.705994	vn f t	-0.09888625
-0.7700334	vn f u	-0.188138
-0.5067919	vn f v	-0.1564052
-1.705994	vn f vg	-0.160797
-1.442502	vn f vn	-0.03271701
-0.794857	vn f w	0.1315491
-1.527786	w f c	-0.05295458
-1.877008	w f d
-0.9966463	w f ew	-0.03386605
-1.031408	w f n	-0.03966805
-1.069197	w f ng	0.237057
-1.877008	w f nr	0.02246916
-1.527786	w f p	0.02874348
-0.8801408	w f u	0.09007844
-0.4873404	w f v	-0.167716
-1.456709	w f vg	0.203185
-1.031408	w f w	-0.07256398
-0.4588395	x f u	0.01326399
-0.5445691	x f v
-0.4653879	a g n
-0.06744787	ew g m
-1.108841	n g </s>
-1.023111	n g m
-0.5264211	n g n	-0.05311688
-0.6885421	n g nr	-0.3519199
-1.108841	n g w
-0.7206604	ng g f
-0.6349308	ng g w
-0.3684779	p g n
-0.5837783	q g v
-0.6695079	q g vn
-0.3461194	u g n	-0.1312578
-0.7664179	u g v
-0.3684779	<s> h n
-0.06744787	an h n	-0.2690387
-0.8803613	c h a	-0.3546188
-0.2108534	c h n	-0.1289792
-0.06744787	ew h n	-0.380672
-0.06744787	m h v
-0.06744787	ng h n
-0.6013919	p h n	-0.09020095
-0.6727113	p h p	-0.2732244
-0.6724691	p h v	-0.1355233
-0.04139268	q h n	-0.0529336
-0.1164088	r h n	-0.320527
-1.236991	u h a
-1.236991	u h ad	0.0144369
-0.1945747	u h n	0.05294183
-1.236991	u h p	-0.1600493
-1.32272	u h v
-0.9895721	v h a	-0.08605579
-0.3646991	v h n	-0.1679881
-1.409871	v h p	-0.2390264
-0.60206	v h v	0.05403301
-0.01949878	vg h n	-0.2088937
-0.4653879	w h p	-0.2390264
-0.4653879	c j n
-0.5635668	n j n
-0.8268163	n j v	-0.02901292
-0.8268163	n j vn	0.01364821
-0.3684779	ng j n
-0.6695079	p j n
-0.5837783	p j ng	-0.08760646
-0.2625368	q j n	-0.2023628
-0.6115159	q j ng
-0.19559	u j n	-0.009149477
-1.067448	v j c
-0.2218488	v j n	0.06916004
-1.067448	v j u
-0.7184688	v j v	-0.2816121
-0.2435391	w j n	-0.3773062
-0.7598695	<s> k v	-0.1267695
-1.112052	a k ew	-0.3478836
-0.7774832	a k n
-0.8485604	a k u	-0.06501934
-0.8488026	a k v
-0.8485604	a k w	0.03501839
-0.1161666	ag k n
-0.2979417	an k ew	0.2233032
-0.5313821	an k w	-0.2000472
-1.02169	b k ew
-0.30103	b k n	-0.09712122
-1.02169	b k v	-0.264988
-1.02169	b k vn
-0.4653879	dg k u	-0.3299025
-0.06744787	j k n
-0.1578096	mg k n	-0.4867369
-1.590625	n k c
-1.270096	n k ew	0.326271
-1.939604	n k f
-0.5397178	n k n	-0.3050263
-1.059243	n k ng	-0.005040854
-0.9427373	n k u	-0.06773198
-0.792975	n k v	-0.2061762
-0.997095	n k vn	-0.2185551
-0.997095	n k w	0.25133
-0.9088005	ng k ew	-0.6006537
-0.5882717	ng k n	0.01777226
-0.9088005	ng k ng	-0.2096419
-1.25778	ng k u
-0.9088005	ng k v	-0.09635805
-1.17205	ng k vn	-0.2117499
-0.9088005	ng k w	-0.2000472
-0.4588395	nr k n
-0.2435391	nz k vn	-0.1816508
-0.6349308	q k n	-0.1539488
-0.7206604	q k v
-0.1578096	r k w	-0.07383338
-1.69595	v k </s>
-1.375664	v k a	0.2439375
-1.696192	v k ew	0.1047939
-1.959442	v k f	-0.4301769
-0.2875275	v k n	0.2211426
-1.278754	v k ng	0.006512851
-1.959442	v k p	0.7424344
-1.237361	v k u	0.2028953
-0.9777236	v k v	-0.2920853
-1.324511	v k vn	0.07542144
-1.132626	v k w	-0.217565
-0.9968668	vg k f	-0.3487299
-0.5765684	vg k n	-0.4979611
-0.6478877	vg k u	-0.03718492
-1.531947	vn k </s>
-1.531947	vn k a	-0.1678974
-1.268697	vn k c	-0.2243523
-1.197378	vn k ew	0.2932749
-1.531947	vn k f	-0.172196
-1.268697	vn k m	-0.04054589
-0.4533183	vn k n	-0.1505618
-1.617676	vn k nr
-1.268697	vn k u	-0.5404665
-0.737315	vn k v	-0.2157629
-1.617676	vn k w
-0.4653879	w k f
-0.4653879	w k q	0.4174148
-0.2827483	m l n
-0.4653879	n l v	-0.1902103
-0.06744787	ng l u
-0.06744787	q l u	-0.1423197
-0.3684779	u l v
-0.4588395	v l n
-2.045957	<s> m a
-2.380526	<s> m c	0.2035579
-2.380526	<s> m d	-0.2258893
-2.466256	<s> m ew
-2.466256	<s> m f
-2.380526	<s> m m	-0.1735923
-1.194688	<s> m n	0.02921602
-2.466256	<s> m ng
-2.466256	<s> m p	-0.08440557
-0.116639	<s> m q	-0.4093496
-1.585894	<s> m u	-0.1160671
-1.444565	<s> m v	0.06095698
-2.466256	<s> m vg	-0.06296101
-2.466256	<s> m vn
-1.301898	<s> m w	-0.1445583
-2.466256	<s> m x
-0.7791666	a m n
-1.042416	a m p	0.1067491
-0.5457262	a m v	-0.5343841
-1.128146	a m w
-1.128146	a m x	-0.3307844
-0.5257863	ag m c	0.2035579
-0.4653879	b m n
-2.102292	c m </s>
-1.838801	c m a	-0.04452416
-1.839043	c m c	0.2747143
-2.102292	c m ew	-0.1531279
-1.767723	c m f	-0.03087533
-2.102292	c m m	-0.1735923
-0.6434527	c m n	-0.2762863
-1.839043	c m ng	-0.0807078
-2.188022	c m nr
-1.838801	c m p	-0.4566239
-0.4130037	c m q	-0.1401559
-1.605602	c m u	0.2575265
-0.890125	c m v	0.03004754
-2.188022	c m vg
-2.188022	c m vn
-1.217484	c m w	0.0128407
-2.188022	c m x	-0.1974451
-1.601392	d m </s>
-1.935961	d m a	-0.03619266
-2.02169	d m c
-2.02169	d m ew
-1.672469	d m f	-0.4069992
-1.30103	d m m	-0.2379934
-0.7112045	d m n	-0.03964728
-1.672469	d m ng	-0.0430124
-2.02169	d m nr	0.1067901
-2.02169	d m nx	0.03703734
-1.439271	d m p	-0.2854321
-0.5309966	d m q	-0.1794727
-1.935961	d m u	-0.2192391
-1.109144	d m v	-0.03967643
-1.141329	d m w	-0.2649553
-1.141329	d m x	-0.3990066
-0.5445691	dg m u	-0.02887255
-0.5445691	dg m v
-1.471517	ew m </s>
-2.351879	ew m d
-1.243038	ew m m	-1.280041
-0.7659168	ew m n	-0.3931718
-2.351879	ew m ng	-0.2328033
-0.8952646	ew m p	-1.132016
-0.544068	ew m q	-0.305445
-0.7466117	ew m v	-0.8789904
-2.351879	ew m vn	-0.3443781
-0.9420081	ew m w	-0.8186297
-1.271568	f m a	-0.2273473
-1.271568	f m f
-1.271568	f m n
-1.271568	f m ng	-0.3354657
-0.4259687	f m q	-0.09834774
-0.8512694	f m v
-1.271568	f m w	-0.2746707
-1.271568	f m x
-0.5445691	g m n
-0.4588395	g m x	-0.3878116
-0.6115159	k m u
-0.6797307	m m </s>
-1.804001	m m a	-0.436816
-2.13857	m m c	0.2035579
-2.13857	m m d
-0.8896801	m m m	0.1579979
-0.8896801	m m n	-0.2170872
-1.875321	m m ng	0.02950767
-1.311754	m m p	0.01160976
-0.8558219	m m q	-0.2401792
-2.2243	m m r
-2.2243	m m u	-0.3727373
-0.926403	m m v	-0.1099557
-1.875321	m m vg	0.1972238
-2.13857	m m vn	0.04017267
-1.026518	m m w	-0.4963944
-1.875321	m m x	-0.1373001
-0.1161666	mg m ag	-0.0894924
-1.755398	n m </s>
-1.755398	n m a	0.06483361
-2.640207	n m ad	0.0144369
-2.725936	n m b
-1.579307	n m c	0.1859627
-1.918126	n m d	-0.1751054
-1.617096	n m ew	0.2067109
-1.269322	n m f	-0.1832194
-1.729069	n m m	0.03936544
-2.725936	n m mg
-1.045704	n m n	0.1113921
-2.640207	n m ng	-0.0416487
-1.597791	n m p	0.2713722
-0.4766448	n m q	0.2844208
-2.640207	n m r
-1.346735	n m u	0.09815049
-0.8072301	n m v	-0.4651368
-2.005276	n m vg	-0.5925147
-2.143517	n m vn	-0.2696193
-0.876733	n m w	-0.5294539
-1.918126	n m x	-0.2260026
-1.779255	ng m a
-1.058595	ng m c	0.3259668
-1.430034	ng m d	0.2610956
-1.109747	ng m ew	-0.1654084
-1.693526	ng m f
-1.196836	ng m n	-0.2462986
-1.779255	ng m p	-0.08440557
-1.430034	ng m q	-0.01576279
-0.933656	ng m u	0.3225928
-0.6511094	ng m v	-0.2531369
-0.6704146	ng m w	-0.1508286
-1.693526	ng m x	-0.2250639
-1.757644	nr m </s>
-1.757644	nr m a
-1.408423	nr m c	-0.4249819
-1.408423	nr m f
-1.671914	nr m m
-0.6690068	nr m n	-0.06913725
-1.408423	nr m p	-0.1705196
-1.408423	nr m q
-1.671914	nr m u	-0.2192391
-1.088136	nr m v	-0.1038387
-0.5598623	nr m w	-0.1205831
-1.175224	nr m x	-0.08445331
-0.5837783	nx m n	-0.1773709
-0.5837783	nx m x
-1.573387	p m </s>
-1.486237	p m a	-0.2618233
-1.944826	p m b	-0.1097505
-1.486237	p m c	-0.6043006
-2.294048	p m d	-0.03552276
-2.208318	p m ew	-0.1381507
-1.573387	p m f	-0.4301923
-1.711628	p m m	-0.07599927
-0.598211	p m n	0.3008408
-1.873749	p m ng	0.1064139
-2.208318	p m p	-0.1793552
-0.4745515	p m q	0.2772937
-1.944826	p m u	-0.1149866
-1.050509	p m v	-0.1439051
-1.945069	p m vn	-0.08206709
-1.297181	p m w	-0.6822364
-1.381502	p m x	-0.1150047
-1.585962	q m a
-1.585962	q m c
-1.585962	q m ew
-0.5407903	q m n	-0.116114
-1.500232	q m ng	-0.144311
-0.4771213	q m q	-0.2127471
-0.819544	q m v	0.04210243
-1.585962	q m w
-1.705994	r m </s>
-1.209304	r m a	-0.2117122
-1.791724	r m b
-0.4455223	r m n	-0.2355894
-1.705994	r m ng
-1.791724	r m p
-0.5481846	r m q	-0.1026447
-0.9113625	r m v	-0.3558257
-1.705631	u m </s>
-2.048053	u m a	-0.3267498
-2.46525	u m ag	-0.06684847
-2.00666	u m c	-0.6420891
-2.814471	u m f
-2.728741	u m m
-1.139568	u m n	0.1343323
-2.144963	u m ng	0.02950767
-2.144963	u m p	0.1157716
-0.08568384	u m q	-0.301147
-2.728741	u m u	0.1622821
-1.705631	u m v	-0.1436277
-2.093811	u m vn	-0.01173636
-2.048053	u m w	-0.1982358
-1.836746	v m </s>
-1.749596	v m a	-0.2753937
-2.858436	v m ag	-0.3814249
-2.858436	v m b
-1.54795	v m c	-0.04747981
-1.94589	v m d	0.09212506
-2.509215	v m ew	-0.1318113
-1.749596	v m f	0.0120331
-1.730291	v m m	0.06313583
-0.8615695	v m n	0.2417332
-1.94589	v m ng	0.06037629
-2.772707	v m nr
-2.772707	v m nx	-0.1533292
-1.694078	v m p	-0.04741639
-0.3446067	v m q	0.02199578
-1.118891	v m u	-0.3461253
-1.096383	v m v	-0.163213
-2.858436	v m vd	0.932801
-2.509457	v m vg	-0.2698251
-1.749596	v m vn	-0.08735991
-1.199924	v m w	-0.3328942
-1.887898	v m x	0.1387944
-1.454623	vg m ag	-0.4576637
-1.803844	vg m c	0.01240328
-0.3939738	vg m n	0.1451854
-1.383546	vg m ng	-0.18104
-1.803844	vg m nr	0.1067901
-1.803844	vg m p
-0.8613352	vg m q	0.037469
-0.9234831	vg m v	-0.145796
-1.803844	vg m vd	0.932801
-0.9582453	vg m vn	-0.8402364
-1.803844	vg m w	-0.2746707
-1.108841	vn m a
-0.7598615	vn m n
-0.4393327	vn m q	-0.02983838
-0.7598615	vn m v	0.02311565
-2.050186	w m </s>
-1.23174	w m a	-0.0706566
-2.895786	w m b
-1.731428	w m c	-0.6598179
-2.810056	w m d	-0.2258893
-1.828338	w m ew	-0.01576221
-1.925248	w m f	0.0006415248
-2.895786	w m l	-0.1045736
-0.9307105	w m m	-0.2077971
-2.810056	w m mg	-0.07987243
-0.9620503	w m n	0.1465279
-2.475487	w m ng	-0.18104
-2.546806	w m nr	-0.3363465
-2.895786	w m nx
-2.226278	w m p	0.08385283
-1.260136	w m q	0.01916945
-2.313366	w m t	0.2425399
-2.015424	w m u	0.2963514
-1.405092	w m v	0.3430366
-2.129368	w m vn	0.08005932
-0.2955832	w m w	0.1657068
-1.874095	w m x	-0.3493556
-0.83217	x m n	-0.09285003
-1.181391	x m v
-0.5989717	x m w	-0.2089275
-0.83217	x m x	-0.1692386
-0.2625368	m mg n	0.1583316
-0.5257863	m mg ng	-0.1627577
-0.5445691	n mg a
-0.4588395	n mg ng	0.2187635
-0.6115159	v mg m	0.2048034
-0.6115159	v mg ng
-0.2435391	vn mg m	0.2048034
-0.8455991	w mg a
-0.7598695	w mg n	0.04883495
-0.4963779	w mg ng	-0.05850524
-1.931966	<s> n a	-0.01340941
-2.094693	<s> n b	0.0260281
-1.206667	<s> n c	-0.2233194
-1.813867	<s> n d	-0.04575223
-1.272763	<s> n ew	-0.8623819
-1.44589	<s> n f	-0.3740289
-2.816774	<s> n k	-0.08565381
-1.403692	<s> n m	-0.197553
-0.6589649	<s> n n	0.04652011
-1.512837	<s> n ng	-0.03127766
-2.902504	<s> n nr
-1.579784	<s> n p	-0.09864327
-2.181844	<s> n q	0.02729313
-2.902504	<s> n r	-0.2928013
-1.102662	<s> n u	-0.1169964
-0.7819777	<s> n v	-0.04725826
-2.902504	<s> n vd
-1.290988	<s> n vg	-0.2756107
-1.316542	<s> n vn	-0.03327113
-0.8760147	<s> n w	-0.2557707
-2.902504	<s> n x
-1.37903	a n </s>
-2.087545	a n a	0.02248292
-2.387907	a n ad	0.8189688
-2.225786	a n ag	-0.5663537
-2.808205	a n an
-2.225786	a n b	-0.2205316
-1.510308	a n c	0.009171903
-1.786515	a n d	-0.04494235
-1.215713	a n ew	0.5764753
-1.485485	a n f	0.09258258
-2.722476	a n g	-0.1339776
-2.459226	a n j	-0.2944739
-2.722476	a n k	-0.157258
-1.895659	a n m	-0.01319212
-0.6072184	a n n	-0.250965
-1.462004	a n ng	-0.1080289
-2.459226	a n nr	0.008036271
-1.661576	a n p	-0.04056638
-2.808205	a n q
-2.808205	a n t
-0.8894989	a n u	-0.001678705
-0.8139006	a n v	-0.1234627
-2.808205	a n vd
-2.722476	a n vg	-0.22703
-1.222243	a n vn	0.04801011
-0.9810895	a n w	0.26922
-2.458984	a n x	-0.07858813
-1.419505	ag n </s>
-2.141586	ag n a
-1.644896	ag n c	-0.210896
-1.878094	ag n d	-0.2279896
-1.09917	ag n ew	0.2225305
-1.182144	ag n f	0.04116085
-2.227316	ag n k	-0.3484126
-1.878337	ag n m	-0.08878582
-0.7127098	ag n n	-0.09047562
-1.807017	ag n ng	-0.08591277
-1.460898	ag n p	-0.09926075
-2.227316	ag n q
-0.8274294	ag n u	0.1838844
-0.7205352	ag n v	-0.1870843
-1.460898	ag n vn	0.00190717
-0.9837766	ag n w	-0.1557404
-1.482421	an n c
-1.396692	an n ew
-1.133442	an n f	-0.1612737
-0.5698753	an n n	-0.1338618
-1.396692	an n p	-0.03976575
-1.062123	an n u	0.05650577
-1.062123	an n v	0.01815818
-1.482421	an n vn
-0.7160034	an n w	0.1515963
-1.639913	b n </s>
-2.552459	b n a	-0.3430829
-2.552459	b n ag
-2.466729	b n b
-1.194977	b n c	0.03165215
-1.639913	b n d	-0.06166971
-1.443619	b n ew	0.08660293
-1.530769	b n f	0.220555
-2.552459	b n j	-0.2861216
-2.466729	b n k	-0.1809219
-1.97004	b n m	-0.01167101
-0.50274	b n n	-0.2022511
-1.882951	b n ng	-0.04993937
-1.882951	b n p	0.08938524
-2.552459	b n q
-0.8669631	b n u	0.007529616
-0.790406	b n v	-0.2973043
-2.466729	b n vg	-0.3500497
-1.254562	b n vn	0.08362865
-1.087071	b n w	-0.2901711
-0.3684779	bg n n
-1.196151	c n </s>
-1.82257	c n a	0.1780964
-3.003962	c n ag	-0.301304
-2.654983	c n b	0.05322194
-1.839604	c n c	-0.1060349
-1.681241	c n d	-0.0209353
-0.8555267	c n ew	-0.2755173
-1.646479	c n f	-0.1815861
-3.003962	c n g
-3.003962	c n k
-1.188326	c n m	-0.4601352
-0.7269987	c n n	0.006839752
-1.62476	c n ng	-0.1698653
-2.65474	c n nr	-0.1098547
-1.706065	c n p	-0.1325965
-2.654983	c n q	-0.1307515
-3.003962	c n r
-1.386285	c n u	-0.05002165
-0.8777083	c n v	0.0964365
-2.918232	c n vd	-0.1062915
-1.418	c n vg	-0.1366358
-1.216354	c n vn	-0.05329245
-0.8646317	c n w	-0.3342204
-1.519537	d n </s>
-1.519537	d n a
-1.022848	d n dg	-0.5216901
-1.184968	d n ew	-0.02048215
-1.519537	d n f	-0.210757
-1.605267	d n k	-0.4007217
-1.519537	d n m	-0.1716429
-0.5166298	d n n	-0.2264401
-1.605267	d n p
-1.022848	d n u	0.1366813
-1.184968	d n v	0.01815818
-1.605267	d n w
-1.25778	dg n </s>
-0.8374811	dg n f	-0.3016828
-1.25778	dg n m
-1.17205	dg n n	-0.1559658
-1.17205	dg n ng
-1.25778	dg n p	-0.3362536
-0.9085583	dg n u	-0.2188199
-0.8374811	dg n v	0.01815818
-1.359836	ew n </s>
-2.427283	ew n a
-2.078062	ew n c	0.06225991
-2.427283	ew n dg
-2.427283	ew n f
-0.7800519	ew n m	-0.1801133
-1.027397	ew n n	-0.3081497
-1.757776	ew n ng	-0.05548363
-2.341554	ew n nr
-1.757776	ew n p	-0.4695175
-1.844864	ew n u	-0.381438
-0.9618955	ew n v	-0.3014129
-0.4031869	ew n vg	-0.1798412
-1.619473	ew n vn	-0.02021697
-1.155715	ew n w	-0.2761435
-2.341554	ew n x
-1.490086	f n </s>
-2.297897	f n a	-0.3430829
-2.297897	f n b
-1.327359	f n c	0.1400273
-2.212167	f n d
-1.715477	f n ew	-0.1217081
-1.30103	f n f	0.1654673
-1.948676	f n m	-0.1907765
-0.6564177	f n n	0.196414
-1.577236	f n ng
-1.948918	f n p
-1.877598	f n q	-0.08704281
-0.7990851	f n u	0.2078502
-0.8154756	f n v	-0.3944101
-2.297897	f n vd
-1.385351	f n vn	-0.1838783
-0.7832909	f n w	-0.251645
-1.146629	g n ew
-1.146629	g n f
-1.146629	g n m
-0.79765	g n n	-0.1408683
-1.146629	g n ng
-0.7974079	g n v	-0.005268969
-1.146629	g n w
-1.685496	h n </s>
-1.103076	h n d	-0.4936614
-1.599766	h n ew	-0.06233472
-1.599766	h n f
-1.599766	h n k	-0.5689739
-0.5211381	h n n	-0.382154
-1.015988	h n ng	-0.2709971
-1.685496	h n p
-0.8776854	h n u	-0.07762685
-0.8398969	h n v	-0.1644516
-1.599766	h n vn	-0.01434256
-1.599766	h n w	-0.08336519
-0.526809	j n n	-0.1744832
-0.6651117	j n u	0.1034283
-0.9853984	j n v	-0.005268969
-0.9856405	j n vn	-0.1453522
-0.9856405	j n w	-0.01220882
-1.378196	k n </s>
-1.749635	k n a	-0.1306318
-1.378196	k n c	-0.0792467
-2.098856	k n d
-1.332438	k n ew	-0.03720245
-1.516437	k n f	-0.15636
-2.013127	k n m
-0.5920758	k n n	0.02613586
-1.18631	k n ng	-0.130175
-2.098856	k n nr
-1.678558	k n p	-0.3381634
-2.013127	k n t
-1.077166	k n u	-0.1036563
-0.776136	k n v	-0.1627021
-1.18631	k n vn	-0.2595207
-1.010219	k n w	0.07107729
-0.6115159	l n u	-0.1327058
-1.445329	m n </s>
-2.160807	m n a	-0.6021143
-2.657497	m n ag
-2.657497	m n b	-0.01793443
-1.323596	m n c	-0.1809191
-1.561835	m n d	-0.5532424
-1.22862	m n ew	0.2844802
-1.458294	m n f	-0.2005388
-2.743226	m n g
-2.743226	m n k
-1.150734	m n m	-0.1148314
-2.743226	m n mg	-0.2391598
-0.7412799	m n n	0.0810014
-1.445329	m n ng	-0.2892303
-1.800717	m n nr	0.006004125
-1.374748	m n p	-0.09262025
-2.022566	m n q	-0.04342033
-2.322928	m n r	-0.08317839
-2.743226	m n t
-1.119476	m n u	0.08803207
-0.7619645	m n v	-0.2585363
-2.073718	m n vg	0.03474665
-1.61508	m n vn	-0.095469
-0.9161105	m n w	0.1327975
-2.394005	m n x	-0.04508737
-0.3205288	mg n ng	-0.2821926
-0.5837783	mg n w
-1.282479	n n </s>
-1.968026	n n a	0.2628787
-2.630784	n n ad	-0.02802873
-2.65306	n n ag	0.08925766
-2.931814	n n an	-0.1163231
-2.570086	n n b	0.01004511
-1.251478	n n c	0.2210847
-1.764496	n n d	-0.02509713
-1.066118	n n ew	0.2386997
-1.411986	n n f	-0.1739486
-2.977571	n n g	-0.07545516
-3.698232	n n j
-2.630784	n n k	0.1496016
-1.68384	n n m	0.2936548
-3.698232	n n mg
-0.7878626	n n n	0.01506066
-1.560746	n n ng	-0.03623891
-3.698232	n n nh
-2.570086	n n nr	-0.1427726
-3.612502	n n nx	0.08391464
-3.349252	n n o
-1.570086	n n p	0.2846217
-2.224244	n n q	-0.1631776
-2.931814	n n r	0.3360951
-2.890421	n n t	-0.1202452
-0.910211	n n u	0.1597582
-0.7863066	n n v	0.3084753
-2.852633	n n vd	0.06878483
-2.630784	n n vg	0.1938842
-1.315864	n n vn	-0.1879405
-0.8651152	n n w	-0.3417387
-2.977571	n n x	-0.05472115
-1.432781	ng n </s>
-2.148258	ng n a	0.06455863
-2.644948	ng n ag	-0.4916705
-2.644948	ng n an	-0.1958378
-1.26529	ng n c	-0.02363515
-1.76014	ng n d	0.07011855
-1.223897	ng n ew	-0.04266936
-1.472898	ng n f	-0.1192384
-2.06117	ng n k	0.007570535
-1.56632	ng n m	-0.1278523
-0.7287312	ng n n	-0.2115937
-1.532896	ng n ng	-0.1308343
-2.381698	ng n nr
-2.730678	ng n nt
-1.517102	ng n p	0.03317687
-1.885078	ng n q	-0.01607421
-2.730678	ng n r	-0.2928013
-0.840408	ng n u	0.3916776
-0.8638891	ng n v	0.05758774
-2.730678	ng n vg	-0.1596832
-1.256689	ng n vn	-0.04583955
-0.8673496	ng n w	0.1612492
-1.146629	nh n </s>
-0.79765	nh n c	-0.09359372
-0.4771213	nh n n	-0.080109
-1.146629	nh n p
-1.060899	nh n vn
-0.2435391	ni n v	-0.4209943
-1.460898	nr n </s>
-2.141586	nr n a	-0.1864313
-1.381717	nr n c	-0.03522378
-2.227316	nr n d	0.001279891
-1.346954	nr n ew	-0.02735606
-1.644896	nr n f	-0.1749398
-2.227316	nr n k
-1.807017	nr n m	-0.3804405
-0.6685061	nr n n	-0.01785862
-1.419505	nr n ng	-0.005317256
-1.644896	nr n p	0.003172159
-0.7448945	nr n u	-0.009982765
-0.8174452	nr n v	-0.3012628
-1.419505	nr n vn	0.02961996
-0.8174452	nr n w	0.3956066
-1.128146	ns n m	-0.3627976
-0.2477845	ns n n	-0.1936234
-0.7789245	ns n v
-1.095662	nx n m	-0.1925704
-0.83217	nx n n
-1.181391	nx n q
-0.8324121	nx n u	-0.1159916
-0.5989717	nx n v	-0.1764
-0.1164088	nz n n	-0.3639846
-0.9359608	o n n
-0.6013919	o n u	0.08529487
-0.9359608	o n v	-0.1854235
-0.6727113	o n w	-0.203254
-1.538289	p n </s>
-1.94939	p n a	-0.0872176
-2.710483	p n ad	0.1804405
-2.78156	p n ag	-0.3618639
-3.130781	p n an	-0.3182335
-2.322971	p n b	-0.3980902
-1.63197	p n c	-0.02931243
-1.859213	p n d	0.03845149
-3.045052	p n dg
-1.966423	p n ew	0.2865915
-1.405322	p n f	0.2614682
-2.364363	p n k	-0.08178321
-3.130781	p n l
-1.538289	p n m	0.08564138
-0.5876622	p n n	0.1531862
-1.351526	p n ng	-0.06128293
-3.130781	p n nh	-0.3417571
-3.130781	p n nr
-3.130781	p n nx	0.2742812
-1.966423	p n p	-0.164566
-2.042144	p n q	-0.1578731
-3.130781	p n r	-0.2785608
-2.781802	p n s
-3.130781	p n t	-0.2828117
-1.072107	p n u	-0.1932139
-0.7390509	p n v	-0.270684
-3.130781	p n vd
-0.9034655	p n vg	-0.1956511
-1.237259	p n vn	-0.3411157
-1.343174	p n w	0.08503675
-3.130781	p n x
-1.291382	q n </s>
-1.832173	q n a	0.08654124
-2.877344	q n ad	0.8483125
-2.791615	q n ag
-2.791615	q n an
-2.528365	q n b	-0.1489441
-1.42073	q n c	-0.1176845
-1.730715	q n d	-0.3489207
-1.531143	q n ew	0.5100116
-1.448168	q n f	0.1193653
-2.110926	q n k	-0.06613494
-1.996983	q n m	-0.0134483
-0.5345849	q n n	0.02617943
-1.457714	q n ng	-0.2523604
-2.877344	q n nh	-0.2580282
-2.528365	q n nr	-0.1941297
-1.579447	q n p	-0.2869433
-1.964798	q n q	0.002254933
-1.213299	q n u	-0.1390998
-0.7043861	q n v	-0.1408415
-2.791615	q n vd
-2.207836	q n vg	-0.06475011
-1.050228	q n vn	-0.6066827
-1.230113	q n w	-0.1647923
-1.477573	r n </s>
-2.079633	r n a	0.04304603
-2.749141	r n ad	0.8483125
-2.663412	r n ag	-0.2018344
-1.426421	r n c	0.0682314
-1.535565	r n d	-0.2732993
-1.752275	r n ew	0.330197
-1.505602	r n f	0.1651636
-2.39992	r n k	-0.4345267
-2.39992	r n m	-0.08681343
-0.8397086	r n n	-0.2693077
-1.620996	r n ng	0.03541237
-2.663412	r n nr	-0.1678554
-1.234535	r n p	-0.133099
-1.903542	r n q	-0.06502819
-2.166722	r n t	-0.2258812
-1.107662	r n u	-0.01475638
-0.3646753	r n v	-0.1392856
-2.663412	r n vg	-0.1629531
-1.535565	r n vn	-0.0649609
-1.505602	r n w	-0.2741448
-0.9111372	s n c	-0.2236204
-0.6478877	s n p	-0.07394265
-0.9968668	s n u	-0.1327058
-0.6478877	s n v	-0.2451304
-1.700916	t n </s>
-1.700916	t n an	-0.3417146
-1.351937	t n c	0.1630252
-1.700916	t n d	0.001279891
-1.615187	t n ew	-0.1956197
-1.700916	t n m	-0.2483592
-0.7040495	t n n	-0.1686777
-1.118497	t n q	-0.0359336
-1.700916	t n s
-0.7883704	t n u	-0.4456482
-0.5920758	t n v	-0.001641005
-1.280618	t n w	0.05036689
-0.4653879	tg n v	-0.3295512
-1.329887	u n </s>
-2.057992	u n a	0.1676305
-2.669007	u n ad	0.3128238
-2.669007	u n ag	-0.07154676
-3.165385	u n an	-0.172642
-2.669007	u n b	0.09523034
-1.199185	u n c	0.1237241
-1.834374	u n d	0.001513004
-3.514606	u n dg	-0.3768517
-0.92733	u n ew	0.2427804
-1.458153	u n f	0.2249595
-2.425969	u n k	-0.05549243
-2.350248	u n m	-0.1477773
-0.6286023	u n n	-0.2384849
-1.617854	u n ng	0.1699532
-2.544068	u n nr	0.1664554
-1.726999	u n p	-0.0257808
-2	u n q	0.1255587
-3.165627	u n r	-0.2184158
-2.845098	u n t	0.04216826
-1.388353	u n u	-0.0460937
-0.8633927	u n v	0.04915905
-2.544068	u n vd	-0.1109669
-2.168404	u n vg	0.1412611
-1.275432	u n vn	-0.1225379
-0.7881932	u n w	-0.1833096
-3.514606	u n x
-1.304956	v n </s>
-1.971516	v n a	-0.03771931
-2.774778	v n ad	0.09691
-2.774778	v n ag	-0.3074239
-2.879513	v n an	-0.1391412
-2.598686	v n b	0.05612653
-1.209942	v n c	0.04648006
-1.771686	v n d	-0.0008350611
-3.601594	v n dg	0.1644058
-1.17505	v n ew	-0.06111801
-1.452558	v n f	0.07273376
-3.601594	v n j	-0.1634642
-2.376837	v n k	0.3508498
-1.841724	v n m	-0.05923915
-0.6841165	v n n	0.008875847
-1.524706	v n ng	0.05033314
-3.687324	v n nh
-2.744814	v n nr	0.05901918
-3.687324	v n nx	0.2742812
-3.338344	v n o	-0.0478655
-1.602842	v n p	-0.09511244
-2.308122	v n q	-0.01210761
-3.267025	v n r	0.1344426
-2.690457	v n t	0.06432971
-0.9552336	v n u	0.06939507
-0.8042979	v n v	0.09487844
-2.920906	v n vd	0.239281
-2.505932	v n vg	-0.1923719
-1.275483	v n vn	0.04338872
-0.8720755	v n w	0.07177019
-3.601594	v n x
-1.320287	vd n c	0.06225991
-1.583778	vd n d
-0.8616973	vd n ew	-0.1281155
-1.583778	vd n f	-0.1228638
-0.8239087	vd n n	-0.1070024
-0.9488475	vd n u	-0.2085893
-0.6243364	vd n v	-0.08830488
-1.583778	vd n vn	-0.5684554
-0.8616973	vd n w	-0.2507123
-1.456918	vg n </s>
-2.321551	vg n a	-0.2913196
-2.74185	vg n ag
-2.74185	vg n b
-1.595221	vg n c	-0.203849
-1.744983	vg n d	-0.3872907
-1.456918	vg n ew	0.2170091
-1.419129	vg n f	-0.275434
-2.74185	vg n k
-2.321551	vg n m	0.07507439
-0.5424625	vg n n	-0.5132902
-1.251156	vg n ng	-0.06844604
-1.48407	vg n p	-0.1241645
-1.934039	vg n q	-0.2350072
-2.74185	vg n s
-2.74185	vg n t	-0.2828117
-1.035913	vg n u	-0.2810807
-0.617497	vg n v	-0.2423277
-2.74185	vg n vg
-1.352183	vg n vn	-0.1250217
-1.267862	vg n w	0.110607
-1.246398	vn n </s>
-2.004953	vn n a	-0.3858244
-2.953629	vn n ad	0.6190429
-2.953629	vn n ag	0.02425655
-3.30285	vn n an	-0.3417146
-2.720431	vn n b	0.1303367
-1.101863	vn n c	-0.01479483
-1.923648	vn n d	0.06476837
-0.9111197	vn n ew	-0.235613
-1.28116	vn n f	0.1635027
-2.953629	vn n k	-0.08503509
-1.788244	vn n m	-0.03557706
-0.8263148	vn n n	-0.2339394
-1.855191	vn n ng	-0.1947437
-2.953871	vn n nr	-0.2988651
-1.558709	vn n p	-0.2897459
-2.305983	vn n q	0.1238042
-3.21712	vn n r
-3.21712	vn n t	-0.09165706
-0.9936067	vn n u	-0.2631887
-0.844467	vn n v	-0.2161608
-3.21712	vn n vd
-2.536432	vn n vg	0.06194305
-1.536432	vn n vn	-0.08772898
-0.7752563	vn n w	-0.1448585
-1.52982	w n </s>
-1.506339	w n a	-0.2103384
-3.028632	w n ad	0.8483125
-2.307971	w n ag	-0.1640933
-3.028632	w n an	-0.3301328
-0.7923917	w n c	-0.5191647
-1.83085	w n d	0.01875973
-1.730735	w n ew	0.5914582
-2.006941	w n f	0.1070882
-2.262214	w n k	0.02264863
-1.599456	w n m	0.1390221
-0.758423	w n n	0.1618572
-1.498786	w n ng	-0.2594305
-2.608333	w n nr	-0.2025114
-1.660154	w n p	-0.006906927
-2.086123	w n q	-0.2272426
-1.3814	w n u	0.01403254
-0.9789125	w n v	0.2008228
-3.028632	w n vd
-2.608333	w n vg	-0.08875247
-1.423365	w n vn	-0.3755125
-0.5773683	w n w	-0.2203755
-0.06744787	wp n x
-1.748874	x n </s>
-1.068186	x n c	-0.05610207
-1.068186	x n ew	-0.03177048
-1.748874	x n f
-1.252184	x n m	-0.3114849
-0.6368221	x n n	-0.004921317
-1.485382	x n p	-0.3170345
-0.8640659	x n u	-0.04772496
-1.026793	x n v	0.02421202
-1.834604	x n vg
-0.8640659	x n w	-0.008022368
-0.6115159	z n ew
-0.6115159	z n p
-0.2435391	u nd v
-1.59353	<s> ng c
-1.593288	<s> ng ew	-0.09301235
-1.59353	<s> ng f
-1.85678	<s> ng m	-0.129182
-0.7447275	<s> ng n	-0.03067473
-0.9719713	<s> ng ng	-0.1039228
-1.134699	<s> ng nr	0.01810324
-1.85678	<s> ng p	0.0647029
-1.593288	<s> ng q	-0.2057903
-1.522211	<s> ng u	-0.1066576
-0.5963076	<s> ng v	0.009472966
-1.85678	<s> ng vg
-1.593288	<s> ng vn	0.01261878
-1.029963	<s> ng w	-0.1095868
-2.100644	a ng </s>
-1.603954	a ng a	-0.09003165
-1.837395	a ng ag	0.00343293
-1.141202	a ng c	0.1667728
-1.837152	a ng d	0.3443508
-1.077533	a ng ew	-0.6058034
-1.603954	a ng f	-0.1422295
-2.100644	a ng k	-0.176352
-0.7967064	a ng n	0.2437234
-1.189507	a ng ng	-0.01251251
-2.100644	a ng p	-0.1435731
-2.100644	a ng q
-1.215836	a ng u	0.1378317
-0.9014418	a ng v	-0.1739088
-2.100644	a ng vg
-1.340775	a ng vn	-0.1101956
-0.6491038	a ng w	-0.2882227
-1.436563	ag ng c	-0.2268355
-1.436563	ag ng ew
-1.522293	ag ng m
-0.394147	ag ng n	-0.1125717
-1.522293	ag ng ng
-0.8527849	ag ng u	-0.5230386
-1.436563	ag ng v
-0.8016323	ag ng w	-0.1594081
-0.06744787	an ng </s>
-1.783451	b ng </s>
-1.783451	b ng c
-1.434472	b ng ew	-0.03966057
-1.434472	b ng f	-0.2547389
-0.5546353	b ng n	0.0410502
-1.434472	b ng ng	-0.1235886
-1.783451	b ng nr	-0.2798553
-1.783451	b ng q
-1.363153	b ng u	-0.1877647
-0.4855544	b ng v	0.1132479
-1.017033	b ng w	-0.288108
-1.268697	c ng </s>
-0.8512583	c ng n	-0.2584761
-1.531947	c ng ng	-0.1538029
-1.531947	c ng u
-0.2078057	c ng v	-0.2076943
-1.617676	c ng vg
-1.108841	d ng a
-0.5264211	d ng n	-0.3640044
-1.023111	d ng ng	-0.1386809
-0.7598615	d ng v	-0.1232947
-1.108841	d ng w
-0.3796583	dg ng n
-0.6724691	ew ng n	-0.06078995
-0.6727113	ew ng ng	-0.07766411
-1.02169	ew ng nr	-0.3694661
-0.6724691	ew ng v	-0.01634975
-1.945506	f ng </s>
-2.031236	f ng c
-1.945506	f ng d	-0.1549675
-1.682257	f ng ew
-1.945506	f ng f
-0.4586379	f ng n	-0.3685423
-1.11869	f ng ng	-0.1288628
-1.682014	f ng u
-1.150874	f ng v	-0.1937737
-0.4939658	f ng vn	-0.09773105
-1.223425	f ng w	-0.1048425
-0.2435391	h ng n
-0.5445691	j ng w	-0.3081833
-1.157809	k ng an	0.009128392
-1.243539	k ng ew	-0.3019716
-1.243539	k ng m
-1.157809	k ng n
-1.243539	k ng nx	-0.3230856
-0.89456	k ng v	-0.1174772
-0.5228788	k ng w	-0.01274468
-1.611516	m ng </s>
-1.611516	m ng c
-1.611516	m ng k
-1.262537	m ng m	-0.2778648
-0.7659168	m ng n	-0.2011632
-0.7311547	m ng ng	0.07887545
-0.447158	m ng v	0.09932628
-1.262295	m ng w
-0.9968668	mg ng k	-0.295055
-0.9111372	mg ng n
-0.1890562	mg ng w	-0.2958552
-1.480725	n ng </s>
-2.499982	n ng a	0.05637223
-2.849203	n ng ad	-0.06480646
-2.500224	n ng ag	-0.02381063
-2.082785	n ng b	-0.05975497
-1.439333	n ng c	0.03358501
-2.003604	n ng d	-0.1419721
-1.577635	n ng ew	-0.06035286
-1.383815	n ng f	0.1604476
-2.849203	n ng g
-2.849203	n ng h	0.4174148
-2.499982	n ng k	-0.09442912
-1.702574	n ng m	-0.06510916
-0.7523716	n ng n	0.0401752
-1.290394	n ng ng	-0.04729331
-2.849203	n ng ni
-2.128543	n ng nr	0.2417216
-2.849203	n ng nx	-0.2152193
-1.383815	n ng p	-0.06213671
-1.684845	n ng q	-0.2411211
-2.849203	n ng s
-1.114302	n ng u	-0.07733226
-0.6762452	n ng v	0.1496316
-2.849203	n ng vd
-2.266784	n ng vg	-0.08058649
-1.459536	n ng vn	0.2428924
-0.7626391	n ng w	-0.08398056
-1.596597	ng ng </s>
-2.180375	ng ng a
-1.157264	ng ng c	0.04339021
-1.596597	ng ng d	0.1707557
-1.499687	ng ng ew	-0.07551214
-1.157264	ng ng f	-0.1289808
-2.266105	ng ng k	-0.295055
-1.845806	ng ng m
-0.7754112	ng ng n	-0.02732623
-1.385744	ng ng ng	0.01769334
-1.917126	ng ng p
-1.068323	ng ng u	-0.030514
-0.7514991	ng ng v	-0.02593607
-2.266105	ng ng vd
-2.180375	ng ng vg	-0.1655371
-1.596597	ng ng vn	0.2021181
-0.7072954	ng ng w	-0.06865549
-1.75257	nr ng </s>
-1.489321	nr ng c	-0.1446491
-1.489321	nr ng d	0.2199236
-1.489321	nr ng ew
-1.75257	nr ng f
-1.75257	nr ng m
-0.4590982	nr ng n	0.05610013
-1.489079	nr ng ng	-0.02982909
-1.8383	nr ng p
-0.925754	nr ng u	-0.1017089
-0.8414331	nr ng v	-0.00125584
-1.8383	nr ng vn
-0.925754	nr ng w	-0.08342546
-0.6115159	nz ng a	-0.2436342
-0.6115159	nz ng v
-1.375503	p ng f	-0.05310421
-0.7989349	p ng n	-0.1057844
-0.7741113	p ng ng	-0.1934908
-1.075141	p ng q	-0.3463094
-0.3859311	p ng v	-0.2109336
-1.710072	p ng vg	-0.1655371
-1.710072	p ng w
-1.460063	q ng c	-0.05934115
-1.880361	q ng d
-1.880361	q ng ew	-0.3752035
-1.531382	q ng f
-0.7917241	q ng n	0.1200505
-1.210853	q ng ng	-0.03004672
-1	q ng nr	0.1741433
-1.53114	q ng q	-0.3565401
-1.794632	q ng u
-0.6825796	q ng v	-0.177998
-1.297942	q ng vg	-0.1106707
-1.794632	q ng vn
-0.7337321	q ng w	0.03925645
-1.379202	r ng </s>
-1.379202	r ng ag	-0.05671206
-0.6585413	r ng n	0.00171265
-1.029981	r ng ng
-0.2905646	r ng v	-0.04051116
-0.3684779	s ng f
-0.5257863	t ng u	-0.2220746
-0.6115159	t ng v
-1.679648	u ng </s>
-1.679648	u ng f	-0.4593616
-1.679648	u ng k	-0.06750019
-0.7309722	u ng n	-0.2904107
-0.6826675	u ng ng	-0.1129627
-1.67989	u ng nr	0.06163695
-1.608571	u ng p	0.1969818
-1.221058	u ng q	-0.2691481
-1.44645	u ng u	-0.1842632
-0.572255	u ng v	-0.1870288
-1.148508	u ng vg	-0.1205993
-1.526619	v ng </s>
-1.918729	v ng a	-0.05311866
-2.775509	v ng b	-0.1148292
-1.249722	v ng c	-0.1487862
-1.733093	v ng d	-0.2910315
-1.354458	v ng ew	0.1294087
-1.482036	v ng f	0.1462506
-2.775509	v ng g
-2.512017	v ng k
-1.503756	v ng m	0.07998127
-0.7543763	v ng n	0.1790646
-1.39585	v ng ng	0.2471565
-1.864371	v ng nr	-0.05192602
-2.861238	v ng nx	-0.2152193
-1.679847	v ng p	0.06336182
-1.632422	v ng q	0.06301665
-0.980877	v ng u	0.08988476
-0.7937904	v ng v	0.3424687
-1.772601	v ng vg	0.03381675
-1.422723	v ng vn	-0.03740221
-0.7809532	v ng w	0.08528721
-0.5257863	vd ng n
-0.5257863	vd ng v
-1.830876	vg ng </s>
-1.161368	vg ng c	-0.07264172
-1.830876	vg ng ew	-0.4098587
-1.481655	vg ng f	0.02890148
-0.7422387	vg ng n	-0.07372028
-0.6173	vg ng ng	-0.3578978
-1.481897	vg ng p	-0.06630674
-1.745146	vg ng q
-1.410577	vg ng u	-0.08979568
-0.7027302	vg ng v	-0.1378427
-1.745146	vg ng vn	-0.2024259
-1.161368	vg ng w	-0.1170303
-1.480725	vn ng </s>
-2.462444	vn ng a	-0.1866025
-2.548173	vn ng ad	-0.3200901
-1.003604	vn ng c	-0.4316857
-1.702574	vn ng d	0.2162428
-1.118998	vn ng ew	-0.4149433
-1.334597	vn ng f	-0.01420712
-1.702574	vn ng m	-0.04325456
-1.118998	vn ng n	-0.0125466
-2.548173	vn ng ng
-2.199194	vn ng nr	-0.1405291
-1.082785	vn ng p	-0.1969411
-1.065752	vn ng u	-0.1906913
-0.7443289	vn ng v	0.1502326
-2.462444	vn ng vg
-1.383815	vn ng vn	-0.06975526
-0.6745454	vn ng w	0.03417456
-1.653816	w ng </s>
-1.653816	w ng m	-0.2170926
-0.9731278	w ng n	-0.0474772
-1.070038	w ng ng	-0.04878002
-0.217253	w ng v	-0.2862271
-1.390324	w ng w
-0.6695079	x ng vn
-0.5837783	x ng w	-0.1062337
-0.49662	n nh n
-0.7598695	n nh v	-0.05145521
-0.8455991	n nh w
-0.2827483	p nh n
-0.19559	q nh n	0.0137134
-0.5257863	u nh n
-0.6115159	u nh vn
-0.2979417	v nh n	-0.1200062
-0.5313821	v nh u	0.255073
-1.413082	<s> nr c	-0.09011209
-0.6184504	<s> nr n	-0.01850027
-0.8293038	<s> nr ng	-0.09156877
-1.149833	<s> nr nr
-1.413082	<s> nr p	-0.0242746
-0.5282738	<s> nr v	-0.02122033
-1.413082	<s> nr w
-0.7932774	a nr m	-1.062536
-1.127846	a nr n
-0.4929155	a nr nr	0.07041821
-0.8643547	a nr v
-0.2435391	ag nr nr
-0.30103	b nr n	-0.1521195
-1.067448	b nr ng
-1.067448	b nr nr
-0.7182266	b nr x	-0.335895
-0.7440594	c nr n	-0.4907062
-1.164358	c nr ng
-0.49485	c nr nr	-0.04188045
-0.8153788	c nr x	0.1556855
-1.579331	ew nr </s>
-1.493602	ew nr c	-0.4716333
-0.5341598	ew nr m	-0.08729488
-1.230352	ew nr ng
-0.9098234	ew nr nr	-0.1875494
-0.7715207	ew nr p	-0.1491688
-0.6667853	ew nr v	-0.1063947
-1.579331	ew nr x
-0.9125459	f nr n	-0.3529571
-0.1918855	f nr nr	-0.4458225
-0.08708838	g nr nr	-0.1121653
-0.9968668	m nr ng
-0.1512677	m nr nr	-0.276252
-1.737593	n nr </s>
-1.737593	n nr a	-0.1768765
-1.474101	n nr ew	-0.04872355
-1.823323	n nr f
-1.823323	n nr m
-0.8527849	n nr n	0.2689073
-0.9429615	n nr ng	-0.08575037
-0.4887031	n nr nr	0.0751
-1.403024	n nr p	-0.2806959
-1.474101	n nr u	-0.3361149
-0.8527849	n nr v	0.01136693
-1.823323	n nr w	-0.2586979
-0.5473212	ng nr n	-0.1572674
-1.592493	ng nr ng
-0.9229848	ng nr nr
-1.243271	ng nr u	0.05470037
-0.394711	ng nr v	-0.2124878
-1.401783	nr nr </s>
-2.337744	nr nr a	-0.1634642
-2.423474	nr nr ad	0.2048034
-1.510928	nr nr c	0.1247795
-1.577875	nr nr d	-0.01786816
-2.074252	nr nr ew
-2.423474	nr nr f	-0.3680311
-2.423474	nr nr g
-2.423474	nr nr k
-0.901181	nr nr m	-0.3776707
-0.7594287	nr nr n	0.08837181
-1.657056	nr nr ng	-0.3110893
-1.510928	nr nr nr	-0.2509096
-1.225692	nr nr p	0.2714167
-2.003175	nr nr r	0.003343493
-1.023587	nr nr u	0.1003392
-0.6747846	nr nr v	-0.1704875
-2.074495	nr nr vg
-0.9410525	nr nr w	0.1179573
-1.604959	p nr </s>
-1.868209	p nr d	-0.1940449
-1.953939	p nr dg	0.4174148
-0.6690068	p nr n	-0.1732363
-1.146128	p nr ng	0.2229636
-0.5964561	p nr nr	0.09457082
-1.604959	p nr p	-0.1552842
-1.953939	p nr q
-1.284431	p nr u	0.07202873
-0.7251227	p nr v	-0.03209293
-1.953939	p nr vg
-1.953939	p nr w
-1.371519	p nr x	0.2129378
-1.282748	q nr </s>
-1.282748	q nr m
-0.4259687	q nr n	-0.2878476
-1.019499	q nr ng
-0.7860584	q nr nr	-0.07165986
-1.282748	q nr v	-0.08864881
-0.4653879	r nr nr	-0.415016
-1.265198	u nr </s>
-1.685496	u nr d
-0.8051347	u nr n	-0.1077926
-1.599766	u nr ng	-0.04814294
-0.6180481	u nr nr	-0.1802646
-1.685496	u nr p
-1.265198	u nr u	0.08258194
-0.6180481	u nr v	-0.1749125
-1.685496	u nr vn
-1.685496	u nr x	-0.1066255
-1.334677	v nr </s>
-2.007388	v nr a
-2.356368	v nr ag
-2.270638	v nr b	0.01364821
-1.936069	v nr c	-0.2650144
-2.270638	v nr d	0.03273368
-2.356368	v nr ew
-1.936069	v nr f	-0.09607886
-2.356368	v nr k
-2.007388	v nr m	-0.0576425
-0.8046198	v nr n	0.1529034
-0.9878896	v nr ng	-0.2773118
-0.6656703	v nr nr	-0.2190583
-1.476006	v nr p	0.211229
-2.356368	v nr q	-0.3200901
-1.68686	v nr u	-0.1899496
-0.5899496	v nr v	-0.1689657
-2.007388	v nr vg	-0.1057201
-1.635707	v nr w	-0.3086174
-1.413858	v nr x	0.1308976
-0.7396581	vg nr m
-0.7394159	vg nr n	-0.4390712
-1.088637	vg nr ng
-0.7396581	vg nr nr
-0.7396581	vg nr v	-0.01749244
-0.9968668	vn nr n
-0.5765684	vn nr nr	-0.02208254
-0.5765684	vn nr v	-0.1780925
-1.318443	w nr </s>
-2.126253	w nr a	-0.2861216
-2.126253	w nr c
-1.543834	w nr n	-0.01611796
-1.405593	w nr ng	-0.08309098
-0.1423515	w nr nr	-0.2959116
-1.456746	w nr v	-0.07258847
-1.280654	w nr w	-0.1449273
-1.280654	w nr x	-0.2493319
-0.2622947	x nr nr	-0.4076301
-0.06744787	ew ns n
-0.4174388	p ns n	-0.5060976
-0.6806883	p ns v
-0.1953479	u ns n	-0.04565568
-0.2631796	v ns n	0.08678877
-0.49662	v ns v
-0.2625368	w ns n	0.19935
-0.2435391	n nt w
-0.3684779	p nt v
-0.2625368	<s> nx n	-0.03640479
-0.5257863	<s> nx v	-0.1226418
-0.006074148	c nx c	0.09427595
-0.01949878	f nx f	-0.2383332
-0.1839984	m nx m	0.01660937
-0.09691001	n nx n	-0.002910942
-0.4171966	ng nx n	-0.05554306
-0.6806883	ng nx v
-0.2625368	q nx q	-0.2391219
-0.09691001	v nx v	-0.1052507
-0.9425091	v nx vn	-0.3101765
-0.3461194	vn nx vn	-0.09217578
-0.06744787	n nz k	-0.05737928
-0.2435391	p nz vn	-0.1045736
-0.3684779	u nz ng
-0.5445691	v nz n
-0.2827483	w nz ng	-0.1117023
-0.9125459	ag o </s>
-0.1918855	ag o n	-0.2415725
-0.6349308	n o n	-0.1800414
-0.7206604	n o w
-0.3796583	v o n	-0.1083726
-2.129395	<s> p a	0.1119741
-1.302578	<s> p b	-0.2959499
-1.866145	<s> p d	0.2369837
-1.865903	<s> p f	0.1087869
-1.302578	<s> p m	0.1905608
-0.5042236	<s> p n	0.06796783
-1.865903	<s> p ng	-0.1880019
-2.215124	<s> p nh
-1.193434	<s> p nr	-0.08187196
-1.632705	<s> p p	-0.06446534
-0.6928315	<s> p r	-0.5243769
-0.825457	<s> p v	-0.2357281
-1.218257	<s> p vn	-0.2625317
-0.2631796	a p n	-0.08054549
-0.7598695	a p r	-0.1276774
-0.8455991	a p v
-0.2304489	ad p n	-0.1388782
-0.9968668	ad p r
-0.6115159	b p n
-0.6115159	b p v
-1.923944	c p </s>
-1.852624	c p a	0.1379181
-2.272923	c p ag
-2.187193	c p an	0.4263373
-1.923702	c p b	0.08289495
-1.506505	c p d	-0.2996084
-1.852624	c p f	-0.1787006
-1.392562	c p m	0.1070961
-0.4496002	c p n	-0.06704223
-1.852624	c p ng	0.1287879
-1.852624	c p nr	0.02556759
-1.852624	c p p	-0.1406433
-0.9044451	c p r	0.125222
-2.272923	c p t
-0.7003251	c p v	-0.09060264
-2.272923	c p vg
-1.091532	c p vn	-0.08305407
-1.649315	d p </s>
-1.649315	d p a	0.1663317
-1.224015	d p b	0.224468
-1.983884	d p d	0.1658274
-1.487194	d p f	0.06303871
-1.047924	d p m	-0.1007271
-0.4519377	d p n	0.1324389
-2.069614	d p ng
-1.983884	d p nr	-0.5244447
-1.720393	d p p	0.06720307
-1.261803	d p r	0.2320574
-1.983884	d p t
-0.7011361	d p v	-0.1413346
-2.069614	d p vg
-1.487194	d p vn	-0.07043203
-1.495236	ew p </s>
-1.796266	ew p a	0.09961906
-2.516926	ew p ad	0.9902846
-2.516926	ew p ag
-1.495236	ew p b	-0.9092344
-2.096628	ew p d	-0.05467099
-2.167705	ew p f	0.1087869
-1.428289	ew p m	0.06206274
-0.5491112	ew p n	-0.08162916
-1.709116	ew p ng	0.066154
-1.796266	ew p nr	-0.01782361
-1.636565	ew p p	-0.06439778
-0.4786668	ew p r	-0.4243762
-2.431197	ew p t
-0.9723572	ew p v	-0.1346207
-2.516926	ew p vg
-1.245358	ew p vn	0.3533654
-1.739546	f p a
-1.739546	f p b
-1.739546	f p d	-0.02532727
-1.390567	f p m	0.01500402
-0.31037	f p n	-0.09434217
-1.739546	f p ng
-1.739546	f p nr
-1.018885	f p r	-0.3947154
-0.7426789	f p v	-0.1085955
-1.390324	f p vn
-0.8078105	h p a	-0.07918057
-0.722081	h p d	-0.6090935
-0.4585893	h p n	-0.1429938
-0.01949878	k p n	-0.07493563
-1.555634	m p </s>
-1.890203	m p a	-0.2695471
-1.890203	m p b
-1.626712	m p d	-0.5696375
-1.975933	m p j	-0.2934811
-0.9307614	m p m	-0.1072353
-0.2650324	m p n	-0.5064514
-1.626954	m p nr	-0.03555496
-1.890203	m p p	-0.0416487
-1.209515	m p r	0.260005
-1.306425	m p v	-0.057078
-1.555634	m p vn	-0.08320323
-1.743675	n p </s>
-1.454227	n p a	-0.03122246
-2.368548	n p ad	0.3224126
-2.068186	n p ag	-0.1537848
-1.454227	n p b	0.04876333
-1.624488	n p d	-0.005564272
-1.700209	n p f	0.04446733
-2.439867	n p h	-0.03721619
-1.183579	n p m	0.08180565
-0.4437892	n p n	0.00898838
-1.908485	n p ng	0.1676787
-1.591065	n p nr	0.2235432
-2.439867	n p ns	0.0469417
-1.642217	n p p	-0.1133104
-2.703117	n p q
-1.223088	n p r	-0.04628295
-2.788846	n p s
-2.119338	n p t	0.05984032
-2.788846	n p u
-0.7346267	n p v	0.1905992
-2.788846	n p vd
-1.943247	n p vg	-0.2301742
-1.113943	n p vn	0.1329699
-2.439867	n p w	-0.07944606
-1.95675	ng p </s>
-1.87102	ng p a
-1.87102	ng p b
-1.60777	ng p d	0.03481773
-1.95675	ng p f	-0.1912195
-1.536451	ng p m	-0.1955436
-0.303841	ng p n	0.1334995
-1.87102	ng p ng	-0.003490984
-1.87102	ng p nr	-0.5244447
-1.287242	ng p r	-0.1399579
-0.7279337	ng p v	0.2222798
-1.95675	ng p vg
-1.37433	ng p vn	-0.1129017
-1.598927	nr p </s>
-1.598927	nr p f	-0.1912195
-1.016507	nr p m	0.006951213
-0.4175356	nr p n	0.07306767
-1.598927	nr p nr
-1.249948	nr p p
-1.513197	nr p r	0.1061252
-1.598927	nr p u
-0.6863809	nr p v	-0.1117463
-1.513197	nr p vn
-1.146128	p p a	-0.06990021
-1.563325	p p b	-0.09919652
-1.826816	p p d	-0.1918576
-1.563567	p p f	0.07109152
-1.563567	p p m	-0.2383145
-0.447158	p p n	-0.08296973
-1.563325	p p ng	-0.1620519
-1.826816	p p nr	-0.1287989
-1.563325	p p p	-0.04674028
-1.912546	p p q
-1	p p r	-0.1231622
-0.7844002	p p v	-0.02666941
-1.912546	p p vg
-1.330126	p p vn	0.1408758
-1.409308	q p </s>
-1.225309	q p a	-0.002745628
-1.991727	q p an	0.6167039
-1.905998	q p b
-1.642748	q p d	-0.1513843
-1.991727	q p h	-0.3209584
-1.271067	q p m	-0.2199527
-0.350248	q p n	-0.01183283
-1.991727	q p ng	-0.1946456
-1.409308	q p nr	-0.1910781
-1.991727	q p q	-0.2995272
-1.991727	q p r
-0.7629113	q p v	-0.1177302
-1.225309	q p vn	-0.1324639
-1.482421	r p b
-1.133442	r p m	-0.2383145
-0.4607309	r p n	0.06082115
-1.396692	r p r
-0.5399121	r p v	-0.2940184
-1.133442	r p vn	0.1273444
-0.19559	s p v	-0.719991
-0.9817183	t p f	-0.1042741
-0.7184688	t p n	-0.03253177
-0.9817183	t p r	-0.2162544
-0.7184688	t p v	-0.2167093
-1.983902	u p </s>
-1.138303	u p a	-0.4357283
-1.634681	u p ag	-0.4138929
-1.634923	u p b	-0.01850578
-1.983902	u p h
-1.634923	u p m	-0.187162
-0.3253894	u p n	-0.1473749
-1.898172	u p ng	-0.3850121
-1.898172	u p nr	-0.1287989
-1.898172	u p p
-1.401482	u p r	0.0657562
-0.916454	u p v	-0.2978497
-0.9622114	u p vn	-0.2074876
-1.739309	v p </s>
-1.302616	v p a	0.09041089
-2.21643	v p ad	0.4149734
-2.040339	v p ag	0.04912746
-2.897118	v p an	0.4263373
-1.50886	v p b	0.07279044
-1.468242	v p d	-0.2624666
-2.982848	v p dg
-1.769272	v p f	0.06217772
-2.897118	v p g	0.009128392
-2.633626	v p h	-0.1379815
-2.982848	v p j
-1.257388	v p m	-0.1390167
-0.4150261	v p n	0.1770747
-1.725068	v p ng	0.06141979
-1.648228	v p nr	0.07675332
-2.982848	v p ns
-1.625365	v p p	-0.1603853
-2.562549	v p q	0.03637062
-1.29215	v p r	0.2006631
-2.040339	v p s	-0.09870666
-2.137249	v p t	-0.1195283
-2.633869	v p u	0.1125774
-0.7570373	v p v	0.2086039
-2.982848	v p vd	-0.3230856
-2.31334	v p vg	0.02016112
-1.212108	v p vn	0.1531594
-2.897118	v p w
-0.3796583	vd p n
-0.4653879	vd p v	-0.4043503
-1.185838	vg p b	0.1125039
-0.4259687	vg p n	0.06005266
-1.271568	vg p nr
-0.9223466	vg p v	0.02315206
-0.9225888	vg p vn	-0.5781032
-1.779255	vn p </s>
-1.430034	vn p a	-0.1652946
-1.430276	vn p b	0.1836602
-1.430276	vn p m
-0.3407394	vn p n	-0.03939134
-1.779255	vn p ng
-1.779255	vn p nr	-0.297866
-1.779255	vn p p
-1.430034	vn p r	-0.01882561
-0.836746	vn p v	-0.03029168
-1.109747	vn p vn	-0.002463877
-1.592032	w p </s>
-1.476638	w p a	-0.5047634
-2.634448	w p ad	0.799918
-2.634448	w p ag	0.1132533
-1.538786	w p b	-0.1974961
-1.573548	w p d	-0.1794703
-1.839816	w p f	-0.1656528
-2.634448	w p h	-0.1297384
-1.272518	w p m	-0.04611003
-0.4568301	w p n	0.00642097
-1.698487	w p ng	-0.267619
-1.611337	w p nr	-0.09494668
-1.573548	w p p	0.1707378
-1.246189	w p r	0.1321649
-2.05067	w p t	0.01134625
-0.6682024	w p v	0.2889854
-2.370956	w p vd
-2.137758	w p vg	0.008658469
-1.067269	w p vn	0.1010506
-0.6695079	x p d	-0.340368
-0.6695079	x p n
-1.356958	<s> q b
-1.705937	<s> q c
-1.705937	<s> q ew
-1.356716	<s> q f	-0.08785579
-1.356716	<s> q m	0.02276363
-0.5415792	<s> q n	-0.04524589
-1.620208	<s> q p	-0.358229
-1.705937	<s> q u	-0.1860421
-0.6607656	<s> q v	-0.1074535
-0.860338	<s> q vn	-0.06534424
-1.620208	<s> q w
-1.297897	a q c
-0.7154773	a q n	-0.006731808
-1.212167	a q u	-0.2097821
-0.9489177	a q v	-0.1380488
-0.9486756	a q vn	0.03307027
-0.6283889	a q w	-0.0815175
-0.2827483	ag q n
-0.4922475	b q n	0.04872476
-0.5635668	b q v	0.02950767
-0.4922475	d q n	-0.07383168
-0.9125459	d q nr	-0.2205689
-0.9125459	d q v
-0.8268163	d q w	-0.4543118
-0.49662	f q n	-0.1576425
-0.49662	f q w	-0.2038003
-0.06744787	h q n
-0.06744787	k q m	-0.3533329
-1.700389	m q </s>
-1.476964	m q a	-0.07333863
-2.326808	m q ad	0
-2.26466	m q ag	-0.01614183
-2.786871	m q an	-0.01303804
-1.521674	m q b	0.02578217
-2.139722	m q c	-0.3842611
-1.64836	m q d	0.005902886
-3.12144	m q dg	-0.09888625
-2.118532	m q ew	-0.09510174
-1.677324	m q f	-0.2549989
-2.858191	m q g	-0.03117009
-2.440752	m q h	0.04139268
-2.62475	m q j	0.1953532
-3.20717	m q k
-3.20717	m q l	0.4174148
-1.787539	m q m	-0.222904
-0.4722688	m q n	0.2965627
-1.532267	m q ng	-0.1263347
-3.20717	m q nh
-2.118532	m q nr	-0.0606392
-2.857948	m q nx	-0.1675332
-1.285416	m q p	-0.1174346
-2.858191	m q q	-0.02127412
-2.857948	m q r	0.1179007
-3.20717	m q t
-1.94939	m q u	-0.04549348
-0.6540003	m q v	-0.1551257
-2.440752	m q vd	-0.004545778
-1.183073	m q vg	-0.06362104
-1.133256	m q vn	-0.1279143
-2.009388	m q w	-0.08507532
-2.156359	n q </s>
-1.821791	n q a	0.1064163
-1.475671	n q c	-0.002948627
-1.89311	n q d	-0.3662304
-1.329543	n q ew	0.05280069
-1.196918	n q f	-0.04608336
-2.156359	n q m
-0.7197964	n q n	-0.1381175
-1.521429	n q ng	-0.08900248
-2.156359	n q nr
-2.242089	n q nx
-1.521429	n q p	0.1032428
-0.9571573	n q u	-0.04292291
-0.6183387	n q v	-0.03532213
-1.153452	n q vn	-0.1229706
-0.9985499	n q w	0.1463459
-1.403968	ng q </s>
-1.75319	ng q c
-1.403968	ng q ew	-0.07781982
-1.332891	ng q f	-0.01567156
-0.5243737	ng q n	-0.1065174
-1.404211	ng q nr	0.04174213
-0.9075905	ng q u	-0.2167578
-0.7080181	ng q v	-0.01749802
-1.332891	ng q vn	0.08952525
-1.332891	ng q w	-0.175165
-0.6695079	nr q n
-0.6695079	nr q w	-0.4125656
-0.1164088	nx q w	-0.855709
-0.6013919	p q f	-0.1648184
-0.6727113	p q n	-0.2145638
-1.02169	p q nr
-0.6727113	p q v	-0.2014357
-0.2625368	q q n	-0.1360279
-1.506781	r q f
-0.172161	r q n	-0.1344498
-1.421051	r q ng	-0.5997318
-1.506781	r q u	-0.1860421
-1.421051	r q v
-1.506781	r q vn
-1.429176	u q f
-0.2477845	u q n	-0.04884982
-0.6627578	u q v	-0.05096216
-1.721192	v q </s>
-2.041479	v q a	0.05867046
-1.36901	v q c	-0.07550749
-1.80828	v q d	0.292808
-1.345528	v q ew	-0.347277
-1.420162	v q f	-0.09304965
-2.3907	v q g	-0.3200901
-2.041479	v q m	0.0514088
-0.4689461	v q n	0.2705439
-1.262554	v q ng	-0.09687695
-2.3907	v q nh	0.01587966
-2.304971	v q nr
-1.67004	v q p	0.08557628
-2.3907	v q q
-1.105768	v q u	-0.2748752
-0.8461308	v q v	0.01642841
-1.36901	v q vn	-0.002480179
-0.9710696	v q w	0.01901305
-0.01949878	vd q c	-0.7304419
-0.9425091	vg q m
-0.5935301	vg q n	-0.1494027
-0.3600897	vg q v	-0.07028589
-1.164358	vn q f
-1.164358	vn q n
-0.8151366	vn q ng	-0.03604496
-0.8153788	vn q u	-0.1754398
-0.8153788	vn q v	-0.1484878
-1.078628	vn q w	-0.07279065
-0.8567796	w q ng	-0.5264179
-0.5935301	w q nr
-0.9425091	w q v
-1.890856	<s> r a	-0.2255041
-2.611516	<s> r ad	0.7514025
-2.262537	<s> r b	-0.6247874
-2.525786	<s> r d
-2.611516	<s> r f	-0.2785608
-2.262537	<s> r m	0.0304191
-0.8116743	<s> r n	-0.272643
-2.525786	<s> r p
-2.525786	<s> r q	-0.1299652
-2.262295	<s> r u	-0.003746465
-0.1175568	<s> r v	-0.3608623
-2.262295	<s> r vn	-0.07125761
-1.803705	<s> r w	0.01385686
-0.5445691	a r v	-0.382805
-0.5445691	a r w
-0.2435391	b r v
-1.741386	c r </s>
-1.827116	c r a
-1.741386	c r d
-1.741386	c r f	-0.1697538
-1.244696	c r m	-0.03888637
-0.5043954	c r n	0.05514622
-1.478137	c r p	-0.01457624
-1.406817	c r q	0.1121646
-1.244696	c r u	-0.113485
-0.4924961	c r v	-0.1286234
-1.741386	c r vn	-0.1697155
-0.5257863	d r n
-1.590249	ew r </s>
-2.026942	ew r a	-0.3874746
-2.620229	ew r ad	0.5221329
-2.883721	ew r b	0.009503826
-2.620229	ew r d	0.138559
-2.969451	ew r f
-2.203033	ew r m	0.1051721
-0.891279	ew r n	-0.1782329
-2.620472	ew r ng	0.1467024
-2.620472	ew r p	0.01256093
-2.620229	ew r q	-0.02571276
-2.620229	ew r u	0.02015811
-0.1092611	ew r v	-1.231104
-2.883721	ew r vg	-0.06687358
-2.620472	ew r vn	0.02950767
-1.590249	ew r w	0.08823788
-1.002908	f r </s>
-0.4191293	f r n	-0.07724373
-0.5062177	f r v	-0.07949762
-0.5445691	m r u
-1.389667	n r m
-0.544068	n r n	-0.02175182
-0.544068	n r u	-0.1916613
-0.5818566	n r v	-0.1488339
-1.389667	n r w
-0.2435391	ng r v
-0.6695079	nr r v
-1.52083	p r </s>
-1.848189	p r a	0.1858108
-2.431967	p r ad	0.5610359
-2.517697	p r ag
-2.168476	p r b	-0.09105909
-2.097399	p r d	-0.8293194
-1.848189	p r f	-0.06680275
-2.431967	p r h	0.01364821
-1.371068	p r m	-0.1478503
-0.6649193	p r n	0.06411421
-1.797037	p r ng	-0.1003069
-2.431967	p r nr
-1.848189	p r p	0.03942911
-1.848189	p r q	0.0819945
-2.431967	p r t
-1.408856	p r u	-0.5396302
-0.2655577	p r v	-0.08263004
-2.168718	p r vn
-0.1164088	q r n
-0.3875121	r r n	0.1395948
-0.8078105	r r v
-1.501455	u r </s>
-1.836024	u r a
-1.921754	u r f
-1.921754	u r k	0.09148028
-0.9000635	u r m	0.2781772
-0.4149733	u r n	0.03234273
-1.501455	u r ng	0.1877098
-1.501455	u r q	0.0310576
-1.836024	u r u
-0.611268	u r v	-0.4101949
-1.921754	u r vn
-1.629566	v r </s>
-1.488237	v r a	-0.3660183
-2.509928	v r ad	0.7514025
-2.509928	v r ag
-2.089629	v r b	0.1281328
-2.160949	v r d	0.1008636
-2.509928	v r ew	-0.1820262
-2.089629	v r f	-0.2806699
-1.567418	v r m	0.06955633
-0.5313222	v r n	0.2602895
-1.597382	v r ng	-0.1933358
-2.089629	v r p	-0.05888653
-1.567418	v r q	0.154097
-1.464756	v r u	-0.5421199
-0.3369696	v r v	0.006895661
-2.509928	v r vg
-1.84042	v r vn	0.09079862
-2.424198	v r w
-0.722081	vg r n	0.01199654
-0.4585893	vg r v	-0.468919
-0.4588315	vn r n
-0.8078105	vn r q
-1.615269	w r </s>
-2.191838	w r a	0.2040785
-1.942628	w r b	-0.09906577
-1.615269	w r d	-0.08574057
-2.262915	w r f	-0.1170151
-1.48399	w r m	0.001512825
-0.4839902	w r n	-0.2776672
-2.263157	w r ng	-0.05278999
-1.48399	w r p	-0.04237175
-1.891476	w r q	-0.06598485
